{"learner":{"attributes":{},"feature_names":[],"feature_types":[],"gradient_booster":{"model":{"cats":{"enc":[],"feature_segments":[],"sorted_idx":[]},"gbtree_model_param":{"num_parallel_tree":"1","num_trees":"129"},"iteration_indptr":[0,1,2,3,4,5,6,7,8,9,10,11,12,13,14,15,16,17,18,19,20,21,22,23,24,25,26,27,28,29,30,31,32,33,34,35,36,37,38,39,40,41,42,43,44,45,46,47,48,49,50,51,52,53,54,55,56,57,58,59,60,61,62,63,64,65,66,67,68,69,70,71,72,73,74,75,76,77,78,79,80,81,82,83,84,85,86,87,88,89,90,91,92,93,94,95,96,97,98,99,100,101,102,103,104,105,106,107,108,109,110,111,112,113,114,115,116,117,118,119,120,121,122,123,124,125,126,127,128,129],"tree_info":[0,0,0,0,0,0,0,0,0,0,0,0,0,0,0,0,0,0,0,0,0,0,0,0,0,0,0,0,0,0,0,0,0,0,0,0,0,0,0,0,0,0,0,0,0,0,0,0,0,0,0,0,0,0,0,0,0,0,0,0,0,0,0,0,0,0,0,0,0,0,0,0,0,0,0,0,0,0,0,0,0,0,0,0,0,0,0,0,0,0,0,0,0,0,0,0,0,0,0,0,0,0,0,0,0,0,0,0,0,0,0,0,0,0,0,0,0,0,0,0,0,0,0,0,0,0,0,0,0],"trees":[{"base_weights":[-4.1627154E0,1.0737111E4,-9.208473E2,1.8934588E4,7.0185156E3,-1.0100605E4,-4.0859677E2,2.0305652E4,-1.4494272E2,8.268477E3,3.5320325E3,-2.7777182E4,8.420349E4,-1.3329817E2,-1.4910713E4,1.675206E4,2.7522943E4,6.236643E3,1.807638E4,5.08546E3,-1.9010931E2,-3.3683496E4,2.3499996E4,3.6798176E4,1.2118705E5,-7.3658844E1,-2.3071848E4,-8.570173E3,-2.8625936E4,1.940986E4,2.5342952E2,4.227294E1,3.1841287E4,6.6195586E3,-1.3611166E2,2.2425697E4,1.13738304E2,1.0159855E3,9.239754E3,-3.8706395E4,1.4145738E4,-8.427248E3,4.8047375E4,1.9017688E4,1.4351155E3,1.5003583E5,1.745166E3,2.8156655E3,-2.8711703E2,-7.0631274E2,-3.4857895E2,-1.3109819E4,8.579269E3,-1.9590012E2,-3.3256742E4,2.14588E4,1.0193066E4,3.7417926E2,-2.5406387E2,4.851641E4,2.2374234E4,5.6435356E3,1.710971E4,1.6041386E4,9.5407294E2,-6.0572183E3,3.9369258E3,1.5774598E4,3.8208372E3,-4.236893E4,7.7267E2,-2.5047847E2,2.8857717E4,-3.5052332E2,-2.4072025E1,1.5990613E3,4.0417172E2,1.1003134E3,-1.7271552E2,2.2786267E3,4.8211963E3,1.0888003E3,4.284899E3,-1.103541E2,-2.840656E3,-9.638894E3,-6.8144165E2,5.881293E2,-5.8447968E1,-1.1796896E3,-2.4212777E4,1.525855E2,2.2687906E4,1.6603549E4,-8.145825E1,6.7067926E2,1.5044069E3,2.988598E4,1.0438367E4,7.0966104E3,3.0447847E3,7.342807E2,1.7298076E2,5.7098474E2,1.0069355E4,6.0976814E1,-3.5629993E2,-1.5177908E2,6.430775E3,5.0433072E2,2.5279927E2,2.555652E2,2.1365343E2,-4.496464E4,1.5311996E2,2.4331128E2,1.0396312E3,2.627961E3,-5.3350093E3,3.760916E3,4.6806467E2,-5.676384E1,-7.799524E3,-5.400666E3,2.0773699E3,-1.3866348E4,-5.069387E3,-3.793577E2,-7.838615E2,1.5693015E4,2.673625E4,2.2627718E2,5.347189E2,3.7740634E2,9.0202423E2,3.3418827E1,4.4500635E2,1.0690773E4,5.870454E3,1.3282677E3,6.2164434E3,6.2169586E1,4.1887653E2,1.7595592E2,2.9722696E2,-7.891277E1,9.07783E1,-3.196771E4,-4.9301113E4,4.7889155E3,1.0885404E3,-7.7356123E3,1.3891675E2,4.1654478E3,-1.6140562E2,-9.9711365E1,1.0742122E4,-1.7185129E4,-6.4983356E2,1.8395377E2,-5.9622427E3,1.0479822E2,1.6534162E4,-3.8215416E1,-1.911079E4,-4.589139E2,-4.321874E2,1.863963E4,1.2797105E2,2.9391662E4,3.2702127E2,3.6372764E3,1.4871879E4,5.4980343E1,6.2929463E3,2.4861038E3,-1.18334206E2,2.6516037E2,2.8293186E3,2.3994412E2,-2.5150826E2,-1.1057162E3,-1.4123579E4,-5.2378117E4,-3.6936695E4,3.6698308E3,3.1659177E2,1.9997039E3,-1.8572852E3,-3.6866772E2,-4.189813E3,3.205894E3,8.831586E3,-1.343043E2,8.569243E3,1.608625E1,4.3104785E2,-4.205409E1,-6.8240375E2,3.8526514E3,-1.988485E2,-6.7053447E3,3.513554E3,1.9204344E3,-1.019157E4,6.5618365E2,6.11605E1,-2.608109E2,-7.597395E2,-3.3013043E2,2.1723235E2,1.2143711E4,7.0660376E2,8.0805646E2,5.0320312E2,1.6958759E2,-2.8790824E0,2.3542874E2,4.2080615E2,5.8243022E3,2.638855E2,5.1985054E0,5.037595E3,1.19207924E2,8.690799E0,-5.0799576E2,4.6792065E1,-6.543964E2,-1.3411562E3,-4.6579703E2,-1.00096234E3,4.8367764E3,-4.324658E1,1.3525657E3,1.2732549E2,-3.5776272E3,5.449175E1,1.2408459E2,-9.794957E3,3.5850554E3,-8.3154366E1,5.956709E2,4.5357993E3,-8.8379036E1,-6.0157183E3,4.3359213E0,4.984694E2,-1.5616585E1,1.8482104E2,-8.08872E3,-2.4805764E3,4.4675626E2,-2.827904E2,-5.505076E3,6.569801E3,1.10022955E1,-5.888624E2,4.6378458E2,5.275425E1,1.5807132E2,7.7622795E1,6.2568066E1,-6.889425E1,7.647579E1,2.0800008E2,8.086315E1,2.6352603E2,1.1376223E2,1.9850595E1,-1.8125616E2,-9.398977E0,-1.07436646E2,-3.52952E2,1.2933575E2,6.1352764E1,-7.5452034E1,4.582159E1,-2.5641459E1,2.1313481E2,-6.956563E0,4.3825085E1,-4.8063132E2,-2.0287199E1,-1.6431328E2,-5.248898E2,1.3808542E1,-3.174022E2,-2.4465514E2,1.3928954E2,3.9383655E2,6.1500244E1],"categories":[],"categories_nodes":[],"categories_segments":[],"categories_sizes":[],"default_left":[0,0,0,0,0,0,0,0,0,0,0,0,0,0,0,0,0,0,0,0,0,0,0,0,0,0,0,0,0,0,0,0,0,0,0,0,0,0,0,0,0,0,0,0,0,0,0,0,0,0,0,0,0,0,0,0,0,0,0,0,0,0,0,0,0,0,0,0,0,0,0,0,0,0,0,0,0,0,0,0,0,0,0,0,0,0,0,0,0,0,0,0,0,0,0,0,0,0,0,0,0,0,0,0,0,0,0,0,0,0,0,0,0,0,0,0,0,0,0,0,0,0,0,0,0,0,0,0,0,0,0,0,0,0,0,0,0,0,0,0,0,0,0,0,0,0,0,0,0,0,0,0,0,0,0,0,0,0,0,0,0,0,0,0,0,0,0,0,0,0,0,0,0,0,0,0,0,0,0,0,0,0,0,0,0,0,0,0,0,0,0,0,0,0,0,0,0,0,0,0,0,0,0,0,0,0,0,0,0,0,0,0,0,0,0,0,0,0,0,0,0,0,0,0,0,0,0,0,0,0,0,0,0,0,0,0,0,0,0,0,0,0,0,0,0,0,0,0,0,0,0,0,0,0,0,0,0,0,0,0,0,0,0,0,0,0,0,0,0,0,0,0,0,0,0,0,0,0,0,0,0,0,0,0,0,0,0,0,0,0,0],"id":0,"left_children":[1,3,5,7,9,11,13,15,-1,17,19,21,23,25,27,29,31,33,35,37,-1,39,41,43,45,47,49,51,53,55,57,-1,59,61,-1,63,-1,65,67,69,71,73,75,77,-1,79,-1,81,83,-1,-1,85,87,-1,89,91,93,-1,-1,95,97,99,101,103,-1,105,107,109,111,113,-1,-1,115,-1,-1,-1,-1,-1,-1,-1,-1,117,119,121,123,125,-1,-1,-1,-1,127,-1,129,131,-1,-1,-1,133,135,137,139,-1,-1,-1,141,-1,-1,-1,143,-1,-1,145,-1,147,-1,-1,-1,149,151,153,-1,155,157,159,161,163,165,-1,-1,167,169,-1,-1,-1,-1,-1,-1,171,173,175,177,-1,-1,179,-1,-1,-1,181,183,185,187,189,-1,191,-1,193,195,197,199,-1,201,203,205,-1,207,209,-1,211,-1,213,-1,215,217,-1,219,221,-1,-1,223,-1,-1,-1,225,227,229,231,-1,233,235,-1,237,239,241,243,245,-1,-1,-1,-1,247,-1,249,251,253,255,-1,-1,-1,-1,-1,-1,257,-1,-1,-1,-1,-1,-1,-1,259,-1,261,263,-1,-1,-1,-1,-1,-1,-1,-1,265,-1,267,-1,269,-1,-1,271,273,275,-1,277,279,281,-1,-1,-1,-1,283,285,-1,-1,287,289,-1,-1,-1,-1,-1,-1,-1,-1,-1,-1,-1,-1,-1,-1,-1,-1,-1,-1,-1,-1,-1,-1,-1,-1,-1,-1,-1,-1,-1,-1,-1,-1,-1,-1,-1,-1],"loss_changes":[1.1082085E11,2.671177E10,4.8754967E10,9.56058E9,2.6086666E9,9.1817935E11,3.921748E10,5.771813E9,0E0,8.722213E9,2.931777E9,1.4180696E11,1.43611E11,1.3188608E10,1.5423377E10,7.88317E9,9.151095E9,1.7494067E9,4.267221E9,2.449471E9,0E0,1.0103544E11,3.9212593E10,1.2838691E10,5.020156E10,5.934752E9,3.944581E8,1.0190054E10,4.9664287E9,2.4896635E9,4.4421775E9,0E0,9.037332E9,3.533742E9,0E0,4.502493E9,0E0,1.6178844E9,2.4291036E9,9.8739225E10,1.5154299E10,9.333253E8,1.2138516E10,1.6808733E10,0E0,3.7961466E10,0E0,1.6702746E9,4.0436575E9,0E0,0E0,4.4833567E9,4.678681E9,0E0,3.5104563E9,2.0822221E9,2.8675576E9,0E0,0E0,2.8407316E9,3.7693788E9,1.2255816E9,3.3420698E9,1.3263514E9,0E0,1.6709034E9,1.4508111E9,3.8906778E8,7.03205E8,4.574013E10,0E0,0E0,5.519403E9,0E0,0E0,0E0,0E0,0E0,0E0,0E0,0E0,3.0634337E9,2.5599124E9,3.4530404E9,7.324752E9,1.5013888E9,0E0,0E0,0E0,0E0,1.1140301E9,0E0,2.4173978E9,4.0789862E8,0E0,0E0,0E0,1.5676662E9,1.4265216E9,8.17579E8,6.585673E8,0E0,0E0,0E0,1.2854282E9,0E0,0E0,0E0,1.5321477E9,0E0,0E0,3.2238333E8,0E0,1.6066937E10,0E0,0E0,0E0,8.1790195E8,1.6547644E9,1.4879923E9,0E0,3.8636193E9,3.8697065E9,2.824791E9,5.6999455E9,2.7238692E9,2.462709E9,0E0,0E0,1.273601E9,1.7693123E9,0E0,0E0,0E0,0E0,0E0,0E0,1.4253676E9,2.266962E8,6.060609E8,5.793655E8,0E0,0E0,2.4113329E9,0E0,0E0,0E0,1.8660172E10,5.718147E9,8.147423E8,4.0467904E8,1.1194253E9,0E0,1.4433065E9,0E0,2.4898447E9,2.1439073E9,3.8269373E9,1.2123195E9,0E0,2.631344E9,3.3667584E9,3.1556603E9,0E0,2.3023647E9,4.1940861E9,0E0,1.5642604E9,0E0,2.4624742E8,0E0,2.6129507E8,2.5161216E7,0E0,1.686912E8,4.4937818E8,0E0,0E0,1.266084E8,0E0,0E0,0E0,4.040491E9,3.7374198E9,1.7443471E9,6.0274086E8,0E0,2.1442816E8,2.6561405E8,0E0,1.9442117E9,3.5102566E8,3.391171E9,2.2310886E9,3.143145E9,0E0,0E0,0E0,0E0,3.7379862E8,0E0,1.9528253E9,6.363816E9,5.3544934E9,3.8566254E9,0E0,0E0,0E0,0E0,0E0,0E0,1.5289979E9,0E0,0E0,0E0,0E0,0E0,0E0,0E0,1.451182E8,0E0,2.758261E8,1.7640365E8,0E0,0E0,0E0,0E0,0E0,0E0,0E0,0E0,6.355634E8,0E0,1.660325E8,0E0,3.0026963E8,0E0,0E0,4.2528154E8,4.2729165E8,1.8538802E8,0E0,1.03813414E9,2.8687895E9,4.3685074E9,0E0,0E0,0E0,0E0,4.733742E9,2.7095293E9,0E0,0E0,2.9542858E9,3.5080714E9,0E0,0E0,0E0,0E0,0E0,0E0,0E0,0E0,0E0,0E0,0E0,0E0,0E0,0E0,0E0,0E0,0E0,0E0,0E0,0E0,0E0,0E0,0E0,0E0,0E0,0E0,0E0,0E0,0E0,0E0,0E0,0E0,0E0,0E0,0E0,0E0],"parents":[2147483647,0,0,1,1,2,2,3,3,4,4,5,5,6,6,7,7,9,9,10,10,11,11,12,12,13,13,14,14,15,15,16,16,17,17,18,18,19,19,21,21,22,22,23,23,24,24,25,25,26,26,27,27,28,28,29,29,30,30,32,32,33,33,35,35,37,37,38,38,39,39,40,40,41,41,42,42,43,43,45,45,47,47,48,48,51,51,52,52,54,54,55,55,56,56,59,59,60,60,61,61,62,62,63,63,65,65,66,66,67,67,68,68,69,69,72,72,81,81,82,82,83,83,84,84,85,85,90,90,92,92,93,93,97,97,98,98,99,99,100,100,104,104,108,108,111,111,113,113,117,117,118,118,119,119,121,121,122,122,123,123,124,124,125,125,126,126,129,129,130,130,137,137,138,138,139,139,140,140,143,143,147,147,148,148,149,149,150,150,151,151,153,153,155,155,156,156,157,157,158,158,160,160,161,161,162,162,164,164,165,165,167,167,169,169,171,171,172,172,174,174,175,175,178,178,182,182,183,183,184,184,185,185,187,187,188,188,190,190,191,191,192,192,193,193,194,194,199,199,201,201,202,202,203,203,204,204,211,211,219,219,221,221,222,222,231,231,233,233,235,235,238,238,239,239,240,240,242,242,243,243,244,244,249,249,250,250,253,253,254,254],"right_children":[2,4,6,8,10,12,14,16,-1,18,20,22,24,26,28,30,32,34,36,38,-1,40,42,44,46,48,50,52,54,56,58,-1,60,62,-1,64,-1,66,68,70,72,74,76,78,-1,80,-1,82,84,-1,-1,86,88,-1,90,92,94,-1,-1,96,98,100,102,104,-1,106,108,110,112,114,-1,-1,116,-1,-1,-1,-1,-1,-1,-1,-1,118,120,122,124,126,-1,-1,-1,-1,128,-1,130,132,-1,-1,-1,134,136,138,140,-1,-1,-1,142,-1,-1,-1,144,-1,-1,146,-1,148,-1,-1,-1,150,152,154,-1,156,158,160,162,164,166,-1,-1,168,170,-1,-1,-1,-1,-1,-1,172,174,176,178,-1,-1,180,-1,-1,-1,182,184,186,188,190,-1,192,-1,194,196,198,200,-1,202,204,206,-1,208,210,-1,212,-1,214,-1,216,218,-1,220,222,-1,-1,224,-1,-1,-1,226,228,230,232,-1,234,236,-1,238,240,242,244,246,-1,-1,-1,-1,248,-1,250,252,254,256,-1,-1,-1,-1,-1,-1,258,-1,-1,-1,-1,-1,-1,-1,260,-1,262,264,-1,-1,-1,-1,-1,-1,-1,-1,266,-1,268,-1,270,-1,-1,272,274,276,-1,278,280,282,-1,-1,-1,-1,284,286,-1,-1,288,290,-1,-1,-1,-1,-1,-1,-1,-1,-1,-1,-1,-1,-1,-1,-1,-1,-1,-1,-1,-1,-1,-1,-1,-1,-1,-1,-1,-1,-1,-1,-1,-1,-1,-1,-1,-1],"split_conditions":[-8.356E3,-2.35E4,1E0,5.512809E4,1.61828E5,1E0,3.92E4,2.007E3,-1.4494272E2,1.1014961E5,2.728E1,1E0,1.841E3,4.2769266E5,3.5978875E4,3.9036508E4,5.75E2,1.1336E5,1.976E3,8.54E2,-1.9010931E2,1E0,1.76691E3,4.5256E2,1.6525E1,-4.289E3,4.298424E4,1.1762E4,1.57296E5,1E0,1.7073E5,4.227294E1,-4.3226E4,1.077E5,-1.3611166E2,2.503E1,1.13738304E2,-1.9328E4,1.414E3,1E0,1.8008E2,1.3E3,2.117E1,8.32E2,1.4351155E3,7E2,1.745166E3,2.19137E3,1.3846E4,-7.0631274E2,-3.4857895E2,4.283E3,1.748664E4,-1.9590012E2,1.93E3,6.28635E4,1.70628E5,3.7417926E2,-2.5406387E2,2.26517E5,1.032E3,1.99E1,9.699E4,1.18441E5,9.5407294E2,2.04781E5,8.2959E2,-1.631E4,1.7761678E4,1E0,7.7267E2,-2.5047847E2,2.4855E1,-3.5052332E2,-2.4072025E1,1.5990613E3,4.0417172E2,1.1003134E3,-1.7271552E2,2.2786267E3,4.8211963E3,1.4354102E4,3.9036508E4,3.11838E5,2.144E1,1.131E5,-6.8144165E2,5.881293E2,-5.8447968E1,-1.1796896E3,6.8395E4,1.525855E2,7E0,1.522E5,-8.145825E1,6.7067926E2,1.5044069E3,1.075E1,1.712E3,-1.4924E4,2.5985E1,7.342807E2,1.7298076E2,5.7098474E2,1.1E1,6.0976814E1,-3.5629993E2,-1.5177908E2,1.594E1,5.0433072E2,2.5279927E2,1.50616665E1,2.1365343E2,1.422E1,1.5311996E2,2.4331128E2,1.0396312E3,6.91E2,2.767E1,2.9396848E4,4.6806467E2,2.5775567E5,1.024994E4,9.2E1,3.4299484E4,6.3333E4,1.996E3,-3.793577E2,-7.838615E2,2.09E1,-2.5977E4,2.2627718E2,5.347189E2,3.7740634E2,9.0202423E2,3.3418827E1,4.4500635E2,3.6074117E4,4.94E2,7.8725E4,2E3,6.2169586E1,4.1887653E2,1.035E1,2.9722696E2,-7.891277E1,9.07783E1,7E2,1E0,1.1336E5,9.0479E4,-6.868E3,1.3891675E2,1.20253E5,-1.6140562E2,5.1508484E4,6.26E2,2.67E3,3.342349E4,1.8395377E2,3.30734E5,2.01E3,2.646E2,-3.8215416E1,5.347E4,9.176666E0,-4.321874E2,1.01E3,1.2797105E2,2.432E1,3.2702127E2,9.03395E3,8.307584E3,5.4980343E1,1.1677961E4,1.3E1,-1.18334206E2,2.6516037E2,-1.1892E4,2.3994412E2,-2.5150826E2,-1.1057162E3,1E0,8.3E1,1.695E1,1.8E1,3.1659177E2,5.7018E4,1.54867E5,-3.6866772E2,2.086E1,1.0553794E4,1.996E3,2.49684E5,1E0,1.608625E1,4.3104785E2,-4.205409E1,-6.8240375E2,2.002E3,-1.988485E2,1.8025E4,3.9875466E5,1.999E3,2.6918333E1,6.5618365E2,6.11605E1,-2.608109E2,-7.597395E2,-3.3013043E2,2.1723235E2,4E0,7.0660376E2,8.0805646E2,5.0320312E2,1.6958759E2,-2.8790824E0,2.3542874E2,4.2080615E2,2.009E3,2.638855E2,2.156E1,6.28635E4,1.19207924E2,8.690799E0,-5.0799576E2,4.6792065E1,-6.543964E2,-1.3411562E3,-4.6579703E2,-1.00096234E3,5.789694E3,-4.324658E1,1E4,1.2732549E2,-5.998E3,5.449175E1,1.2408459E2,1.19257336E5,-6.223E3,-6.223E3,5.956709E2,1.4354102E4,1E0,5.58781E3,4.3359213E0,4.984694E2,-1.5616585E1,1.8482104E2,2.5471E5,2.4799E4,4.4675626E2,-2.827904E2,2.051E3,5.0286E2,1.10022955E1,-5.888624E2,4.6378458E2,5.275425E1,1.5807132E2,7.7622795E1,6.2568066E1,-6.889425E1,7.647579E1,2.0800008E2,8.086315E1,2.6352603E2,1.1376223E2,1.9850595E1,-1.8125616E2,-9.398977E0,-1.07436646E2,-3.52952E2,1.2933575E2,6.1352764E1,-7.5452034E1,4.582159E1,-2.5641459E1,2.1313481E2,-6.956563E0,4.3825085E1,-4.8063132E2,-2.0287199E1,-1.6431328E2,-5.248898E2,1.3808542E1,-3.174022E2,-2.4465514E2,1.3928954E2,3.9383655E2,6.1500244E1],"split_indices":[13,13,10,9,5,119,13,0,0,8,3,123,2,7,9,9,2,4,1,1,0,116,2,2,3,13,9,2,7,123,4,0,13,5,0,3,0,13,1,118,2,1,3,1,0,1,0,2,13,0,0,2,2,0,2,7,7,0,0,6,1,3,4,4,0,6,2,13,9,125,0,0,3,0,0,0,0,0,0,0,0,9,9,7,3,6,0,0,0,0,13,0,10,5,0,0,0,3,1,13,3,0,0,0,10,0,0,0,3,0,0,3,0,3,0,0,0,1,3,9,0,8,2,1,9,8,1,0,0,3,13,0,0,0,0,0,0,8,1,8,0,0,0,3,0,0,0,1,120,4,4,13,0,4,0,9,1,2,2,0,6,0,2,0,13,3,0,1,0,3,0,9,9,0,9,10,0,0,13,0,0,0,117,1,3,10,0,7,5,0,3,9,0,4,123,0,0,0,0,0,0,2,7,0,3,0,0,0,0,0,0,10,0,0,0,0,0,0,0,0,0,3,7,0,0,0,0,0,0,0,0,9,0,6,0,13,0,0,8,13,13,0,9,119,2,0,0,0,0,4,13,0,0,1,2,0,0,0,0,0,0,0,0,0,0,0,0,0,0,0,0,0,0,0,0,0,0,0,0,0,0,0,0,0,0,0,0,0,0,0,0],"split_type":[0,0,0,0,0,0,0,0,0,0,0,0,0,0,0,0,0,0,0,0,0,0,0,0,0,0,0,0,0,0,0,0,0,0,0,0,0,0,0,0,0,0,0,0,0,0,0,0,0,0,0,0,0,0,0,0,0,0,0,0,0,0,0,0,0,0,0,0,0,0,0,0,0,0,0,0,0,0,0,0,0,0,0,0,0,0,0,0,0,0,0,0,0,0,0,0,0,0,0,0,0,0,0,0,0,0,0,0,0,0,0,0,0,0,0,0,0,0,0,0,0,0,0,0,0,0,0,0,0,0,0,0,0,0,0,0,0,0,0,0,0,0,0,0,0,0,0,0,0,0,0,0,0,0,0,0,0,0,0,0,0,0,0,0,0,0,0,0,0,0,0,0,0,0,0,0,0,0,0,0,0,0,0,0,0,0,0,0,0,0,0,0,0,0,0,0,0,0,0,0,0,0,0,0,0,0,0,0,0,0,0,0,0,0,0,0,0,0,0,0,0,0,0,0,0,0,0,0,0,0,0,0,0,0,0,0,0,0,0,0,0,0,0,0,0,0,0,0,0,0,0,0,0,0,0,0,0,0,0,0,0,0,0,0,0,0,0,0,0,0,0,0,0,0,0,0,0,0,0,0,0,0,0,0,0,0,0,0,0,0,0],"sum_hessian":[1.1251E4,8.83E2,1.0368E4,2.73E2,6.1E2,5.46E2,9.822E3,2.59E2,1.4E1,4.47E2,1.63E2,4.61E2,8.5E1,9.641E3,1.81E2,1.78E2,8.1E1,3.73E2,7.4E1,1.44E2,1.9E1,4.14E2,4.7E1,3.9E1,4.6E1,9.618E3,2.3E1,1.26E2,5.5E1,1.53E2,2.5E1,1.2E1,6.9E1,3.62E2,1.1E1,5.5E1,1.9E1,7.4E1,7E1,3.75E2,3.9E1,2.1E1,2.6E1,2.3E1,1.6E1,2.7E1,1.9E1,6.6E2,8.958E3,1.2E1,1.1E1,1E2,2.6E1,1.1E1,4.4E1,1.23E2,3E1,1E1,1.5E1,2.2E1,4.7E1,3.34E2,2.8E1,4.2E1,1.3E1,2.1E1,5.3E1,3E1,4E1,3.57E2,1.8E1,1.5E1,2.4E1,1.1E1,1E1,1.6E1,1E1,1.1E1,1.2E1,1.4E1,1.3E1,3.05E2,3.55E2,8.38E3,5.78E2,8.3E1,1.7E1,1E1,1.6E1,1.4E1,3E1,1E1,1.13E2,2E1,1E1,1E1,1.2E1,2.7E1,2E1,2.12E2,1.22E2,1.1E1,1.7E1,1.7E1,2.5E1,1.1E1,1E1,1E1,4.3E1,1.4E1,1.6E1,2.4E1,1.6E1,3.39E2,1.8E1,1.1E1,1.3E1,2.47E2,5.8E1,3.45E2,1E1,8.324E3,5.6E1,3.8E2,1.98E2,4.1E1,4.2E1,1.6E1,1.4E1,4.5E1,6.8E1,1E1,1E1,1E1,1.7E1,1E1,1E1,5E1,1.62E2,8.1E1,4.1E1,1.3E1,1.2E1,2.1E1,2.2E1,1.2E1,1.2E1,8.9E1,2.5E2,1.01E2,1.46E2,4.8E1,1E1,3.33E2,1.2E1,8.293E3,3.1E1,2.3E1,3.3E1,1.5E1,3.65E2,1.76E2,2.2E1,1.3E1,2.8E1,3.2E1,1E1,3.4E1,1.1E1,5.5E1,1.3E1,2E1,3E1,1.8E1,1.44E2,6.9E1,1.2E1,1.6E1,2.5E1,1.1E1,1E1,5.1E1,3.8E1,1.95E2,5.5E1,9.1E1,1E1,1.12E2,3.4E1,1.4E1,3.4E1,2.79E2,5.4E1,8.262E3,3.1E1,1.3E1,1.8E1,1E1,1.3E1,2.1E1,1.2E1,3.39E2,2.6E1,1.51E2,2.5E1,1.2E1,1E1,1.8E1,1E1,1.3E1,1.9E1,2.3E1,1.1E1,3.8E1,1.7E1,1E1,1E1,1.1E1,1.9E1,1.34E2,1E1,3.6E1,3.3E1,1.3E1,1.2E1,2.7E1,1.1E1,1.1E1,1.84E2,1E1,4.5E1,7.5E1,1.6E1,9.5E1,1.7E1,2.4E1,1E1,1.3E1,2.1E1,2.5E2,2.9E1,1E1,4.4E1,8.2E3,6.2E1,1.9E1,1.2E1,1E1,1.1E1,2.54E2,8.5E1,1.3E1,1.3E1,5.8E1,9.3E1,1.5E1,1E1,1.3E1,1E1,1.11E2,2.3E1,1.9E1,1.7E1,2.3E1,1E1,6.1E1,1.4E1,1.2E1,8.3E1,1E1,1.4E1,1.1E1,1E1,1.01E2,1.49E2,1.1E1,1.8E1,1.9E1,2.5E1,7.435E3,7.65E2,1.6E1,4.6E1,2.3E2,2.4E1,6.7E1,1.8E1,4.2E1,1.6E1,2.7E1,6.6E1],"tree_param":{"num_deleted":"0","num_feature":"126","num_nodes":"291","size_leaf_vector":"1"}},{"base_weights":[-1.2568672E1,1.0426131E4,-9.168793E2,1.8938037E4,6.710437E3,-9.94251E3,-4.1923218E2,2.007264E4,-1.7105327E2,6.1915483E3,1.3875346E4,-2.795347E4,8.153398E4,-1.2420811E2,-1.6034805E4,1.5340322E4,2.8775732E4,6.9440513E3,-7.8743296E3,7.390146E2,2.552278E3,-3.2993785E4,1.9547773E4,3.4331246E4,1.1792291E5,-4.424406E1,-1.1271536E4,-1.21113E4,-4.2275594E4,1.7735117E4,-1.9242051E3,1.3235368E2,3.2602645E4,7.7487036E3,2.9679204E3,-4.450319E1,-3.0194766E2,-1.3099411E2,3.129072E2,-3.6329543E4,8.1834247E2,-2.3233838E2,4.1339E4,1.7234992E4,1.4989572E3,1.4768656E5,1.6653959E3,-8.567393E1,1.6531389E4,-1.5468098E4,3.5006638E1,-6.4360024E3,-2.2918295E4,-6.3232166E2,-1.2862006E3,2.1204828E4,2.7120696E3,1.1427999E2,-2.1600484E2,4.8911668E4,2.3844666E4,5.6235938E3,1.4543405E4,-2.2316478E2,5.5065225E3,-4.17816E4,1.2649476E4,1.3825834E3,3.9575146E2,9.928161E2,-1.8851656E2,2.228782E3,4.694026E3,2.218107E3,-3.4512973E2,8.7340155E2,-4.014178E1,-2.1931732E4,-4.832951E1,9.0773125E3,-1.0126125E4,-1.2589958E3,-1.4581961E4,2.5072816E4,1.2752442E4,2.564769E2,-2.7368002E2,6.8292346E2,1.4916475E3,2.0872435E2,2.7874436E4,6.744556E3,3.5204116E3,1.1638302E4,7.847655E2,2.945061E3,3.166619E2,-4.2898766E4,-3.1873483E2,-2.449532E2,2.6353719E4,1.8482446E3,5.4038617E2,-2.3158333E2,-5.6428667E3,-2.5217847E2,-7.999375E2,-1.1509086E1,4.2755258E2,-1.5666896E4,8.1723066E3,8.6929436E1,-2.213581E4,2.5827985E2,2.680917E4,1.8472195E4,-1.27557106E2,4.0202817E2,9.054594E2,7.286139E3,-1.099706E2,1.6807759E3,7.121508E3,1.389939E4,5.3289143E1,-1.3942913E3,7.8113013E3,-4.0199984E4,-1.3436625E3,1.2323816E2,9.781912E2,2.1903276E3,-3.2426543E3,-2.5279533E2,3.3938834E2,-5.983525E2,-3.5790613E3,-1.1064347E4,-8.4477655E2,4.243007E2,-4.973662E1,-7.3211786E2,-3.0956735E2,7.105481E2,3.4685028E2,6.309438E2,2.5075089E2,1.1460844E4,6.271193E3,-1.9205276E3,3.3377634E3,2.3790615E3,1.1038499E4,1.6723398E4,-6.983721E1,-1.467558E2,1.1463676E3,-2.0450104E1,3.6266046E2,-3.6616004E4,-1.3477456E3,1.8605157E3,5.9177393E3,1.1549727E2,-5.356742E3,-1.116002E2,-2.5631716E3,-1.1276426E4,4.746469E2,-1.331502E4,-5.439937E0,9.6105774E1,1.512544E4,5.4846484E3,1.0069766E4,2.7761206E1,-1.5998712E2,1.1459154E3,7.119138E3,9.695342E1,1.20869055E1,3.6182553E2,1.3695044E2,9.331247E3,2.257046E4,-6.0508186E1,1.2791127E2,-2.6045604E4,-3.973653E4,2.1962175E3,-6.0984204E3,1.136463E4,1.244986E3,-2.9930728E2,-1.7338655E3,-2.8827368E2,1.6249111E3,-5.2877266E3,2.1687493E3,-2.7136226E3,-1.9951213E4,4.571898E2,-1.6723994E3,-1.5738247E4,-1.7611584E2,2.1150464E2,5.5117444E2,1.496006E2,6.318649E1,7.241814E1,3.6980743E2,1.076061E2,-1.5697435E1,2.4463493E2,8.16589E1,4.2794736E2,9.704377E1,1.817227E2,7.403874E2,-9.188442E2,-1.6386485E2,-1.0474663E3,-6.386773E2,8.87089E1,3.9614216E1,-2.8844354E2,3.6575825E1,3.699964E2,9.506921E1,-1.0027298E2,1.1464428E2,9.761547E1,-2.1413094E2,-4.145943E0,-6.184982E1,-4.5879836E0,1.575539E2,-1.4401897E2,1.5922807E2,-2.9892757E0,3.6294687E2,1.8805511E2,-2.4925415E2,-7.709886E2,-2.6188815E2,8.006241E1,-1.7192462E2,-5.3362317E2,-2.748615E2],"categories":[],"categories_nodes":[],"categories_segments":[],"categories_sizes":[],"default_left":[0,0,0,0,0,0,0,0,0,0,0,0,0,0,0,0,0,0,0,0,0,0,0,0,0,0,0,0,0,0,0,0,0,0,0,0,0,0,0,0,0,0,0,0,0,0,0,0,0,0,0,0,0,0,0,0,0,0,0,0,0,0,0,0,0,0,0,0,0,0,0,0,0,0,0,0,0,0,0,0,0,0,0,0,0,0,0,0,0,0,0,0,0,0,0,0,0,0,0,0,0,0,0,0,0,0,0,0,0,0,0,0,0,0,0,0,0,0,0,0,0,0,0,0,0,0,0,0,0,0,0,0,0,0,0,0,0,0,0,0,0,0,0,0,0,0,0,0,0,0,0,0,0,0,0,0,0,0,0,0,0,0,0,0,0,0,0,0,0,0,0,0,0,0,0,0,0,0,0,0,0,0,0,0,0,0,0,0,0,0,0,0,0,0,0,0,0,0,0,0,0,0,0,0,0,0,0,0,0,0,0,0,0,0,0,0,0,0,0,0,0,0,0,0,0,0,0,0,0,0,0,0,0,0,0,0,0,0,0,0,0,0,0,0,0,0,0,0,0],"id":1,"left_children":[1,3,5,7,9,11,13,15,-1,17,19,21,23,25,27,29,31,33,35,-1,37,39,41,43,45,47,49,51,53,55,57,-1,59,61,63,-1,-1,-1,-1,65,-1,-1,67,69,-1,71,-1,73,75,77,-1,79,81,-1,-1,83,85,-1,-1,87,89,91,93,-1,95,97,99,-1,-1,-1,-1,-1,-1,101,103,-1,-1,105,-1,107,109,-1,111,113,115,-1,-1,-1,-1,-1,117,119,121,123,-1,125,-1,127,-1,-1,129,131,-1,133,135,-1,-1,-1,-1,137,139,-1,141,-1,143,145,-1,-1,-1,147,-1,149,151,153,-1,155,157,159,-1,-1,-1,161,163,165,-1,-1,167,169,-1,-1,-1,-1,-1,-1,-1,-1,-1,171,173,175,177,179,181,183,-1,-1,185,-1,-1,187,-1,189,191,-1,193,195,197,199,201,203,-1,-1,205,207,209,-1,-1,211,213,-1,-1,-1,-1,215,217,-1,-1,219,221,223,225,227,229,-1,231,233,235,237,239,241,243,-1,245,247,-1,-1,-1,-1,-1,-1,-1,-1,-1,-1,-1,-1,-1,-1,-1,-1,-1,-1,-1,-1,-1,-1,-1,-1,-1,-1,-1,-1,-1,-1,-1,-1,-1,-1,-1,-1,-1,-1,-1,-1,-1,-1,-1,-1,-1],"loss_changes":[1.0680244E11,2.8273967E10,4.6757986E10,8.260002E9,2.1741076E9,9.0084154E11,4.5466804E10,9.907814E9,0E0,6.3754486E9,7.1309123E9,1.1046594E11,1.4649216E11,8.635637E9,1.78169E10,7.2622817E9,7.742382E9,1.7552691E9,7.511402E8,0E0,2.1498045E9,9.292913E10,2.9050313E10,1.6334545E10,5.667776E10,6.6105124E9,3.712601E9,9.640929E9,9.8023834E8,7.8602076E9,1.0823224E9,0E0,8.665653E9,6.579669E9,3.0574612E9,0E0,0E0,0E0,0E0,1.0626938E11,0E0,0E0,7.510688E9,1.619208E10,0E0,3.68948E10,0E0,5.739733E9,8.123552E9,4.4644116E9,0E0,6.423654E9,1.1113208E10,0E0,0E0,3.4145444E9,3.4203003E9,0E0,0E0,2.54609E9,2.906534E9,7.988869E8,4.653052E9,0E0,1.4292685E9,1.0420027E10,1.3129159E10,0E0,0E0,0E0,0E0,0E0,0E0,6.893561E9,5.1886684E9,0E0,0E0,3.5273452E9,0E0,1.6995793E9,9.279551E9,0E0,6.29266E9,1.5705825E9,4.579859E9,0E0,0E0,0E0,0E0,0E0,2.9680476E9,1.464237E9,8.306477E8,2.025814E9,0E0,1.3521114E9,0E0,5.661786E9,0E0,0E0,6.729687E9,1.6790881E9,0E0,2.4819643E9,6.661343E9,0E0,0E0,0E0,0E0,5.008047E9,2.034787E9,0E0,1.5059241E9,0E0,7.342203E8,1.3785539E9,0E0,0E0,0E0,7.968891E8,0E0,5.379443E8,7.462505E8,3.7704212E9,0E0,4.114732E8,1.7569588E9,9.859203E9,0E0,0E0,0E0,1.0807014E9,1.06344403E9,2.7526735E9,0E0,0E0,5.159178E9,1.4101299E9,0E0,0E0,0E0,0E0,0E0,0E0,0E0,0E0,0E0,1.0280929E9,4.3629978E8,4.0790534E8,4.892642E8,5.8765784E7,2.806779E8,2.4746742E9,0E0,0E0,3.6460877E8,0E0,0E0,5.483692E9,0E0,2.236388E9,1.8042447E9,0E0,1.1328819E9,2.4418017E9,6.288631E9,4.1257098E9,4.2681423E9,5.0759936E8,0E0,0E0,8.7256986E8,2.001239E8,8.966738E8,0E0,0E0,2.3509888E8,1.6207027E8,0E0,0E0,0E0,0E0,1.267404E9,3.4502554E9,0E0,0E0,1.1623539E10,3.1667487E9,6.4624666E8,1.4321518E9,7.4467046E8,7.5669914E8,0E0,1.3765197E9,1.9321308E9,6.21929E9,1.7772288E9,5.061788E9,2.452574E9,2.2427617E9,0E0,2.581228E9,4.083451E8,0E0,0E0,0E0,0E0,0E0,0E0,0E0,0E0,0E0,0E0,0E0,0E0,0E0,0E0,0E0,0E0,0E0,0E0,0E0,0E0,0E0,0E0,0E0,0E0,0E0,0E0,0E0,0E0,0E0,0E0,0E0,0E0,0E0,0E0,0E0,0E0,0E0,0E0,0E0,0E0,0E0,0E0,0E0,0E0,0E0],"parents":[2147483647,0,0,1,1,2,2,3,3,4,4,5,5,6,6,7,7,9,9,10,10,11,11,12,12,13,13,14,14,15,15,16,16,17,17,18,18,20,20,21,21,22,22,23,23,24,24,25,25,26,26,27,27,28,28,29,29,30,30,32,32,33,33,34,34,39,39,42,42,43,43,45,45,47,47,48,48,49,49,51,51,52,52,55,55,56,56,59,59,60,60,61,61,62,62,64,64,65,65,66,66,73,73,74,74,77,77,79,79,80,80,82,82,83,83,84,84,90,90,91,91,92,92,93,93,95,95,97,97,100,100,101,101,103,103,104,104,109,109,110,110,112,112,114,114,115,115,119,119,121,121,122,122,123,123,125,125,126,126,127,127,131,131,132,132,133,133,136,136,137,137,147,147,148,148,149,149,150,150,151,151,152,152,153,153,156,156,159,159,161,161,162,162,164,164,165,165,166,166,167,167,168,168,169,169,172,172,173,173,174,174,177,177,178,178,183,183,184,184,187,187,188,188,189,189,190,190,191,191,192,192,194,194,195,195,196,196,197,197,198,198,199,199,200,200,202,202,203,203],"right_children":[2,4,6,8,10,12,14,16,-1,18,20,22,24,26,28,30,32,34,36,-1,38,40,42,44,46,48,50,52,54,56,58,-1,60,62,64,-1,-1,-1,-1,66,-1,-1,68,70,-1,72,-1,74,76,78,-1,80,82,-1,-1,84,86,-1,-1,88,90,92,94,-1,96,98,100,-1,-1,-1,-1,-1,-1,102,104,-1,-1,106,-1,108,110,-1,112,114,116,-1,-1,-1,-1,-1,118,120,122,124,-1,126,-1,128,-1,-1,130,132,-1,134,136,-1,-1,-1,-1,138,140,-1,142,-1,144,146,-1,-1,-1,148,-1,150,152,154,-1,156,158,160,-1,-1,-1,162,164,166,-1,-1,168,170,-1,-1,-1,-1,-1,-1,-1,-1,-1,172,174,176,178,180,182,184,-1,-1,186,-1,-1,188,-1,190,192,-1,194,196,198,200,202,204,-1,-1,206,208,210,-1,-1,212,214,-1,-1,-1,-1,216,218,-1,-1,220,222,224,226,228,230,-1,232,234,236,238,240,242,244,-1,246,248,-1,-1,-1,-1,-1,-1,-1,-1,-1,-1,-1,-1,-1,-1,-1,-1,-1,-1,-1,-1,-1,-1,-1,-1,-1,-1,-1,-1,-1,-1,-1,-1,-1,-1,-1,-1,-1,-1,-1,-1,-1,-1,-1,-1,-1],"split_conditions":[-8.356E3,-2.35E4,1E0,6.990905E4,3.09147E5,1E0,3.92E4,2.007E3,-1.7105327E2,2.46394E5,3.6476834E5,1E0,1.841E3,3.61751E5,2.762E1,2.97584E5,5.75E2,1.61828E5,8.47E2,7.390146E2,1.106E1,1E0,1.76691E3,4.5256E2,1.6525E1,3.30734E5,4.0968E4,2.5471E5,2.808E1,1E0,3.0626336E4,1.3235368E2,-4.3226E4,1E5,6.4E1,-4.450319E1,-3.0194766E2,-1.3099411E2,3.129072E2,1E0,8.1834247E2,-2.3233838E2,2.117E1,8.32E2,1.4989572E3,7E2,1.6653959E3,-3.243E3,1.6525E1,1.746E4,3.5006638E1,3.3385E2,2.41843E5,-6.3232166E2,-1.2862006E3,2.448E1,1.70628E5,1.1427999E2,-2.1600484E2,2.26517E5,1.6344369E4,1.99E1,2.728E1,-2.2316478E2,2.6910338E4,7.5843E4,1.8008E2,1.3825834E3,3.9575146E2,9.928161E2,-1.8851656E2,2.228782E3,4.694026E3,3.9036508E4,2.49684E5,8.7340155E2,-4.014178E1,2.001E3,-4.832951E1,7.3799E4,1.29365E4,-1.2589958E3,2.846138E4,6.6752E4,1.70628E5,2.564769E2,-2.7368002E2,6.8292346E2,1.4916475E3,2.0872435E2,2.28E3,1.1E5,2.5985E1,1.976E3,7.847655E2,1.86025E5,3.166619E2,1E0,-3.1873483E2,-2.449532E2,2.455E1,2.039214E4,5.4038617E2,1E0,7.51E0,-2.5217847E2,-7.999375E2,-1.1509086E1,4.2755258E2,6.464E3,1.9212E4,8.6929436E1,8.24402E3,2.5827985E2,-2.5977E4,2.899E2,-1.27557106E2,4.0202817E2,9.054594E2,-1.631E4,-1.099706E2,5.48E2,4.5833E4,1.9E1,5.3289143E1,1.54994E5,-1.7857E4,1E0,-1.3436625E3,1.2323816E2,9.781912E2,1.4957E5,4.94E2,1.3846E4,3.3938834E2,-5.983525E2,6.31661E3,2.19196E5,-8.4477655E2,4.243007E2,-4.973662E1,-7.3211786E2,-3.0956735E2,7.105481E2,3.4685028E2,6.309438E2,2.5075089E2,3.286E4,1.08335E4,6.49015E4,6.5841E4,5.402538E3,7.418E4,1.2363E5,-6.983721E1,-1.467558E2,1.712E3,-2.0450104E1,3.6266046E2,1.422E1,-1.3477456E3,1.25305E5,1.74545E5,1.1549727E2,2.3201678E4,1E0,2.193E1,2.524E3,1.995E3,1.6E1,-5.439937E0,9.6105774E1,1.626E1,1.9E1,-1.1892E4,2.7761206E1,-1.5998712E2,2.4825E4,8.1455E4,9.695342E1,1.20869055E1,3.6182553E2,1.3695044E2,-1.4924E4,6.3E2,-6.0508186E1,1.2791127E2,7E2,2.041E3,-5.998E3,1.70505E3,2.051E3,2.0198267E5,-2.9930728E2,1.71053E5,7.819E3,4.688E3,2.07442E5,3.0027E4,1.238E3,4.359E3,4.571898E2,4.009369E4,9.5714E4,-1.7611584E2,2.1150464E2,5.5117444E2,1.496006E2,6.318649E1,7.241814E1,3.6980743E2,1.076061E2,-1.5697435E1,2.4463493E2,8.16589E1,4.2794736E2,9.704377E1,1.817227E2,7.403874E2,-9.188442E2,-1.6386485E2,-1.0474663E3,-6.386773E2,8.87089E1,3.9614216E1,-2.8844354E2,3.6575825E1,3.699964E2,9.506921E1,-1.0027298E2,1.1464428E2,9.761547E1,-2.1413094E2,-4.145943E0,-6.184982E1,-4.5879836E0,1.575539E2,-1.4401897E2,1.5922807E2,-2.9892757E0,3.6294687E2,1.8805511E2,-2.4925415E2,-7.709886E2,-2.6188815E2,8.006241E1,-1.7192462E2,-5.3362317E2,-2.748615E2],"split_indices":[13,13,10,9,6,119,13,0,0,5,7,123,2,5,3,4,2,5,1,0,3,118,2,2,3,6,9,4,3,123,9,0,13,6,2,0,0,0,0,116,0,0,3,1,0,1,0,13,3,13,0,2,6,0,0,3,7,0,0,6,9,3,3,0,9,2,2,0,0,0,0,0,0,9,4,0,0,0,0,5,2,0,9,6,7,0,0,0,0,0,2,5,3,1,0,6,0,121,0,0,3,9,0,24,3,0,0,0,0,2,2,0,2,0,13,2,0,0,0,13,0,2,6,10,0,4,13,122,0,0,0,6,1,13,0,0,2,4,0,0,0,0,0,0,0,0,0,6,9,7,5,9,6,6,0,0,1,0,0,3,0,4,7,0,9,119,3,2,0,10,0,0,3,10,13,0,0,6,5,0,0,0,0,13,1,0,0,1,1,13,2,1,7,0,5,13,13,5,13,13,13,0,2,6,0,0,0,0,0,0,0,0,0,0,0,0,0,0,0,0,0,0,0,0,0,0,0,0,0,0,0,0,0,0,0,0,0,0,0,0,0,0,0,0,0,0,0,0,0],"split_type":[0,0,0,0,0,0,0,0,0,0,0,0,0,0,0,0,0,0,0,0,0,0,0,0,0,0,0,0,0,0,0,0,0,0,0,0,0,0,0,0,0,0,0,0,0,0,0,0,0,0,0,0,0,0,0,0,0,0,0,0,0,0,0,0,0,0,0,0,0,0,0,0,0,0,0,0,0,0,0,0,0,0,0,0,0,0,0,0,0,0,0,0,0,0,0,0,0,0,0,0,0,0,0,0,0,0,0,0,0,0,0,0,0,0,0,0,0,0,0,0,0,0,0,0,0,0,0,0,0,0,0,0,0,0,0,0,0,0,0,0,0,0,0,0,0,0,0,0,0,0,0,0,0,0,0,0,0,0,0,0,0,0,0,0,0,0,0,0,0,0,0,0,0,0,0,0,0,0,0,0,0,0,0,0,0,0,0,0,0,0,0,0,0,0,0,0,0,0,0,0,0,0,0,0,0,0,0,0,0,0,0,0,0,0,0,0,0,0,0,0,0,0,0,0,0,0,0,0,0,0,0,0,0,0,0,0,0,0,0,0,0,0,0,0,0,0,0,0,0],"sum_hessian":[1.131E4,9E2,1.041E4,2.71E2,6.29E2,5.42E2,9.868E3,2.6E2,1.1E1,5.9E2,3.9E1,4.54E2,8.8E1,9.687E3,1.81E2,1.72E2,8.8E1,5.61E2,2.9E1,1.5E1,2.4E1,4.11E2,4.3E1,4E1,4.8E1,9.62E3,6.7E1,1.6E2,2.1E1,1.51E2,2.1E1,1.3E1,7.5E1,4.65E2,9.6E1,1.3E1,1.6E1,1.4E1,1E1,3.92E2,1.9E1,1.9E1,2.4E1,2.6E1,1.4E1,2.8E1,2E1,9.598E3,2.2E1,5E1,1.7E1,1.07E2,5.3E1,1E1,1.1E1,1.22E2,2.9E1,1.1E1,1E1,2.3E1,5.2E1,3.57E2,1.08E2,1.6E1,8E1,3.53E2,3.9E1,1.4E1,1E1,1.3E1,1.3E1,1.4E1,1.4E1,9.7E2,8.628E3,1E1,1.2E1,3.3E1,1.7E1,2E1,8.7E1,1E1,4.3E1,8.1E1,4.1E1,1.9E1,1E1,1E1,1.3E1,1.2E1,4E1,2.3E2,1.27E2,9.5E1,1.3E1,6.1E1,1.9E1,3.39E2,1.4E1,1.5E1,2.4E1,9.54E2,1.6E1,8.449E3,1.79E2,1.7E1,1.6E1,1E1,1E1,6.7E1,2E1,1.3E1,3E1,1E1,7.1E1,3.1E1,1E1,1.9E1,2.1E1,2.2E2,1E1,8.6E1,4.1E1,7.6E1,1.9E1,3.3E1,2.8E1,2.79E2,6E1,1E1,1.4E1,8.95E2,5.9E1,8.438E3,1.1E1,1.6E1,1.63E2,5.6E1,1.1E1,1E1,1E1,1.5E1,1.5E1,6.1E1,1E1,1.5E1,1.6E1,3.9E1,1.81E2,2.7E1,5.9E1,2E1,2.1E1,6.5E1,1.1E1,1.1E1,2.2E1,1.3E1,1.5E1,2.27E2,5.2E1,8.25E2,7E1,1.2E1,4.7E1,7.954E3,4.84E2,5.5E1,1.08E2,4.6E1,1E1,1.4E1,2.5E1,1.54E2,2.7E1,1.7E1,1E1,3.9E1,2E1,1E1,1E1,1.1E1,1E1,3.1E1,3.4E1,1.2E1,1E1,5.6E1,1.71E2,7.93E2,3.2E1,3.1E1,3.9E1,1.5E1,3.2E1,7.221E3,7.33E2,3.07E2,1.77E2,2.9E1,2.6E1,1E1,9.8E1,3.1E1,1.5E1,1.5E1,1E1,1.3E2,2.4E1,1.2E1,1.5E1,1.3E1,2.6E1,1E1,1E1,1.1E1,2E1,1.2E1,2.2E1,3.5E1,2.1E1,1.45E2,2.6E1,2.44E2,5.49E2,1.8E1,1.4E1,2E1,1.1E1,1.5E1,2.4E1,1.8E1,1.4E1,6.84E3,3.81E2,5.3E2,2.03E2,2.96E2,1.1E1,1.51E2,2.6E1,1.2E1,1.7E1,1E1,1.6E1,5.1E1,4.7E1,1.1E1,2E1],"tree_param":{"num_deleted":"0","num_feature":"126","num_nodes":"249","size_leaf_vector":"1"}},{"base_weights":[-7.945659E0,-1.1175315E3,5.900312E3,-2.695999E4,1.6526936E2,7.488092E4,2.2306628E3,-3.2655242E4,2.0864732E4,3.1504495E2,-5.21822E3,3.1011588E4,1.13697055E5,2.700921E3,-1.596162E4,-3.619947E4,8.773681E2,-9.209402E3,4.8177188E4,2.0994841E2,1.4438414E4,-8.936857E2,-2.7729702E3,1.5200466E4,1.3259833E3,1.465016E5,6.3100848E4,2.2708787E3,3.299906E4,-7.481469E2,-9.916338E3,-3.8189773E4,1.4876253E2,-1.1800474E2,-3.3215045E2,7.628012E2,1.5287043E3,4.389443E1,2.6684695E3,8.4106934E2,5.651946E3,7.5514834E3,-4.169713E3,7.5075104E2,-2.703276E2,2.3518867E3,4.7121836E3,1.9099974E3,9.8212463E2,3.2973484E3,-2.4657324E3,4.7299258E2,1.02296515E3,-4.3319528E2,-1.0077358E2,-1.201337E3,-3.396137E4,5.6612305E1,-1.8478581E2,3.133846E2,6.5717266E3,-2.1587148E3,1.3317055E4,4.3282257E2,-4.834234E1,-6.900473E2,-2.6695803E3,1.918842E3,7.417343E3,-1.8345303E4,2.8979934E3,-3.0150984E4,-1.2547482E3,-5.3931805E1,9.937363E2,2.433011E3,-3.537766E3,9.17217E3,5.685308E2,-1.9845113E2,1.0993221E2,5.7286487E2,7.970392E1,-5.0516777E3,2.7791245E3,3.5127827E3,-7.7831035E3,6.6326654E2,6.2958604E3,-1.1994189E4,-9.557282E2,1.900201E4,5.4382605E2,-2.619747E4,-1.1608561E3,-1.0309792E2,3.0823418E3,1.9713535E3,-1.4742821E3,1.0825907E3,1.2685644E4,-3.9832544E2,-1.6704976E3,3.0551511E3,1.4348195E4,-1.7186954E2,3.491153E3,-6.3203186E2,-3.0288096E3,8.355368E3,-2.7901218E2,3.163257E3,6.503541E2,-1.7053139E4,-4.2255796E3,4.905636E3,2.1638732E4,-5.1376537E1,-1.6612521E4,5.4587208E1,7.8357416E2,-3.4366183E2,2.071668E3,-2.1019762E4,-3.7500285E4,-5.504081E1,-1.7604077E3,-4.9998584E2,6.4966177E3,1.4524235E3,1.5921191E4,-6.329125E3,-1.07735245E2,-5.707308E2,9.849865E3,5.0723096E2,4.901571E1,-3.5874036E3,1.6987976E2,6.1430444E3,-1.42938E2,1.9734613E4,5.842047E2,8.254544E3,-5.00879E2,-4.241115E3,1.606729E2,4.3479605E2,9.6301E1,-3.4800275E2,4.5942725E3,-2.2086715E4,-8.970078E1,-4.1713046E2,-2.1250874E3,2.3568877E3,9.779815E3,7.573007E2,3.11098E2,-7.4619385E2,-6.283562E3,9.022983E3,-9.64447E2,-8.564333E3,-3.3598715E4,-2.523911E4,-1.124224E3,-7.005664E1,1.3683543E2,-2.630552E2,-1.0000394E3,-2.8992634E3,1.6993608E3,1.331362E4,1.5910259E3,-2.1832787E2,2.6422913E3,2.4904256E2,4.806787E2,-2.846859E3,-3.750859E2,-2.159972E3,1.9467E3,1.8357965E3,-3.7748489E3,5.0400293E2,4.1192562E1,1.5370847E2,-5.0797764E3,1.073796E4,-5.8428046E2,3.0611303E4,8.267394E3,9.686964E1,-5.799377E1,2.4649048E2,1.3184276E2,-5.7807217E1,5.7492886E1,-5.8763496E3,1.0953719E2,-3.0500916E2,2.4801988E2,1.7348032E2,-2.1352588E2,1.0372151E4,2.3278958E3,-7.012274E2,-2.7229492E2,5.691037E2,-2.8541287E2,-2.4624138E2,3.326368E3,7.630693E2,6.5662817E3,-2.743939E2,-4.2299995E1,4.8023346E2,4.120061E3,-5.908227E3,8.087083E3,7.6743896E2,-7.2808435E2,-3.5454294E2,-1.1013601E3,-7.948499E2,-3.574265E2,1.5406096E1,-3.6754482E0,-1.831121E2,-1.3172633E1,-1.4572054E2,1.042157E1,1.4166264E2,-1.8235569E1,1.3133537E2,4.5801056E2,-2.509635E1,1.5841016E2,6.940204E1,-9.66394E1,1.298205E2,2.9923298E1,-1.3549527E2,7.223801E1,-1.9509424E1,-2.051199E2,8.568387E1,-5.5018787E1,-3.2847637E1,1.3092754E2,8.6565796E1,-1.6459108E2,-2.1887927E2,-4.186683E1,5.584179E2,7.7185936E1,7.485696E1,-1.0909181E2,2.2768733E2,1.0386481E3,3.274191E2,-1.5705729E0,-5.647193E1,-3.0584113E2,-1.6583555E1,1.5553163E2,1.3880249E2,5.6230493E2,5.62155E0,1.1120204E2,-3.4959545E1,2.7418774E2,5.162946E2,5.233194E1,3.2981088E2,1.0418092E2,2.1669632E2,-1.50888815E1,-4.3380047E1,-3.8209772E2,4.3575925E2,-1.9661383E2],"categories":[],"categories_nodes":[],"categories_segments":[],"categories_sizes":[],"default_left":[0,0,0,0,0,0,0,0,0,0,0,0,0,0,0,0,0,0,0,0,0,0,0,0,0,0,0,0,0,0,0,0,0,0,0,0,0,0,0,0,0,0,0,0,0,0,0,0,0,0,0,0,0,0,0,0,0,0,0,0,0,0,0,0,0,0,0,0,0,0,0,0,0,0,0,0,0,0,0,0,0,0,0,0,0,0,0,0,0,0,0,0,0,0,0,0,0,0,0,0,0,0,0,0,0,0,0,0,0,0,0,0,0,0,0,0,0,0,0,0,0,0,0,0,0,0,0,0,0,0,0,0,0,0,0,0,0,0,0,0,0,0,0,0,0,0,0,0,0,0,0,0,0,0,0,0,0,0,0,0,0,0,0,0,0,0,0,0,0,0,0,0,0,0,0,0,0,0,0,0,0,0,0,0,0,0,0,0,0,0,0,0,0,0,0,0,0,0,0,0,0,0,0,0,0,0,0,0,0,0,0,0,0,0,0,0,0,0,0,0,0,0,0,0,0,0,0,0,0,0,0,0,0,0,0,0,0,0,0,0,0,0,0,0,0,0,0,0,0,0,0,0,0,0,0,0,0,0,0,0,0,0,0,0,0,0,0,0,0,0,0,0,0,0,0,0,0,0,0,0,0,0,0],"id":2,"left_children":[1,3,5,7,9,11,13,15,17,19,21,23,25,27,29,31,-1,33,35,37,39,-1,41,43,-1,45,47,49,51,-1,53,55,-1,-1,-1,-1,-1,57,59,-1,61,63,65,-1,-1,-1,-1,-1,-1,67,69,-1,-1,-1,-1,-1,71,73,-1,75,77,79,81,-1,-1,-1,83,85,87,89,91,93,-1,95,97,99,101,103,105,-1,-1,-1,-1,107,109,111,113,-1,115,117,-1,119,121,123,-1,125,127,129,131,133,135,-1,137,139,141,-1,143,-1,145,147,-1,149,-1,151,153,155,157,-1,159,-1,-1,-1,161,163,165,167,169,171,173,175,177,179,181,183,185,-1,-1,187,-1,189,-1,191,193,195,197,199,-1,-1,201,203,205,207,-1,-1,209,211,213,-1,-1,-1,215,217,219,221,223,225,-1,227,-1,-1,229,231,233,235,237,239,241,-1,-1,243,-1,245,247,249,251,-1,-1,-1,253,255,257,259,261,-1,-1,-1,-1,-1,-1,263,-1,-1,-1,265,-1,267,269,-1,-1,271,-1,-1,273,-1,275,-1,-1,-1,277,279,281,-1,-1,-1,-1,-1,-1,-1,-1,-1,-1,-1,-1,-1,-1,-1,-1,-1,-1,-1,-1,-1,-1,-1,-1,-1,-1,-1,-1,-1,-1,-1,-1,-1,-1,-1,-1,-1,-1,-1,-1,-1,-1,-1,-1,-1,-1,-1,-1,-1,-1,-1,-1,-1,-1,-1,-1,-1,-1,-1,-1,-1,-1],"loss_changes":[7.392892E10,3.147419E11,4.51005E11,1.2365857E11,7.2980224E9,1.4620357E11,1.4587064E10,9.906953E10,4.113589E10,1.306187E10,1.8091377E10,1.4060298E10,5.952117E10,2.1400881E10,3.036458E9,3.2584827E10,0E0,3.3209485E8,2.2259794E9,3.5682545E9,1.0587706E10,0E0,3.3652938E9,1.183677E10,0E0,2.3966974E10,9.6528794E8,7.955886E9,1.01621555E9,0E0,1.2997468E9,1.2001116E10,0E0,0E0,0E0,0E0,0E0,7.75296E8,5.079334E9,0E0,2.871365E9,2.6594417E9,6.9883576E9,0E0,0E0,0E0,0E0,0E0,0E0,7.599019E9,2.4977035E10,0E0,0E0,0E0,0E0,0E0,1.3236634E10,8.472951E8,0E0,2.849776E9,3.236653E9,1.0170445E9,2.1869888E9,0E0,0E0,0E0,2.533092E9,1.5658185E10,6.868179E9,8.427995E9,8.319873E9,1.1601052E10,0E0,1.1289052E9,2.0880394E9,3.0877404E9,2.8167808E9,4.503295E9,1.4620111E9,0E0,0E0,0E0,0E0,5.371299E9,4.8503404E9,6.6620774E9,4.5717883E9,0E0,6.6133074E9,2.6399498E9,0E0,5.674711E9,4.29262E9,8.957592E9,0E0,5.7373184E8,1.3886057E9,4.4346865E9,1.6306916E9,2.9247631E9,2.0407066E9,0E0,1.8338264E9,1.9393917E9,5.7597553E9,0E0,9.2101824E8,0E0,1.4874185E9,3.2804959E9,0E0,4.309338E9,0E0,2.4848323E9,2.7032504E9,3.631125E9,1.3147986E9,0E0,5.0931466E9,0E0,0E0,0E0,3.752988E9,1.947906E10,2.6750812E9,5.822827E8,1.3313805E9,3.1063386E8,1.8972385E9,1.1919496E9,5.0369536E7,1.5457124E9,8.2635E8,1.332406E9,2.639688E9,0E0,0E0,1.3846358E9,0E0,1.6199455E9,0E0,6.478469E9,2.4731387E8,1.264512E6,1.5267986E8,1.6306915E9,0E0,0E0,3.262288E9,1.0710953E9,7.9264737E9,1.257943E9,0E0,0E0,2.3410522E9,2.3968256E9,6.3316357E9,0E0,0E0,0E0,5.014704E8,2.5386296E9,5.689157E9,5.586955E10,1.1540595E10,8.839752E8,0E0,3.6927738E8,0E0,0E0,5.57828E8,2.768736E8,3.0696192E8,7.7605094E8,4.5601453E8,2.7627218E9,1.2778199E9,0E0,0E0,6.364577E8,0E0,8.044563E8,6.168979E8,1.0743585E9,1.5499094E9,0E0,0E0,0E0,9.7188416E8,2.612906E9,3.3720192E8,5.8270474E9,1.2085364E9,0E0,0E0,0E0,0E0,0E0,0E0,2.1294789E9,0E0,0E0,0E0,1.207692E9,0E0,9.739934E9,1.9598815E9,0E0,0E0,1.5446182E9,0E0,0E0,3.8444803E9,0E0,1.320727E9,0E0,0E0,0E0,8.482619E8,3.1552049E9,6.9809956E9,0E0,0E0,0E0,0E0,0E0,0E0,0E0,0E0,0E0,0E0,0E0,0E0,0E0,0E0,0E0,0E0,0E0,0E0,0E0,0E0,0E0,0E0,0E0,0E0,0E0,0E0,0E0,0E0,0E0,0E0,0E0,0E0,0E0,0E0,0E0,0E0,0E0,0E0,0E0,0E0,0E0,0E0,0E0,0E0,0E0,0E0,0E0,0E0,0E0,0E0,0E0,0E0,0E0,0E0,0E0,0E0,0E0,0E0,0E0,0E0,0E0,0E0],"parents":[2147483647,0,0,1,1,2,2,3,3,4,4,5,5,6,6,7,7,8,8,9,9,10,10,11,11,12,12,13,13,14,14,15,15,17,17,18,18,19,19,20,20,22,22,23,23,25,25,26,26,27,27,28,28,30,30,31,31,37,37,38,38,40,40,41,41,42,42,49,49,50,50,56,56,57,57,59,59,60,60,61,61,62,62,66,66,67,67,68,68,69,69,70,70,71,71,73,73,74,74,75,75,76,76,77,77,78,78,83,83,84,84,85,85,86,86,88,88,89,89,91,91,92,92,93,93,95,95,96,96,97,97,98,98,99,99,100,100,102,102,103,103,104,104,106,106,108,108,109,109,111,111,113,113,114,114,115,115,116,116,118,118,122,122,123,123,124,124,125,125,126,126,127,127,128,128,129,129,130,130,131,131,132,132,133,133,134,134,137,137,139,139,141,141,142,142,143,143,144,144,145,145,148,148,149,149,150,150,151,151,154,154,155,155,156,156,160,160,161,161,162,162,163,163,164,164,165,165,167,167,170,170,171,171,172,172,173,173,174,174,175,175,176,176,179,179,181,181,182,182,183,183,184,184,188,188,189,189,190,190,191,191,192,192,199,199,203,203,205,205,206,206,209,209,212,212,214,214,218,218,219,219,220,220],"right_children":[2,4,6,8,10,12,14,16,18,20,22,24,26,28,30,32,-1,34,36,38,40,-1,42,44,-1,46,48,50,52,-1,54,56,-1,-1,-1,-1,-1,58,60,-1,62,64,66,-1,-1,-1,-1,-1,-1,68,70,-1,-1,-1,-1,-1,72,74,-1,76,78,80,82,-1,-1,-1,84,86,88,90,92,94,-1,96,98,100,102,104,106,-1,-1,-1,-1,108,110,112,114,-1,116,118,-1,120,122,124,-1,126,128,130,132,134,136,-1,138,140,142,-1,144,-1,146,148,-1,150,-1,152,154,156,158,-1,160,-1,-1,-1,162,164,166,168,170,172,174,176,178,180,182,184,186,-1,-1,188,-1,190,-1,192,194,196,198,200,-1,-1,202,204,206,208,-1,-1,210,212,214,-1,-1,-1,216,218,220,222,224,226,-1,228,-1,-1,230,232,234,236,238,240,242,-1,-1,244,-1,246,248,250,252,-1,-1,-1,254,256,258,260,262,-1,-1,-1,-1,-1,-1,264,-1,-1,-1,266,-1,268,270,-1,-1,272,-1,-1,274,-1,276,-1,-1,-1,278,280,282,-1,-1,-1,-1,-1,-1,-1,-1,-1,-1,-1,-1,-1,-1,-1,-1,-1,-1,-1,-1,-1,-1,-1,-1,-1,-1,-1,-1,-1,-1,-1,-1,-1,-1,-1,-1,-1,-1,-1,-1,-1,-1,-1,-1,-1,-1,-1,-1,-1,-1,-1,-1,-1,-1,-1,-1,-1,-1,-1,-1,-1,-1],"split_conditions":[1E0,1E0,1E0,1E0,1.875E5,1.841E3,4.35194E5,1E0,1.76691E3,3.5978875E4,1.61828E5,4.5256E2,1.6525E1,4.27835E5,9.75E0,1E0,8.773681E2,2.633E1,1.224219E4,1.3737765E4,1.331E5,-8.936857E2,1.3569184E5,1.187E3,1.3259833E3,7E2,1.11E3,2.49684E5,3.4299484E4,-7.481469E2,1.2E1,1.8008E2,1.4876253E2,-1.1800474E2,-3.3215045E2,7.628012E2,1.5287043E3,1.78455E5,2.537E1,8.4106934E2,2.715E1,2.01E3,1.5063125E5,7.5075104E2,-2.703276E2,2.3518867E3,4.7121836E3,1.9099974E3,9.8212463E2,1.71851E5,2.57507E5,4.7299258E2,1.02296515E3,-4.3319528E2,-1.0077358E2,-1.201337E3,1E0,7.5945815E3,-1.8478581E2,1.1579E5,1.32113E5,4.8947168E4,2.771E1,4.3282257E2,-4.834234E1,-6.900473E2,2.5985E1,1.63866E5,1.522E5,2.78748E5,1.994E3,1E0,-1.2547482E3,1.2522E5,9.1489E4,1.09103E5,9.6708E4,9.0667E4,1.999E3,-1.9845113E2,1.0993221E2,5.7286487E2,7.970392E1,3.92503E3,2.748E1,1.6493214E5,1.522E5,6.6326654E2,2.51347E5,5.37E2,-9.557282E2,2.261812E3,1.67E3,1E0,-1.1608561E3,1.02378E5,1.9625929E3,9.5455E4,9.4306E4,2.2580877E4,2.432E1,-3.9832544E2,1.68102E5,2.87E1,1E0,-1.7186954E2,2.3201678E4,-6.3203186E2,1E0,2.40551E5,-2.7901218E2,8.3059E4,6.503541E2,2.626625E4,2.41E2,9.70044E3,2.4347033E5,-5.1376537E1,6.91E2,5.4587208E1,7.8357416E2,-3.4366183E2,2.97584E5,1E0,1.422E1,1.02044E5,1E5,1.996E3,3.7631594E3,4.3845E4,1.0553794E4,9.4297664E4,2.54E1,1.666964E4,1E0,5.0723096E2,4.901571E1,1.1017E5,1.6987976E2,9.5022E2,-1.42938E2,1.35234E5,1.666964E4,1.65373E5,1.6718367E5,2.156E1,1.606729E2,4.3479605E2,2.0993E3,8.9149E4,1.11944E5,1.5473233E5,-8.970078E1,-4.1713046E2,1.91956E5,1.63916E5,1.06554E4,7.573007E2,3.11098E2,-7.4619385E2,2.226622E5,1.4826667E1,3.60076E5,1E0,1.583E1,7E2,-1.124224E3,7.714E3,1.3683543E2,-2.630552E2,1.636E1,1.06554E4,1.995E3,3.0748267E3,1.40645E5,3.7607E4,5.6118E4,2.4904256E2,4.806787E2,9.3116E4,-3.750859E2,2.295E1,1E0,1.677E1,3.3385E2,5.0400293E2,4.1192562E1,1.5370847E2,1.06554E4,6.7561E4,3.4848105E4,9.5455E4,2.007E3,9.686964E1,-5.799377E1,2.4649048E2,1.3184276E2,-5.7807217E1,5.7492886E1,1.698595E4,1.0953719E2,-3.0500916E2,2.4801988E2,9.94E2,-2.1352588E2,1.4960647E4,1.1E1,-7.012274E2,-2.7229492E2,1.8E5,-2.8541287E2,-2.4624138E2,1.75E5,7.630693E2,5.93E2,-2.743939E2,-4.2299995E1,4.8023346E2,4.009369E4,3.5978875E4,3.9875466E5,7.6743896E2,-7.2808435E2,-3.5454294E2,-1.1013601E3,-7.948499E2,-3.574265E2,1.5406096E1,-3.6754482E0,-1.831121E2,-1.3172633E1,-1.4572054E2,1.042157E1,1.4166264E2,-1.8235569E1,1.3133537E2,4.5801056E2,-2.509635E1,1.5841016E2,6.940204E1,-9.66394E1,1.298205E2,2.9923298E1,-1.3549527E2,7.223801E1,-1.9509424E1,-2.051199E2,8.568387E1,-5.5018787E1,-3.2847637E1,1.3092754E2,8.6565796E1,-1.6459108E2,-2.1887927E2,-4.186683E1,5.584179E2,7.7185936E1,7.485696E1,-1.0909181E2,2.2768733E2,1.0386481E3,3.274191E2,-1.5705729E0,-5.647193E1,-3.0584113E2,-1.6583555E1,1.5553163E2,1.3880249E2,5.6230493E2,5.62155E0,1.1120204E2,-3.4959545E1,2.7418774E2,5.162946E2,5.233194E1,3.2981088E2,1.0418092E2,2.1669632E2,-1.50888815E1,-4.3380047E1,-3.8209772E2,4.3575925E2,-1.9661383E2],"split_indices":[119,10,10,123,4,2,4,118,2,9,5,2,3,6,3,125,0,3,2,9,4,0,8,1,0,1,1,4,9,0,10,2,0,0,0,0,0,4,3,0,3,0,8,0,0,0,0,0,0,6,6,0,0,0,0,0,122,9,0,4,8,9,3,0,0,0,3,4,4,4,0,121,0,6,4,5,6,6,0,0,0,0,0,2,3,8,5,0,5,1,0,9,2,124,0,4,9,5,5,9,3,0,5,3,125,0,9,0,20,4,0,8,0,9,1,2,7,0,1,0,0,0,4,117,3,6,5,1,9,6,9,8,3,9,118,0,0,6,0,2,0,4,9,4,7,3,0,0,2,4,4,7,0,0,4,5,2,0,0,0,8,3,6,120,3,1,0,4,0,0,3,2,0,9,6,4,4,0,0,7,0,3,125,3,2,0,0,0,2,5,8,5,0,0,0,0,0,0,0,9,0,0,0,2,0,9,10,0,0,5,0,0,5,0,1,0,0,0,2,9,7,0,0,0,0,0,0,0,0,0,0,0,0,0,0,0,0,0,0,0,0,0,0,0,0,0,0,0,0,0,0,0,0,0,0,0,0,0,0,0,0,0,0,0,0,0,0,0,0,0,0,0,0,0,0,0,0,0,0,0,0,0,0],"split_type":[0,0,0,0,0,0,0,0,0,0,0,0,0,0,0,0,0,0,0,0,0,0,0,0,0,0,0,0,0,0,0,0,0,0,0,0,0,0,0,0,0,0,0,0,0,0,0,0,0,0,0,0,0,0,0,0,0,0,0,0,0,0,0,0,0,0,0,0,0,0,0,0,0,0,0,0,0,0,0,0,0,0,0,0,0,0,0,0,0,0,0,0,0,0,0,0,0,0,0,0,0,0,0,0,0,0,0,0,0,0,0,0,0,0,0,0,0,0,0,0,0,0,0,0,0,0,0,0,0,0,0,0,0,0,0,0,0,0,0,0,0,0,0,0,0,0,0,0,0,0,0,0,0,0,0,0,0,0,0,0,0,0,0,0,0,0,0,0,0,0,0,0,0,0,0,0,0,0,0,0,0,0,0,0,0,0,0,0,0,0,0,0,0,0,0,0,0,0,0,0,0,0,0,0,0,0,0,0,0,0,0,0,0,0,0,0,0,0,0,0,0,0,0,0,0,0,0,0,0,0,0,0,0,0,0,0,0,0,0,0,0,0,0,0,0,0,0,0,0,0,0,0,0,0,0,0,0,0,0,0,0,0,0,0,0,0,0,0,0,0,0,0,0,0,0,0,0,0,0,0,0,0,0],"sum_hessian":[1.1273E4,9.492E3,1.781E3,4.47E2,9.045E3,8.8E1,1.693E3,4E2,4.7E1,8.802E3,2.43E2,4.3E1,4.5E1,1.652E3,4.1E1,3.81E2,1.9E1,2.3E1,2.4E1,8.739E3,6.3E1,1.6E1,2.27E2,2.7E1,1.6E1,2.5E1,2E1,1.631E3,2.1E1,1E1,3.1E1,3.64E2,1.7E1,1.3E1,1E1,1.3E1,1.1E1,8.188E3,5.51E2,1.8E1,4.5E1,2.6E1,2.01E2,1.7E1,1E1,1.4E1,1.1E1,1E1,1E1,1.341E3,2.9E2,1E1,1.1E1,1.2E1,1.9E1,1.03E2,2.61E2,8.176E3,1.2E1,3.45E2,2.06E2,2.3E1,2.2E1,1.2E1,1.4E1,1E1,1.91E2,1.007E3,3.34E2,7.2E1,2.18E2,2.16E2,4.5E1,7.315E3,8.61E2,2.23E2,1.22E2,1.43E2,6.3E1,1.2E1,1.1E1,1E1,1.2E1,1.33E2,5.8E1,8.66E2,1.41E2,1.6E1,3.18E2,5.7E1,1.5E1,2.6E1,1.92E2,1.78E2,3.8E1,7.204E3,1.11E2,6.17E2,2.44E2,1.99E2,2.4E1,1.4E1,1.08E2,6.7E1,7.6E1,1.7E1,4.6E1,1E1,1.23E2,4.2E1,1.6E1,8.55E2,1.1E1,3.7E1,1.04E2,2.94E2,2.4E1,1.9E1,3.8E1,1.2E1,1.4E1,1.7E1,1.75E2,1.26E2,5.2E1,7.003E3,2.01E2,5.5E1,5.6E1,5.97E2,2E1,5.2E1,1.92E2,1.69E2,3E1,1.3E1,1.1E1,8.9E1,1.9E1,5E1,1.7E1,5.4E1,2.2E1,2E1,2.6E1,1.1E2,1.3E1,1.9E1,2.3E1,2.48E2,6.07E2,2.6E1,1.1E1,1.3E1,9.1E1,1.95E2,9.9E1,1E1,1.4E1,1.5E1,2.3E1,5.2E1,1.23E2,6.5E1,6.1E1,2.3E1,2.9E1,6.986E3,1.7E1,1.4E1,1.87E2,2.6E1,2.9E1,2.2E1,3.4E1,2.49E2,3.48E2,1E1,1E1,3.9E1,1.3E1,9.6E1,9.6E1,9.7E1,7.2E1,1.2E1,1.8E1,1.1E1,7.8E1,2.9E1,2.1E1,2.6E1,2.8E1,1E1,1.2E1,1E1,1E1,1.6E1,1E1,9.3E1,1.7E1,1E1,1.3E1,2.35E2,1.3E1,1.69E2,4.38E2,1.5E1,1.1E1,7.2E1,1.9E1,1.3E1,1.82E2,1.1E1,8.8E1,1E1,1.3E1,1.5E1,3.7E1,8E1,4.3E1,2.2E1,4.3E1,2.3E1,3.8E1,1.2E1,1.1E1,7.03E2,6.283E3,1.1E1,1.76E2,1.3E1,1.3E1,1E1,1.9E1,1E1,1.2E1,2.3E1,1.1E1,1.37E2,1.12E2,1.24E2,2.24E2,2.7E1,1.2E1,8E1,1.6E1,7.1E1,2.5E1,5.1E1,4.6E1,2E1,5.2E1,3.6E1,4.2E1,1E1,1.9E1,1.1E1,1E1,1E1,1.6E1,1.7E1,1.1E1,6.1E1,3.2E1,2.08E2,2.7E1,1.23E2,4.6E1,2.21E2,2.17E2,6.2E1,1E1,1E1,1.72E2,2.1E1,6.7E1,1.8E1,1.9E1,5.7E1,2.3E1,2.7E1,1.6E1],"tree_param":{"num_deleted":"0","num_feature":"126","num_nodes":"283","size_leaf_vector":"1"}},{"base_weights":[-2.4983393E1,9.645603E3,-8.916025E2,1.7865566E4,6.325993E3,-9.079968E3,-4.4654593E2,1.9032516E4,-2.4774242E2,4.2940303E3,8.48391E3,-3.741638E3,-1.2356815E3,-2.5169908E2,-2.0329984E4,1.5327861E4,2.6340285E4,4.780372E3,-1.5535115E3,1.4341517E4,6.302281E3,2.1611523E3,-1.2622162E3,-1.46525E2,-1.37437295E4,-8.891218E3,-3.163378E4,1.7606809E4,2.187152E3,1.5889523E2,3.092297E4,5.819131E3,1.4216663E3,1.1610641E2,-2.3548209E2,9.4364905E2,1.0214365E4,1.8736526E3,9.645361E3,1.2073311E4,-3.9743543E4,1.461866E2,-2.8805957E3,-9.982426E3,-7.176552E2,1.9373694E2,-1.4554041E4,-1.1831437E3,-2.2850043E4,7.179919E1,1.9103404E4,4.8145248E2,-2.7811035E2,3.601294E4,2.5492696E2,4.7049062E3,8.920177E3,-4.999085E2,4.8887573E3,1.3823069E4,2.7749597E3,-4.506899E3,5.6838765E3,7.002792E2,7.547425E3,2.5914896E4,-3.78938E4,-1.8013898E4,-1.1687114E3,1.9153839E3,-1.4382664E2,-3.225096E3,5.0362262E2,-1.7220486E4,-1.3998801E3,-6.222608E2,-9.084585E3,-1.5465166E2,-2.9277861E4,2.552244E4,1.5167943E4,1.178807E3,2.6404113E4,6.1647036E3,2.9888813E3,1.2975507E4,5.8631606E3,-1.09024895E2,1.1521234E3,5.4698315E1,1.5947366E2,1.7969975E4,1.4811429E1,-3.006837E0,1.1951167E2,-2.3681738E2,-1.1043401E3,1.0063455E4,-2.3037102E3,5.5073857E3,1.5938258E4,4.3914312E4,-3.433444E4,-2.5286457E4,-1.1406716E3,-3.343564E1,-8.2694403E2,1.7015184E3,1.345525E4,-1.1423992E2,-8.295821E3,2.4936965E3,-4.63443E3,-6.6792865E2,-2.1992776E2,1.7086162E2,-2.026573E2,-3.687329E2,-7.480929E1,-1.0519419E3,-2.9934396E2,1.7813404E4,3.118968E4,2.0806938E4,1.1202557E4,2.9283002E2,8.999007E2,4.952048E3,3.1616458E2,4.709052E3,-3.1573245E2,1.9611757E2,4.1261896E2,4.653813E1,2.1212589E2,-8.9664734E1,6.7416145E1,6.096344E2,1.1087379E4,-1.620533E2,7.6676155E1,-7.4167656E1,1.5298789E4,1.01386E2,-2.467174E2,7.2467466E3,-1.8788574E2,1.4234088E2,6.0950555E2,1.2401707E5,2.5131645E4,-5.4598126E2,-9.5904706E2,-8.3482904E2,-3.1247348E2,2.0182273E3,-2.8636782E3,5.5412585E2,6.257314E1,-1.5649243E2,1.3541418E4,-3.973034E2,9.6206505E1,-1.8489634E3,1.2408263E4,-3.9858647E3,-1.0807165E4,2.3695845E2,5.5265845E2,9.8239075E2,4.8017642E2,2.0552261E2,6.953837E2,-2.1685352E3,1.9349127E4,-1.3217934E1,5.8674814E3,2.63099E3,7.870335E3,-7.324036E1,5.106999E1,5.6631893E1,-5.6241528E1,1.09366165E2,3.988054E2,5.500445E2,1.7975592E2,9.772675E3,1.727357E3,3.7613113E3,1.3829457E3,7.347687E2,4.41764E4,1.781743E3,9.5226455E3,1.4356906E2,-3.2677145E2,-1.2739804E2,-3.8864633E2,4.8501944E2,1.512371E2,-2.4208636E2,-3.1017416E2,-2.4874402E3,2.4581406E4,-5.2783105E3,-7.301877E2,-1.7265252E4,3.610338E3,-2.3006738E2,1.4533067E2,6.1142365E2,1.3707463E2,7.6129756E3,4.1337793E3,4.836093E3,-1.654782E1,1.154992E2,2.4522449E2,1.3222765E4,4.638797E3,-1.3238603E2,1.680056E2,4.712791E2,-3.8895469E3,2.8886604E4,6.4137777E4,3.6786604E3,1.2749983E3,1.2842064E4,5.462016E1,-4.038939E3,5.6601997E3,-1.947978E2,3.8392852E3,-1.8889323E3,6.816445E3,1.5600992E2,-3.2116776E2,8.006071E2,1.8648676E2,-5.699757E3,2.847997E3,2.791462E2,-1.6422548E3,-2.0324643E4,-2.849018E2,2.189456E2,-6.4195724E1,2.385413E2,1.14043785E2,1.4330301E2,1.4975975E1,1.5642859E2,6.226515E1,4.185899E2,2.583528E2,2.814619E2,-6.498474E1,-2.5817926E2,5.0293613E2,1.3433412E3,5.367809E2,1.9223379E3,9.458428E2,1.969108E2,5.6733612E1,2.691986E1,1.1540283E2,4.3712473E2,1.6451466E2,-2.7816586E2,-1.4741794E1,2.1188762E2,2.7696173E1,-3.8352902E0,-1.6424174E2,6.1123676E0,3.7716656E2,1.5604247E1,-1.0808323E2,3.307916E2,-1.8371172E1,-1.741204E2,-6.83951E1,2.1033748E2,-4.9603436E1,-6.428786E1,2.96835E2,-3.6406247E2,-6.515149E2],"categories":[],"categories_nodes":[],"categories_segments":[],"categories_sizes":[],"default_left":[0,0,0,0,0,0,0,0,0,0,0,0,0,0,0,0,0,0,0,0,0,0,0,0,0,0,0,0,0,0,0,0,0,0,0,0,0,0,0,0,0,0,0,0,0,0,0,0,0,0,0,0,0,0,0,0,0,0,0,0,0,0,0,0,0,0,0,0,0,0,0,0,0,0,0,0,0,0,0,0,0,0,0,0,0,0,0,0,0,0,0,0,0,0,0,0,0,0,0,0,0,0,0,0,0,0,0,0,0,0,0,0,0,0,0,0,0,0,0,0,0,0,0,0,0,0,0,0,0,0,0,0,0,0,0,0,0,0,0,0,0,0,0,0,0,0,0,0,0,0,0,0,0,0,0,0,0,0,0,0,0,0,0,0,0,0,0,0,0,0,0,0,0,0,0,0,0,0,0,0,0,0,0,0,0,0,0,0,0,0,0,0,0,0,0,0,0,0,0,0,0,0,0,0,0,0,0,0,0,0,0,0,0,0,0,0,0,0,0,0,0,0,0,0,0,0,0,0,0,0,0,0,0,0,0,0,0,0,0,0,0,0,0,0,0,0,0,0,0,0,0,0,0,0,0,0,0,0,0,0,0,0,0,0,0,0,0,0,0,0,0,0,0,0,0,0,0,0,0,0,0,0,0,0,0,0,0,0,0,0,0],"id":3,"left_children":[1,3,5,7,9,11,13,15,-1,17,19,21,-1,23,25,27,29,31,33,35,37,39,-1,41,43,45,47,49,51,-1,53,55,57,-1,-1,-1,59,61,63,65,67,69,71,73,-1,-1,75,-1,77,-1,79,-1,-1,81,-1,83,85,87,89,91,93,95,97,-1,99,101,103,105,-1,107,109,111,-1,113,115,-1,117,-1,119,121,123,-1,125,127,129,131,133,-1,135,-1,-1,137,-1,-1,-1,-1,139,141,143,145,147,149,151,153,-1,-1,-1,155,157,159,161,163,165,-1,-1,-1,-1,-1,-1,-1,-1,167,169,171,173,-1,-1,175,-1,177,179,-1,-1,-1,-1,181,-1,-1,183,-1,-1,-1,185,-1,-1,187,-1,-1,-1,189,191,-1,-1,-1,-1,193,195,-1,-1,197,199,-1,-1,201,203,205,207,-1,-1,-1,-1,-1,-1,209,211,-1,213,215,217,-1,-1,-1,-1,-1,-1,-1,-1,219,221,-1,-1,223,225,227,229,231,-1,233,-1,-1,-1,235,-1,237,239,241,243,245,247,-1,-1,-1,-1,249,251,253,-1,-1,-1,255,257,-1,-1,-1,259,261,263,265,267,269,-1,271,273,275,277,279,281,-1,-1,-1,-1,283,285,-1,287,289,-1,-1,-1,-1,-1,-1,-1,-1,-1,-1,-1,-1,-1,-1,-1,-1,-1,-1,-1,-1,-1,-1,-1,-1,-1,-1,-1,-1,-1,-1,-1,-1,-1,-1,-1,-1,-1,-1,-1,-1,-1,-1,-1,-1,-1],"loss_changes":[9.425834E10,2.5014501E10,3.7608206E10,8.96648E9,2.8298813E9,1.1421609E11,3.7926183E10,6.0960686E9,0E0,9.9599974E8,3.8957732E9,1.3046087E11,0E0,1.3758969E10,1.1721114E10,5.1337585E9,7.208276E9,1.0964091E9,1.4524974E9,7.439362E9,3.4578975E9,1.7582875E11,0E0,7.704474E9,3.6477655E9,4.937238E9,4.3154145E9,3.1539814E9,6.79122E9,0E0,6.333653E9,7.55691E8,5.245454E8,0E0,0E0,0E0,1.9367798E9,2.5796114E9,4.7402353E9,2.3849946E11,1.0645111E10,4.4629E9,7.514903E9,3.8654085E9,0E0,0E0,1.6960696E9,0E0,3.279612E9,0E0,2.6108436E9,0E0,0E0,3.1828787E9,0E0,4.215726E8,6.164726E8,3.4173805E8,8.477926E7,2.7220122E9,1.5792302E8,6.5493446E8,2.3551964E9,0E0,1.9299123E9,2.9473335E11,5.0045256E9,5.6894E9,0E0,2.9774848E9,1.8007648E9,7.42997E9,0E0,2.249727E9,1.8227145E9,0E0,8.7803034E8,0E0,4.308087E9,9.858806E8,1.501569E9,0E0,3.8069064E9,6.3719475E8,5.0320947E8,1.9374771E8,3.775895E8,0E0,7.336642E7,0E0,0E0,1.1371356E9,0E0,0E0,0E0,0E0,6.23016E8,3.0241157E9,1.2827158E9,2.4193649E9,1.7115254E9,3.067115E11,1.4947942E9,2.5861755E9,0E0,0E0,0E0,1.7537935E9,1.9876772E9,4.302206E9,2.6130708E9,7.9250586E9,2.8683735E9,0E0,0E0,0E0,0E0,0E0,0E0,0E0,0E0,4.7548467E8,9.187574E8,2.54174E9,6.1839176E9,0E0,0E0,4.3267277E8,0E0,3.3960832E8,2.0924678E8,0E0,0E0,0E0,0E0,1.2718545E8,0E0,0E0,5.78869E8,0E0,0E0,0E0,1.3685018E9,0E0,0E0,1.2349225E9,0E0,0E0,0E0,5.4182216E10,7.938723E10,0E0,0E0,0E0,0E0,1.9679012E9,2.4286986E9,0E0,0E0,3.321882E9,7.7492326E8,0E0,0E0,2.182531E9,1.0276632E10,2.8157153E9,6.5492234E9,0E0,0E0,0E0,0E0,0E0,0E0,1.3983296E9,2.2107064E9,0E0,1.579694E8,2.8232736E8,4.7994496E7,0E0,0E0,0E0,0E0,0E0,0E0,0E0,0E0,9.7549005E8,1.1581539E9,0E0,0E0,6.5973914E9,2.5594282E10,1.0441526E9,7.720353E8,1.4993437E9,0E0,1.9841896E9,0E0,0E0,0E0,1.3509234E9,0E0,2.6015155E9,3.472763E9,1.676373E9,2.1307209E9,3.986514E8,7.7642394E8,0E0,0E0,0E0,0E0,1.1303078E8,2.24771E8,4.5492096E7,0E0,0E0,0E0,2.0076032E7,1.4001358E9,0E0,0E0,0E0,1.0152034E10,8.37904E9,7.602782E9,1.3249283E9,5.648671E8,4.3852262E8,0E0,8.9143E8,3.4007622E8,1.9223726E9,5.0061865E9,5.8047846E8,1.0851965E9,0E0,0E0,0E0,0E0,1.6754473E9,7.057184E8,0E0,2.3343432E9,1.994752E8,0E0,0E0,0E0,0E0,0E0,0E0,0E0,0E0,0E0,0E0,0E0,0E0,0E0,0E0,0E0,0E0,0E0,0E0,0E0,0E0,0E0,0E0,0E0,0E0,0E0,0E0,0E0,0E0,0E0,0E0,0E0,0E0,0E0,0E0,0E0,0E0,0E0,0E0,0E0,0E0,0E0,0E0,0E0,0E0,0E0],"parents":[2147483647,0,0,1,1,2,2,3,3,4,4,5,5,6,6,7,7,9,9,10,10,11,11,13,13,14,14,15,15,16,16,17,17,18,18,19,19,20,20,21,21,23,23,24,24,25,25,26,26,27,27,28,28,30,30,31,31,32,32,36,36,37,37,38,38,39,39,40,40,41,41,42,42,43,43,46,46,48,48,50,50,53,53,55,55,56,56,57,57,58,58,59,59,60,60,61,61,62,62,64,64,65,65,66,66,67,67,69,69,70,70,71,71,73,73,74,74,76,76,78,78,79,79,80,80,82,82,83,83,84,84,85,85,86,86,88,88,91,91,96,96,97,97,98,98,99,99,100,100,101,101,102,102,103,103,107,107,108,108,109,109,110,110,111,111,112,112,121,121,122,122,123,123,124,124,127,127,129,129,130,130,135,135,138,138,142,142,145,145,149,149,150,150,155,155,156,156,159,159,160,160,163,163,164,164,165,165,166,166,173,173,174,174,176,176,177,177,178,178,187,187,188,188,191,191,192,192,193,193,194,194,195,195,197,197,201,201,203,203,204,204,205,205,206,206,207,207,208,208,213,213,214,214,215,215,219,219,220,220,224,224,225,225,226,226,227,227,228,228,229,229,231,231,232,232,233,233,234,234,235,235,236,236,241,241,242,242,244,244,245,245],"right_children":[2,4,6,8,10,12,14,16,-1,18,20,22,-1,24,26,28,30,32,34,36,38,40,-1,42,44,46,48,50,52,-1,54,56,58,-1,-1,-1,60,62,64,66,68,70,72,74,-1,-1,76,-1,78,-1,80,-1,-1,82,-1,84,86,88,90,92,94,96,98,-1,100,102,104,106,-1,108,110,112,-1,114,116,-1,118,-1,120,122,124,-1,126,128,130,132,134,-1,136,-1,-1,138,-1,-1,-1,-1,140,142,144,146,148,150,152,154,-1,-1,-1,156,158,160,162,164,166,-1,-1,-1,-1,-1,-1,-1,-1,168,170,172,174,-1,-1,176,-1,178,180,-1,-1,-1,-1,182,-1,-1,184,-1,-1,-1,186,-1,-1,188,-1,-1,-1,190,192,-1,-1,-1,-1,194,196,-1,-1,198,200,-1,-1,202,204,206,208,-1,-1,-1,-1,-1,-1,210,212,-1,214,216,218,-1,-1,-1,-1,-1,-1,-1,-1,220,222,-1,-1,224,226,228,230,232,-1,234,-1,-1,-1,236,-1,238,240,242,244,246,248,-1,-1,-1,-1,250,252,254,-1,-1,-1,256,258,-1,-1,-1,260,262,264,266,268,270,-1,272,274,276,278,280,282,-1,-1,-1,-1,284,286,-1,288,290,-1,-1,-1,-1,-1,-1,-1,-1,-1,-1,-1,-1,-1,-1,-1,-1,-1,-1,-1,-1,-1,-1,-1,-1,-1,-1,-1,-1,-1,-1,-1,-1,-1,-1,-1,-1,-1,-1,-1,-1,-1,-1,-1,-1,-1],"split_conditions":[-7.997E3,-2.35E4,1E0,6.990905E4,9.0667E4,1E0,5.347E4,2.007E3,-2.4774242E2,8.19765E4,1.18441E5,1E0,-1.2356815E3,3.61751E5,3.4299484E4,3.9036508E4,1.8498334E4,2.176E1,2.006E3,6.801E1,2.91818E3,1E0,-1.2622162E3,9.697E3,2.01E3,1.331E5,1.8268967E5,6.9225734E4,1.67589E5,1.5889523E2,2.723E1,5.6376E4,2.72E1,1.1610641E2,-2.3548209E2,9.4364905E2,-1.118E4,1E1,1.994E3,1E0,1.422E1,-2.473E3,3.30734E5,1.024994E4,-7.176552E2,1.9373694E2,1.999E3,-1.1831437E3,2.02747E5,7.179919E1,1.11944E5,4.8145248E2,-2.7811035E2,-4.3226E4,2.5492696E2,2.4321E4,5.531E4,1.032E3,2.9183E4,1.668E3,1.76691E3,4.5256E2,1.7073E5,7.002792E2,3.4299484E4,1E0,1.422E1,1.991E3,-1.1687114E3,2.51347E5,3.11711E5,3.9811E2,5.0362262E2,3.743E3,1.007E1,-6.222608E2,1.96769E5,-1.5465166E2,3.147725E5,1.4716809E4,6.08E2,1.178807E3,2.28E3,3.3846E4,1.5E1,7.5945815E3,7.6679E4,-1.09024895E2,5.8426E4,5.4698315E1,1.5947366E2,3.134E3,1.4811429E1,-3.006837E0,1.1951167E2,-2.3681738E2,-1.631E4,1.19257336E5,2.6910338E4,3.8743284E5,8.47E2,1.564E1,1.695E1,7E2,-1.1406716E3,-3.343564E1,-8.2694403E2,1.65605E5,4.283E3,2.5775567E5,1.072E3,2.4799E4,3.92E4,-6.6792865E2,-2.1992776E2,1.7086162E2,-2.026573E2,-3.687329E2,-7.480929E1,-1.0519419E3,-2.9934396E2,1.998E3,1.8102652E4,1.5934674E4,8.54E2,2.9283002E2,8.999007E2,4.94E2,3.1616458E2,8.1477393E3,6.86E2,1.9611757E2,4.1261896E2,4.653813E1,2.1212589E2,3.0168E4,6.7416145E1,6.096344E2,1E5,-1.620533E2,7.6676155E1,-7.4167656E1,6.0367E2,1.01386E2,-2.467174E2,5.089195E4,-1.8788574E2,1.4234088E2,6.0950555E2,1.991E3,5.0286E2,-5.4598126E2,-9.5904706E2,-8.3482904E2,-3.1247348E2,1.45947E5,2.9396848E4,5.5412585E2,6.257314E1,2.480986E5,1.523E1,-3.973034E2,9.6206505E1,1.54994E5,2.002E3,2.144E1,1.141953E4,2.3695845E2,5.5265845E2,9.8239075E2,4.8017642E2,2.0552261E2,6.953837E2,1.74562E5,2.417E1,-1.3217934E1,4.7409214E3,9.07443E3,1.79E1,-7.324036E1,5.106999E1,5.6631893E1,-5.6241528E1,1.09366165E2,3.988054E2,5.500445E2,1.7975592E2,2.005E3,1.4960647E4,3.7613113E3,1.3829457E3,3.46E2,5.74044E3,-5.998E3,1.738E3,1.91956E5,-3.2677145E2,2.04781E5,-3.8864633E2,4.8501944E2,1.512371E2,1.8102652E4,-3.1017416E2,3.92E4,2.779E1,2E0,1.994E3,1.5E1,2.4304E4,-2.3006738E2,1.4533067E2,6.1142365E2,1.3707463E2,8.923E3,2.9541E4,1E1,-1.654782E1,1.154992E2,2.4522449E2,1.61828E5,1.65373E5,-1.3238603E2,1.680056E2,4.712791E2,1.622E3,1.0485E3,2.117E1,5.89E2,2E0,1.6344369E4,5.462016E1,8.9154E2,2.001E3,1.90602E5,1.738E3,1.3033E4,1.467E4,1.5600992E2,-3.2116776E2,8.006071E2,1.8648676E2,1.6582E4,1.3846E4,2.791462E2,2.012E3,2.2580877E4,-2.849018E2,2.189456E2,-6.4195724E1,2.385413E2,1.14043785E2,1.4330301E2,1.4975975E1,1.5642859E2,6.226515E1,4.185899E2,2.583528E2,2.814619E2,-6.498474E1,-2.5817926E2,5.0293613E2,1.3433412E3,5.367809E2,1.9223379E3,9.458428E2,1.969108E2,5.6733612E1,2.691986E1,1.1540283E2,4.3712473E2,1.6451466E2,-2.7816586E2,-1.4741794E1,2.1188762E2,2.7696173E1,-3.8352902E0,-1.6424174E2,6.1123676E0,3.7716656E2,1.5604247E1,-1.0808323E2,3.307916E2,-1.8371172E1,-1.741204E2,-6.83951E1,2.1033748E2,-4.9603436E1,-6.428786E1,2.96835E2,-3.6406247E2,-6.515149E2],"split_indices":[13,13,10,9,6,121,13,0,0,8,4,122,0,5,9,9,9,3,0,2,2,117,0,13,0,4,7,8,4,0,3,6,3,0,0,0,13,10,0,124,3,13,6,2,0,0,0,0,5,0,4,0,0,13,0,4,4,1,6,1,2,2,4,0,9,120,3,0,0,5,5,2,0,13,3,0,4,0,8,9,1,0,2,5,10,9,5,0,7,0,0,2,0,0,0,0,13,8,9,8,1,3,3,1,0,0,0,5,2,8,13,13,13,0,0,0,0,0,0,0,0,0,9,9,1,0,0,1,0,9,1,0,0,0,0,4,0,0,6,0,0,0,2,0,0,2,0,0,0,0,2,0,0,0,0,4,9,0,0,8,3,0,0,4,0,3,2,0,0,0,0,0,0,4,3,0,9,2,3,0,0,0,0,0,0,0,0,0,9,0,0,1,2,13,1,4,0,6,0,0,0,9,0,13,3,11,0,10,2,0,0,0,0,2,5,10,0,0,0,5,4,0,0,0,1,2,3,1,11,9,0,2,0,6,1,13,13,0,0,0,0,2,13,0,0,9,0,0,0,0,0,0,0,0,0,0,0,0,0,0,0,0,0,0,0,0,0,0,0,0,0,0,0,0,0,0,0,0,0,0,0,0,0,0,0,0,0,0,0,0,0],"split_type":[0,0,0,0,0,0,0,0,0,0,0,0,0,0,0,0,0,0,0,0,0,0,0,0,0,0,0,0,0,0,0,0,0,0,0,0,0,0,0,0,0,0,0,0,0,0,0,0,0,0,0,0,0,0,0,0,0,0,0,0,0,0,0,0,0,0,0,0,0,0,0,0,0,0,0,0,0,0,0,0,0,0,0,0,0,0,0,0,0,0,0,0,0,0,0,0,0,0,0,0,0,0,0,0,0,0,0,0,0,0,0,0,0,0,0,0,0,0,0,0,0,0,0,0,0,0,0,0,0,0,0,0,0,0,0,0,0,0,0,0,0,0,0,0,0,0,0,0,0,0,0,0,0,0,0,0,0,0,0,0,0,0,0,0,0,0,0,0,0,0,0,0,0,0,0,0,0,0,0,0,0,0,0,0,0,0,0,0,0,0,0,0,0,0,0,0,0,0,0,0,0,0,0,0,0,0,0,0,0,0,0,0,0,0,0,0,0,0,0,0,0,0,0,0,0,0,0,0,0,0,0,0,0,0,0,0,0,0,0,0,0,0,0,0,0,0,0,0,0,0,0,0,0,0,0,0,0,0,0,0,0,0,0,0,0,0,0,0,0,0,0,0,0,0,0,0,0,0,0,0,0,0,0,0,0,0,0,0,0,0,0],"sum_hessian":[1.1243E4,9.23E2,1.032E4,2.63E2,6.6E2,5.3E2,9.79E3,2.53E2,1E1,3.43E2,3.17E2,4.7E2,6E1,9.697E3,9.3E1,1.72E2,8.1E1,3.17E2,2.6E1,8.3E1,2.34E2,4.19E2,5.1E1,9.624E3,7.3E1,4.8E1,4.5E1,1.46E2,2.6E1,1.6E1,6.5E1,2.41E2,7.6E1,1.5E1,1.1E1,1E1,7.3E1,1.02E2,1.32E2,3.4E2,7.9E1,8.695E3,9.29E2,6.1E1,1.2E1,1.2E1,3.6E1,1.3E1,3.2E1,1.4E1,1.32E2,1.1E1,1.5E1,5.1E1,1.4E1,1.81E2,6E1,5E1,2.6E1,4.8E1,2.5E1,3.8E1,6.4E1,1.1E1,1.21E2,2.67E2,7.3E1,2.1E1,5.8E1,1.223E3,7.472E3,9.17E2,1.2E1,3.2E1,2.9E1,1E1,2.6E1,1E1,2.2E1,4.6E1,8.6E1,2E1,3.1E1,9.5E1,8.6E1,2.3E1,3.7E1,1.4E1,3.6E1,1.1E1,1.5E1,3.6E1,1.2E1,1.1E1,1.4E1,1.4E1,2.4E1,4.1E1,2.3E1,1E2,2.1E1,2.06E2,6.1E1,3.1E1,4.2E1,1.1E1,1E1,1.203E3,2E1,7.447E3,2.5E1,1.81E2,7.36E2,1.3E1,1.9E1,1.3E1,1.6E1,1.2E1,1.4E1,1.1E1,1.1E1,2.3E1,2.3E1,3.2E1,5.4E1,1.4E1,1.7E1,8.3E1,1.2E1,5.6E1,3E1,1.2E1,1.1E1,1.6E1,2.1E1,2.1E1,1.5E1,1.6E1,2E1,1E1,1.4E1,1.2E1,2.9E1,1.3E1,1E1,8.9E1,1.1E1,1.1E1,1E1,3.7E1,1.69E2,1.8E1,4.3E1,1.7E1,1.4E1,1.126E3,7.7E1,1E1,1E1,7.426E3,2.1E1,1.5E1,1E1,1.27E2,5.4E1,6.69E2,6.7E1,1E1,1.3E1,1.1E1,1.2E1,1.3E1,1.9E1,2.1E1,3.3E1,1.2E1,7.1E1,3.6E1,2E1,1.4E1,1.6E1,1E1,1.1E1,1E1,1E1,1.4E1,1.5E1,6E1,2.9E1,2.5E1,1.2E1,7.5E1,9.4E1,1.094E3,3.2E1,6.1E1,1.6E1,7.414E3,1.2E1,1E1,1.1E1,1.12E2,1.5E1,2.5E1,2.9E1,4.78E2,1.91E2,4.6E1,2.1E1,1.1E1,1E1,2.3E1,1E1,3.2E1,3.9E1,2.1E1,1.5E1,1E1,1E1,3.4E1,2.6E1,1.2E1,1.7E1,1.4E1,6.1E1,5.6E1,3.8E1,2.28E2,8.66E2,2.1E1,1.1E1,3.5E1,2.6E1,7.292E3,1.22E2,9.2E1,2E1,1.4E1,1.1E1,1.9E1,1E1,4.55E2,2.3E1,1.2E1,1.79E2,2.7E1,1.9E1,1.1E1,1E1,1.7E1,1.5E1,2.6E1,1.3E1,1.1E1,1E1,1.1E1,2.3E1,1.3E1,1.3E1,4.9E1,1.2E1,1E1,4.6E1,2.3E1,1.5E1,5.5E1,1.73E2,8.2E2,4.6E1,1E1,1.1E1,1E1,2.5E1,1.5E1,1.1E1,7.247E3,4.5E1,9.4E1,2.8E1,4.6E1,4.6E1,1E1,1E1,3.17E2,1.38E2,1E1,1.3E1,1.69E2,1E1,1.7E1,1E1],"tree_param":{"num_deleted":"0","num_feature":"126","num_nodes":"291","size_leaf_vector":"1"}},{"base_weights":[-1.4046103E2,-1.0373034E4,3.731545E2,-2.6276746E4,7.136925E4,4.550324E2,-1.7441334E4,-3.0782674E4,1.2836871E4,3.1630682E4,1.09670055E5,4.1261444E2,1.920475E4,-8.3354456E2,-1.165446E4,-3.3992332E4,8.6006146E2,-1.0727624E4,3.938329E4,1.4418417E4,1.3643123E3,1.4118833E5,1.4432324E3,5.78295E2,-4.1212812E3,-6.941275E1,9.557858E2,-1.2212762E2,-1.5938785E4,-3.8774234E4,1.1966421E4,-3.8634573E2,-5.610575E1,1.3402202E3,4.352108E2,7.212474E2,-2.7086227E2,2.0815793E3,4.314125E3,3.27671E1,2.72287E3,-1.5701068E4,1.0568711E3,-5.8372815E2,-1.6615877E2,-4.1641344E4,7.8876665E3,-1.9766678E2,2.2932963E4,5.6254276E1,-3.9903973E2,1.9611965E4,2.201796E3,-1.0053989E3,-1.2099043E4,-6.6366986E2,2.368147E3,-2.9693348E4,-4.57238E4,-9.851727E1,4.600353E2,9.030413E1,8.832968E2,1.4884888E1,9.669649E3,2.2433117E4,1.6836783E2,1.9882117E3,5.840353E2,-1.8113111E4,-1.14672E3,7.4576147E3,-4.620625E3,-1.0493285E3,-1.2970035E4,-4.859164E4,-3.3609207E4,1.438269E2,-2.5060718E3,2.406377E3,4.7582907E2,7.3981006E2,1.8614797E4,3.8876086E3,-1.5307845E2,4.4415966E1,-2.2517297E4,1.3918852E2,-6.3016436E3,1.7019795E4,2.2763115E3,1.1012484E2,-1.35766455E4,-1.8832926E4,6.3877583E1,-6.9622424E2,-1.2416263E3,-4.7264117E2,-9.2476166E2,-6.54903E1,1.8256005E3,-1.3493198E4,-1.4328994E3,2.5816177E2,-1.4786949E2,6.469956E2,1.0978429E4,2.8111274E3,3.528325E4,-5.843793E3,2.0188259E3,-1.3333978E4,-8.5336536E2,-2.1420593E2,-6.989735E1,9.828416E2,8.923297E3,-3.0150357E2,5.6243115E3,3.3003352E3,-3.3944846E2,-1.9802244E4,2.4081724E1,-6.27251E2,-2.7740768E2,-9.2016846E1,4.98777E3,1.1545961E3,8.592798E3,-2.3087878E0,-1.8846148E4,-8.572553E2,-3.262024E2,5.9697914E1,4.4348007E2,1.9755309E3,8.927093E3,5.156777E2,1.3018623E3,-2.9258423E3,-2.991632E4,-5.367187E2,3.8033955E3,-1.8312443E4,-6.1863583E1,1.4028839E4,-1.331943E2,8.908858E3,-1.2800539E2,-7.3148623E3,9.391332E3,-1.4302516E2,-7.763648E2,1.6195286E1,-4.3831058E0,5.037265E0,2.0968379E2,6.892725E1,2.4016454E0,3.2864337E2,5.153482E1,-5.9854517E2,-2.3338878E2,-4.6232018E1,1.01616875E2,4.0302017E1,2.8032056E2,1.3516467E2,4.129338E2,-1.093902E2,1.1461375E2,-1.0045783E3,-3.4772653E2,-4.2809277E2,1.7979513E1,2.1839537E1,1.9026352E2,-5.6753046E2,-2.6264658E2,9.274855E1,5.648533E2,1.5926286E2,4.1754205E2,-3.4267236E2,2.0724575E1,3.5841898E2,-6.762941E1],"categories":[],"categories_nodes":[],"categories_segments":[],"categories_sizes":[],"default_left":[0,0,0,0,0,0,0,0,0,0,0,0,0,0,0,0,0,0,0,0,0,0,0,0,0,0,0,0,0,0,0,0,0,0,0,0,0,0,0,0,0,0,0,0,0,0,0,0,0,0,0,0,0,0,0,0,0,0,0,0,0,0,0,0,0,0,0,0,0,0,0,0,0,0,0,0,0,0,0,0,0,0,0,0,0,0,0,0,0,0,0,0,0,0,0,0,0,0,0,0,0,0,0,0,0,0,0,0,0,0,0,0,0,0,0,0,0,0,0,0,0,0,0,0,0,0,0,0,0,0,0,0,0,0,0,0,0,0,0,0,0,0,0,0,0,0,0,0,0,0,0,0,0,0,0,0,0,0,0,0,0,0,0,0,0,0,0,0,0,0,0,0,0,0,0,0,0,0,0,0,0,0,0,0,0,0,0],"id":4,"left_children":[1,3,5,7,9,11,13,15,17,19,21,23,25,-1,27,29,-1,31,33,35,-1,37,-1,39,41,-1,-1,-1,43,45,47,-1,-1,-1,-1,-1,-1,-1,-1,49,51,53,55,-1,-1,57,59,-1,61,63,-1,65,67,-1,69,-1,71,73,75,-1,-1,-1,-1,77,79,81,-1,83,-1,85,87,89,91,-1,93,95,97,99,101,103,-1,-1,105,107,109,-1,111,-1,113,115,117,119,121,123,-1,-1,-1,-1,-1,125,127,129,131,-1,-1,-1,133,135,137,139,141,143,-1,-1,-1,-1,145,-1,147,149,-1,151,-1,-1,-1,153,155,157,159,-1,161,163,-1,-1,-1,165,167,-1,-1,169,171,173,175,177,-1,179,-1,181,-1,183,185,-1,-1,-1,-1,-1,-1,-1,-1,-1,-1,-1,-1,-1,-1,-1,-1,-1,-1,-1,-1,-1,-1,-1,-1,-1,-1,-1,-1,-1,-1,-1,-1,-1,-1,-1,-1],"loss_changes":[5.9049243E10,7.0185386E11,1.5621575E10,8.027593E10,1.2699972E11,8.4559575E9,3.7315195E9,8.707375E10,3.0871523E10,1.6590803E10,5.573024E10,7.989795E9,1.0249831E10,0E0,9.7535744E8,8.597904E10,0E0,1.0131809E9,5.323395E9,1.1193815E10,0E0,1.8518376E10,0E0,1.1999749E10,2.25189E10,0E0,0E0,0E0,1.2734095E9,4.7615345E10,8.644334E9,0E0,0E0,0E0,0E0,0E0,0E0,0E0,0E0,3.0743373E9,1.8218613E10,9.270028E9,9.572893E9,0E0,0E0,1.3429834E10,2.8809562E9,0E0,5.733672E9,3.2485256E9,0E0,1.9502182E9,9.036216E9,0E0,6.8087316E9,0E0,8.99677E9,1.7393508E10,5.1762627E9,0E0,0E0,0E0,0E0,2.6453865E9,2.288739E9,2.651095E8,0E0,8.143644E9,0E0,5.949088E9,1.4200177E9,7.15602E9,4.53644E9,0E0,3.8281498E9,1.5087043E9,1.2363162E9,2.72561E9,4.6305987E9,1.572053E9,0E0,0E0,1.5399414E9,3.5660046E10,1.1678781E10,0E0,4.957403E9,0E0,1.348487E8,8.5039995E9,4.79151E9,3.2337052E9,3.3873787E9,8.954532E8,0E0,0E0,0E0,0E0,0E0,9.240895E8,3.8716393E9,2.5072113E9,2.4047263E9,0E0,0E0,0E0,1.1930076E9,5.2183014E9,6.465032E9,1.815822E10,3.1234972E9,1.7475231E9,0E0,0E0,0E0,0E0,3.0598618E9,0E0,2.9145027E9,4.0168207E9,0E0,3.7642936E9,0E0,0E0,0E0,4.225991E8,5.823887E8,1.3259676E9,2.2355569E9,0E0,7.645491E8,1.714206E9,0E0,0E0,0E0,3.0089157E9,3.1081452E9,0E0,0E0,2.598873E9,3.4837975E9,5.91997E9,4.4818565E9,3.110185E8,0E0,2.483885E9,0E0,1.01361766E9,0E0,1.2200073E9,2.4106404E9,0E0,0E0,0E0,0E0,0E0,0E0,0E0,0E0,0E0,0E0,0E0,0E0,0E0,0E0,0E0,0E0,0E0,0E0,0E0,0E0,0E0,0E0,0E0,0E0,0E0,0E0,0E0,0E0,0E0,0E0,0E0,0E0,0E0,0E0,0E0,0E0],"parents":[2147483647,0,0,1,1,2,2,3,3,4,4,5,5,6,6,7,7,8,8,9,9,10,10,11,11,12,12,14,14,15,15,17,17,18,18,19,19,21,21,23,23,24,24,28,28,29,29,30,30,39,39,40,40,41,41,42,42,45,45,46,46,48,48,49,49,51,51,52,52,54,54,56,56,57,57,58,58,63,63,64,64,65,65,67,67,69,69,70,70,71,71,72,72,74,74,75,75,76,76,77,77,78,78,79,79,82,82,83,83,84,84,86,86,88,88,89,89,90,90,91,91,92,92,93,93,99,99,100,100,101,101,102,102,106,106,107,107,108,108,109,109,110,110,111,111,116,116,118,118,119,119,121,121,125,125,126,126,127,127,128,128,130,130,131,131,135,135,136,136,139,139,140,140,141,141,142,142,143,143,145,145,147,147,149,149,150,150],"right_children":[2,4,6,8,10,12,14,16,18,20,22,24,26,-1,28,30,-1,32,34,36,-1,38,-1,40,42,-1,-1,-1,44,46,48,-1,-1,-1,-1,-1,-1,-1,-1,50,52,54,56,-1,-1,58,60,-1,62,64,-1,66,68,-1,70,-1,72,74,76,-1,-1,-1,-1,78,80,82,-1,84,-1,86,88,90,92,-1,94,96,98,100,102,104,-1,-1,106,108,110,-1,112,-1,114,116,118,120,122,124,-1,-1,-1,-1,-1,126,128,130,132,-1,-1,-1,134,136,138,140,142,144,-1,-1,-1,-1,146,-1,148,150,-1,152,-1,-1,-1,154,156,158,160,-1,162,164,-1,-1,-1,166,168,-1,-1,170,172,174,176,178,-1,180,-1,182,-1,184,186,-1,-1,-1,-1,-1,-1,-1,-1,-1,-1,-1,-1,-1,-1,-1,-1,-1,-1,-1,-1,-1,-1,-1,-1,-1,-1,-1,-1,-1,-1,-1,-1,-1,-1,-1,-1],"split_conditions":[1E0,1E0,4.35194E5,1E0,1.841E3,4.27835E5,4.11645E3,1E0,1.76691E3,4.5256E2,1.564E1,2.49684E5,2.6910338E4,-8.3354456E2,2.4746412E4,1E0,8.6006146E2,1.485E3,1.833E1,1.187E3,1.3643123E3,7E2,1.4432324E3,1E5,2.57507E5,-6.941275E1,9.557858E2,-1.2212762E2,4.6374977E4,1E0,1.5954E2,-3.8634573E2,-5.610575E1,1.3402202E3,4.352108E2,7.212474E2,-2.7086227E2,2.0815793E3,4.314125E3,1.16567E5,9.4453E4,1.997E3,6.085E0,-5.8372815E2,-1.6615877E2,1.422E1,1.414E3,-1.9766678E2,2.4855E1,2.4746412E4,-3.9903973E2,1E0,1E0,-1.0053989E3,1.29365E4,-6.6366986E2,3.33986E5,7E2,1E0,-9.851727E1,4.600353E2,9.030413E1,8.832968E2,8.9149E4,1E5,6.18E2,1.6836783E2,1.522E5,5.840353E2,2.1199732E4,4.341301E4,1.3E1,3.5978875E4,-1.0493285E3,1E0,9.2E1,1.833E1,7.478284E3,7.5306E4,8.5822E4,4.7582907E2,7.3981006E2,9.5711664E4,1.68751E5,1.61828E5,4.4415966E1,2.4939233E5,1.3918852E2,1.534E1,1.995E3,6.31661E3,1.711E1,2.009E3,1E0,6.3877583E1,-6.9622424E2,-1.2416263E3,-4.7264117E2,-9.2476166E2,8.9523E4,7.634189E4,3.5343E2,1E0,2.5816177E2,-1.4786949E2,6.469956E2,9.968818E4,1.45819E5,2.004E3,1.875E5,1E0,1.9726225E5,-8.5336536E2,-2.1420593E2,-6.989735E1,9.828416E2,9.46E0,-3.0150357E2,3.13645E5,3.60076E5,-3.3944846E2,2.005E3,2.4081724E1,-6.27251E2,-2.7740768E2,7.714E3,1.70505E3,4.5237E4,2.031E1,-2.3087878E0,8.695E4,1.2698978E4,-3.262024E2,5.9697914E1,4.4348007E2,1.4957E5,2.54E1,5.156777E2,1.3018623E3,1.7073E5,1E0,1.422E1,2.02747E5,2.1426E5,-6.1863583E1,6.26E2,-1.331943E2,3.09147E5,-1.2800539E2,9.46E0,3.9875466E5,-1.4302516E2,-7.763648E2,1.6195286E1,-4.3831058E0,5.037265E0,2.0968379E2,6.892725E1,2.4016454E0,3.2864337E2,5.153482E1,-5.9854517E2,-2.3338878E2,-4.6232018E1,1.01616875E2,4.0302017E1,2.8032056E2,1.3516467E2,4.129338E2,-1.093902E2,1.1461375E2,-1.0045783E3,-3.4772653E2,-4.2809277E2,1.7979513E1,2.1839537E1,1.9026352E2,-5.6753046E2,-2.6264658E2,9.274855E1,5.648533E2,1.5926286E2,4.1754205E2,-3.4267236E2,2.0724575E1,3.5841898E2,-6.762941E1],"split_indices":[10,119,4,123,2,6,2,118,2,2,3,4,9,0,9,116,0,1,3,1,0,1,0,5,6,0,0,0,9,125,2,0,0,0,0,0,0,0,0,7,4,0,3,0,0,3,1,0,3,9,0,116,97,0,2,0,4,1,120,0,0,0,0,4,4,1,0,4,0,9,2,3,9,0,117,1,3,9,5,4,0,0,7,6,5,0,7,0,3,0,2,3,0,124,0,0,0,0,0,6,8,2,65,0,0,0,8,5,0,4,119,8,0,0,0,0,3,0,4,6,0,0,0,0,0,4,2,4,3,0,8,9,0,0,0,6,3,0,0,4,119,3,5,5,0,1,0,6,0,3,7,0,0,0,0,0,0,0,0,0,0,0,0,0,0,0,0,0,0,0,0,0,0,0,0,0,0,0,0,0,0,0,0,0,0,0,0],"split_type":[0,0,0,0,0,0,0,0,0,0,0,0,0,0,0,0,0,0,0,0,0,0,0,0,0,0,0,0,0,0,0,0,0,0,0,0,0,0,0,0,0,0,0,0,0,0,0,0,0,0,0,0,0,0,0,0,0,0,0,0,0,0,0,0,0,0,0,0,0,0,0,0,0,0,0,0,0,0,0,0,0,0,0,0,0,0,0,0,0,0,0,0,0,0,0,0,0,0,0,0,0,0,0,0,0,0,0,0,0,0,0,0,0,0,0,0,0,0,0,0,0,0,0,0,0,0,0,0,0,0,0,0,0,0,0,0,0,0,0,0,0,0,0,0,0,0,0,0,0,0,0,0,0,0,0,0,0,0,0,0,0,0,0,0,0,0,0,0,0,0,0,0,0,0,0,0,0,0,0,0,0,0,0,0,0,0,0],"sum_hessian":[1.1232E4,5.35E2,1.0697E4,4.49E2,8.6E1,1.065E4,4.7E1,4.03E2,4.6E1,4.4E1,4.2E1,1.0628E4,2.2E1,1E1,3.7E1,3.85E2,1.8E1,2.5E1,2.1E1,2.7E1,1.7E1,2.4E1,1.8E1,1.0255E4,3.73E2,1.1E1,1.1E1,1.6E1,2.1E1,3.49E2,3.6E1,1.5E1,1E1,1.1E1,1E1,1.7E1,1E1,1.1E1,1.3E1,8.177E3,2.078E3,1.14E2,2.59E2,1E1,1.1E1,3.29E2,2E1,1.3E1,2.3E1,8.167E3,1E1,6E1,2.018E3,1.2E1,1.02E2,1E1,2.49E2,8.8E1,2.41E2,1E1,1E1,1E1,1.3E1,8.134E3,3.3E1,4.8E1,1.2E1,2E3,1.8E1,6.5E1,3.7E1,1.44E2,1.05E2,4.9E1,3.9E1,1.9E2,5.1E1,7.74E3,3.94E2,2E1,1.3E1,1.2E1,3.6E1,1.059E3,9.41E2,1.2E1,5.3E1,1.6E1,2.1E1,4.9E1,9.5E1,7E1,3.5E1,2.8E1,1.1E1,1.2E1,1.78E2,1.2E1,3.9E1,6.885E3,8.55E2,3.3E1,3.61E2,1E1,1E1,1.6E1,2E1,1.026E3,3.3E1,2.59E2,6.82E2,3.2E1,2.1E1,1.1E1,1E1,1.1E1,3.8E1,1.7E1,7.8E1,5.8E1,1.2E1,2.4E1,1.1E1,1.3E1,1.5E1,6.851E3,3.4E1,7.8E2,7.5E1,1E1,2.3E1,3.46E2,1.5E1,1E1,1E1,9.05E2,1.21E2,2E1,1.3E1,2.33E2,2.6E1,2.81E2,4.01E2,2.1E1,1.1E1,2.8E1,1E1,6E1,1.8E1,2.1E1,3.7E1,1.2E1,1.2E1,6.92E2,6.159E3,1.5E1,1.9E1,3.09E2,4.71E2,4.3E1,3.2E1,1.3E1,1E1,2.89E2,5.7E1,8.73E2,3.2E1,8.5E1,3.6E1,1.96E2,3.7E1,1.4E1,1.2E1,1.8E1,2.63E2,2.28E2,1.73E2,1.1E1,1E1,1.4E1,1.4E1,4.8E1,1.2E1,1.1E1,1E1,2.6E1,1.1E1],"tree_param":{"num_deleted":"0","num_feature":"126","num_nodes":"187","size_leaf_vector":"1"}},{"base_weights":[-5.1681604E0,1.1993967E4,-7.286709E2,1.7656807E4,8.057539E3,-9.037315E3,-2.715924E2,1.8772797E4,-1.6517062E2,9.182162E3,7.0866907E2,-2.4771074E4,7.0854055E4,-2.2953554E1,-1.391076E4,1.4632862E4,2.7100242E4,8.1329746E3,7.962967E2,6.235326E3,-3.9441228E3,-2.995259E4,1.8566842E4,3.1778254E4,1.069148E5,3.3202736E1,-2.320657E4,-8.430036E3,-2.5242984E4,1.706978E4,8.808782E2,1.4480687E4,4.132454E4,8.547338E3,-9.81727E1,5.484311E1,2.1593077E2,-2.4116008E2,9.877068E1,-3.2913414E4,8.027788E2,-8.570838E3,4.33241E4,1.5996466E4,1.3337948E3,1.3715017E5,1.4104651E3,4.4010903E3,-2.1456169E2,-7.1699493E2,-3.2383444E2,-1.2831181E4,9.315185E3,-2.47171E2,-3.0139926E4,5.0785313E1,1.8265033E4,4.1937628E2,-2.453278E2,2.1374238E4,-2.7912592E1,4.8978278E2,1.3590406E3,7.9087715E3,4.8230997E2,-3.770307E4,1.3232287E4,-2.8592413E2,-8.302157E1,1.4891123E3,6.178318E2,8.772653E2,-1.2743103E2,2.1492488E3,4.251093E3,4.0640388E3,3.8690652E2,-1.13290016E2,-4.0050957E3,-7.7879204E3,-6.6949945E2,-1.3235756E2,4.7769757E2,-1.0784165E3,-1.924285E4,2.0180307E4,9.504501E3,2.1371619E2,7.921304E2,8.724129E3,-1.862624E2,-4.0607055E4,1.0868206E4,-2.44796E2,2.4190555E4,1.0334883E4,3.7315808E3,-2.4203018E2,2.408382E3,8.292034E3,-5.5477993E3,1.2505326E2,-9.8462E3,-6.1804095E2,-2.8909006E2,1.2805998E4,2.3766387E4,4.1987473E2,-7.538286E1,7.629661E3,1.8495605E4,-3.002506E4,-4.510553E4,-2.0729199E2,7.0541815E2,7.253988E1,1.02087103E3,-1.7852814E1,5.605912E2,4.0120947E3,-1.826959E2,-9.4781296E1,-2.8837563E3,4.3578912E2,1.0609738E4,4.7021835E2,-1.2279071E2,-1.1203434E4,-1.318905E3,-2.0017258E4,-2.8387964E3,1.545678E2,1.5202928E4,2.6640229E4,2.875892E2,8.143483E3,-8.168047E1,2.2266539E2,6.2448126E2,-3.7566227E4,-1.9033348E4,-5.0140292E2,-4.6268395E4,5.248269E3,1.6170724E3,-2.3988765E2,1.2777087E3,1.4519875E3,-4.226105E3,7.3034595E2,-2.0570207E2,2.2127378E3,1.7165166E4,-2.2968605E4,-2.2395474E3,-1.0476245E4,2.8263916E3,-6.337912E2,-2.8605582E2,-3.0928302E2,1.7989679E3,5.5581116E2,1.7879332E2,7.561967E2,4.2804224E2,5.775168E3,1.0740864E4,-7.2800385E2,-1.0805918E3,-9.4728125E2,-1.2076464E4,-1.2226884E3,-8.976967E2,4.199179E3,1.0724404E4,-1.3842894E3,3.5380151E3,-2.8584513E1,-1.5029045E3,-4.163754E1,5.671155E3,-1.8779207E3,1.1337999E4,-6.253407E3,-1.6705593E3,2.0049589E3,1.3722263E2,1.8800165E2,-2.813264E3,8.432238E2,1.1031068E4,-9.3362854E2,-1.5686751E4,5.7198066E3,-5.588862E2,2.4664831E1,-4.9861554E2,3.896522E2,-8.4750555E2,2.3856021E2,-2.8516486E2,1.7363972E2,2.2249437E1,4.7217618E2,2.2099446E2,-4.6326913E2,4.0882618E1,1.1265548E2,-7.947008E1,4.696536E0,4.7474243E2,4.632925E1,-2.1630899E2,3.6619625E1,1.6504227E2,1.9878113E1,-5.5068545E0,-7.124617E1,-3.7586057E0,-7.152296E1,2.509752E1,8.205721E1,2.7669772E2,-1.1302956E2,2.0790979E2,5.171245E2,4.3553513E1,-1.0108087E2,-2.8336414E2,7.58803E1,-1.7069283E2,1.0043984E2,-8.728863E0,-7.5353355E1,1.3246791E1,-1.3065807E2,1.7167838E0,1.4571255E2,4.0410214E2,-5.579252E1,-5.5477765E2,5.4736774E2,-2.2761652E1,1.4393147E2,-1.1162853E2],"categories":[],"categories_nodes":[],"categories_segments":[],"categories_sizes":[],"default_left":[0,0,0,0,0,0,0,0,0,0,0,0,0,0,0,0,0,0,0,0,0,0,0,0,0,0,0,0,0,0,0,0,0,0,0,0,0,0,0,0,0,0,0,0,0,0,0,0,0,0,0,0,0,0,0,0,0,0,0,0,0,0,0,0,0,0,0,0,0,0,0,0,0,0,0,0,0,0,0,0,0,0,0,0,0,0,0,0,0,0,0,0,0,0,0,0,0,0,0,0,0,0,0,0,0,0,0,0,0,0,0,0,0,0,0,0,0,0,0,0,0,0,0,0,0,0,0,0,0,0,0,0,0,0,0,0,0,0,0,0,0,0,0,0,0,0,0,0,0,0,0,0,0,0,0,0,0,0,0,0,0,0,0,0,0,0,0,0,0,0,0,0,0,0,0,0,0,0,0,0,0,0,0,0,0,0,0,0,0,0,0,0,0,0,0,0,0,0,0,0,0,0,0,0,0,0,0,0,0,0,0,0,0,0,0,0,0,0,0,0,0,0,0,0,0,0,0,0,0,0,0,0,0,0,0,0,0,0,0,0,0,0,0,0,0],"id":5,"left_children":[1,3,5,7,9,11,13,15,-1,17,19,21,23,25,27,29,31,33,-1,35,37,39,41,43,45,47,49,51,53,55,57,59,61,63,-1,-1,-1,-1,-1,65,-1,67,69,71,-1,73,-1,75,77,-1,-1,79,81,-1,83,-1,85,-1,-1,87,-1,-1,-1,89,-1,91,93,-1,-1,-1,-1,-1,-1,-1,-1,95,-1,97,99,101,-1,-1,-1,-1,103,105,107,-1,-1,109,-1,111,113,-1,115,117,119,121,123,125,127,-1,129,-1,-1,131,133,-1,-1,135,137,139,141,-1,-1,-1,-1,-1,-1,143,-1,145,147,149,151,-1,-1,153,155,157,159,-1,161,163,-1,165,-1,-1,-1,167,169,-1,171,173,175,177,179,181,183,185,-1,187,189,191,193,195,197,-1,-1,-1,199,-1,-1,-1,-1,201,203,-1,-1,-1,205,-1,-1,207,209,211,213,215,217,219,221,223,225,227,229,231,233,-1,235,-1,237,-1,239,241,-1,-1,-1,-1,243,-1,-1,-1,-1,-1,-1,-1,-1,-1,-1,-1,-1,-1,-1,-1,-1,-1,-1,-1,-1,-1,-1,-1,-1,-1,-1,-1,-1,-1,-1,-1,-1,-1,-1,-1,-1,-1,-1,-1,-1,-1,-1,-1,-1,-1,-1],"loss_changes":[9.816079E10,1.4048797E10,4.0493793E10,7.342498E9,3.1523717E9,7.023976E11,3.4284667E10,7.860134E9,0E0,7.3784463E9,1.4120483E9,1.05755345E11,1.2284228E11,1.2930768E10,1.0816094E10,5.73406E9,1.3343031E10,1.6662241E9,0E0,2.0479315E8,1.4267992E9,7.874167E10,3.5007226E10,1.4295163E10,5.628261E10,1.072548E10,6.0383334E8,1.0001461E10,3.7655142E9,2.550096E9,5.0884506E9,4.9936507E9,8.3534725E9,1.8218865E9,0E0,0E0,0E0,0E0,0E0,8.9185616E10,0E0,3.1526323E8,5.2166124E9,1.2440722E10,0E0,1.7900634E10,0E0,1.8601114E9,3.5994445E9,0E0,0E0,6.6879693E9,3.922057E9,0E0,4.429791E9,0E0,1.8815304E9,0E0,0E0,3.6900874E9,0E0,0E0,0E0,3.8368911E9,0E0,5.1942752E10,1.0313616E10,0E0,0E0,0E0,0E0,0E0,0E0,0E0,0E0,1.0048768E9,0E0,2.9674058E9,4.7208883E9,2.125568E9,0E0,0E0,0E0,0E0,5.642271E8,2.273788E9,2.6569997E9,0E0,0E0,2.7336376E9,0E0,1.3571654E10,7.780632E9,0E0,9.330198E9,3.371243E9,1.5946081E9,3.3817324E9,7.1737564E9,4.072814E9,5.184371E9,0E0,4.6616207E9,0E0,0E0,4.470313E8,1.8892227E9,0E0,0E0,1.4921697E9,1.2336722E9,7.522132E9,5.0184847E9,0E0,0E0,0E0,0E0,0E0,0E0,1.4189481E9,0E0,1.6412687E9,2.6836887E9,9.3073965E8,4.6579866E9,0E0,0E0,9.705057E9,4.880126E9,6.5489E8,1.9013146E9,0E0,1.2666875E9,8.872182E8,0E0,1.3891871E9,0E0,0E0,0E0,4.4520243E8,5.3820436E9,0E0,2.6124943E9,1.7425746E9,9.7838976E8,1.9886996E9,4.568096E9,3.6637302E9,1.7975905E9,2.6405067E8,0E0,1.1092975E9,4.1328538E9,3.0158664E9,9.061764E9,4.3807334E9,4.198544E9,0E0,0E0,0E0,3.285387E9,0E0,0E0,0E0,0E0,7.48095E8,1.4470441E9,0E0,0E0,0E0,3.4236027E9,0E0,0E0,6.425544E8,4.3472456E9,1.6085841E9,6.348855E8,1.0086774E9,1.9448471E9,1.797925E9,2.27371E9,2.3386834E9,2.4393121E9,2.0982395E9,3.8758518E9,5.2872022E8,3.014021E8,0E0,1.5371189E8,0E0,8.263598E8,0E0,2.526445E9,4.436873E9,0E0,0E0,0E0,0E0,1.7478616E9,0E0,0E0,0E0,0E0,0E0,0E0,0E0,0E0,0E0,0E0,0E0,0E0,0E0,0E0,0E0,0E0,0E0,0E0,0E0,0E0,0E0,0E0,0E0,0E0,0E0,0E0,0E0,0E0,0E0,0E0,0E0,0E0,0E0,0E0,0E0,0E0,0E0,0E0,0E0,0E0,0E0,0E0,0E0,0E0,0E0,0E0],"parents":[2147483647,0,0,1,1,2,2,3,3,4,4,5,5,6,6,7,7,9,9,10,10,11,11,12,12,13,13,14,14,15,15,16,16,17,17,19,19,20,20,21,21,22,22,23,23,24,24,25,25,26,26,27,27,28,28,29,29,30,30,31,31,32,32,33,33,39,39,41,41,42,42,43,43,45,45,47,47,48,48,51,51,52,52,54,54,56,56,59,59,63,63,65,65,66,66,75,75,77,77,78,78,79,79,84,84,85,85,86,86,89,89,91,91,92,92,94,94,95,95,96,96,97,97,98,98,99,99,100,100,102,102,105,105,106,106,109,109,110,110,111,111,112,112,119,119,121,121,122,122,123,123,124,124,127,127,128,128,129,129,130,130,132,132,133,133,135,135,139,139,140,140,142,142,143,143,144,144,145,145,146,146,147,147,148,148,149,149,151,151,152,152,153,153,154,154,155,155,156,156,160,160,165,165,166,166,170,170,173,173,174,174,175,175,176,176,177,177,178,178,179,179,180,180,181,181,182,182,183,183,184,184,185,185,186,186,188,188,190,190,192,192,193,193,198,198],"right_children":[2,4,6,8,10,12,14,16,-1,18,20,22,24,26,28,30,32,34,-1,36,38,40,42,44,46,48,50,52,54,56,58,60,62,64,-1,-1,-1,-1,-1,66,-1,68,70,72,-1,74,-1,76,78,-1,-1,80,82,-1,84,-1,86,-1,-1,88,-1,-1,-1,90,-1,92,94,-1,-1,-1,-1,-1,-1,-1,-1,96,-1,98,100,102,-1,-1,-1,-1,104,106,108,-1,-1,110,-1,112,114,-1,116,118,120,122,124,126,128,-1,130,-1,-1,132,134,-1,-1,136,138,140,142,-1,-1,-1,-1,-1,-1,144,-1,146,148,150,152,-1,-1,154,156,158,160,-1,162,164,-1,166,-1,-1,-1,168,170,-1,172,174,176,178,180,182,184,186,-1,188,190,192,194,196,198,-1,-1,-1,200,-1,-1,-1,-1,202,204,-1,-1,-1,206,-1,-1,208,210,212,214,216,218,220,222,224,226,228,230,232,234,-1,236,-1,238,-1,240,242,-1,-1,-1,-1,244,-1,-1,-1,-1,-1,-1,-1,-1,-1,-1,-1,-1,-1,-1,-1,-1,-1,-1,-1,-1,-1,-1,-1,-1,-1,-1,-1,-1,-1,-1,-1,-1,-1,-1,-1,-1,-1,-1,-1,-1,-1,-1,-1,-1,-1,-1],"split_conditions":[-1.118E4,-2.35E4,1E0,6.990905E4,1.976E3,1E0,3.92E4,2.007E3,-1.6517062E2,1.732E3,1.0681175E5,1E0,1.841E3,4.2769266E5,3.5978875E4,3.9036508E4,1.6120973E5,4.0138E5,7.962967E2,1.08335E4,-1.4924E4,1E0,1.76691E3,4.5256E2,1.6525E1,-5.998E3,7.819E3,1.1762E4,1.32113E5,5.0045E4,1.74562E5,2.846138E4,2.846138E4,3.30734E5,-9.81727E1,5.484311E1,2.1593077E2,-2.4116008E2,9.877068E1,1E0,8.027788E2,1.342E3,8.47E2,8.32E2,1.3337948E3,7E2,1.4104651E3,2.875E3,2.49684E5,-7.1699493E2,-3.2383444E2,3.05516E3,1.997E3,-2.47171E2,2.67E3,5.0785313E1,1E0,4.1937628E2,-2.453278E2,1.8498334E4,-2.7912592E1,4.8978278E2,1.3590406E3,3.5978875E4,4.8230997E2,1E0,2.153E1,-2.8592413E2,-8.302157E1,1.4891123E3,6.178318E2,8.772653E2,-1.2743103E2,2.1492488E3,4.251093E3,2.3E1,3.8690652E2,2E0,-1.705E3,6.3333E4,-6.6949945E2,-1.3235756E2,4.7769757E2,-1.0784165E3,4.6374977E4,7E0,2.039214E4,2.1371619E2,7.921304E2,2.6725E1,-1.862624E2,1.583E1,1.485E3,-2.44796E2,3.9811E2,1.313E1,3.5978875E4,1.3846E4,1.00385E5,2.97584E5,1.024994E4,1.2505326E2,1.131E5,-6.1804095E2,-2.8909006E2,6.26E2,-2.5977E4,4.1987473E2,-7.538286E1,5.875E4,7.0139E4,7E2,8.3E1,-2.0729199E2,7.0541815E2,7.253988E1,1.02087103E3,-1.7852814E1,5.605912E2,2.059E1,-1.826959E2,1E0,5.2446E2,1.5934674E4,1.3737765E4,4.7021835E2,-1.2279071E2,2.4746412E4,2.57507E5,7.58E2,8.65E0,1.545678E2,1.544E1,2.432E1,2.875892E2,9.5455E4,-8.168047E1,2.2266539E2,6.2448126E2,1.991E3,1.31117E3,-5.0140292E2,1E0,1.19257336E5,6.7663E2,4.019E3,4.847E3,2.757E4,1.4068377E4,1.729E1,-2.0570207E2,1.22818E5,1.18624664E5,4.359E3,2.01E3,2.307114E5,1.998E3,-6.337912E2,-2.8605582E2,-3.0928302E2,1.996E3,5.5581116E2,1.7879332E2,7.561967E2,4.2804224E2,1.1054578E4,1.1E5,-7.2800385E2,-1.0805918E3,-9.4728125E2,1E0,-1.2226884E3,-8.976967E2,9.8591E4,6.57E2,1.0358193E4,1.0681175E5,-1.57E3,1.926E1,6.18E2,1.68751E5,1E0,1.31606E5,1.1677961E4,1.6E1,7E2,1.8125E1,1.8800165E2,9.1888E2,8.432238E2,1.64151E5,-9.3362854E2,1.666964E4,8.65E0,-5.588862E2,2.4664831E1,-4.9861554E2,3.896522E2,3.1185E4,2.3856021E2,-2.8516486E2,1.7363972E2,2.2249437E1,4.7217618E2,2.2099446E2,-4.6326913E2,4.0882618E1,1.1265548E2,-7.947008E1,4.696536E0,4.7474243E2,4.632925E1,-2.1630899E2,3.6619625E1,1.6504227E2,1.9878113E1,-5.5068545E0,-7.124617E1,-3.7586057E0,-7.152296E1,2.509752E1,8.205721E1,2.7669772E2,-1.1302956E2,2.0790979E2,5.171245E2,4.3553513E1,-1.0108087E2,-2.8336414E2,7.58803E1,-1.7069283E2,1.0043984E2,-8.728863E0,-7.5353355E1,1.3246791E1,-1.3065807E2,1.7167838E0,1.4571255E2,4.0410214E2,-5.579252E1,-5.5477765E2,5.4736774E2,-2.2761652E1,1.4393147E2,-1.1162853E2],"split_indices":[13,13,10,9,1,119,13,0,0,1,8,123,2,7,9,9,8,4,0,9,13,118,2,2,3,13,13,2,8,6,4,9,9,6,0,0,0,0,0,116,0,1,1,1,0,1,0,1,4,0,0,2,0,0,2,0,123,0,0,9,0,0,0,9,0,125,3,0,0,0,0,0,0,0,0,2,0,11,13,8,0,0,0,0,9,10,9,0,0,3,0,3,1,0,2,2,9,13,4,4,2,0,6,0,0,1,13,0,0,2,4,1,1,0,0,0,0,0,0,3,0,119,2,9,9,0,0,9,6,1,3,0,3,3,0,5,0,0,0,0,2,0,120,8,2,13,13,13,9,3,0,8,7,13,0,8,0,0,0,0,1,0,0,0,0,9,5,0,0,0,117,0,0,4,1,9,8,13,3,1,6,116,4,9,10,1,3,0,2,0,6,0,9,3,0,0,0,0,2,0,0,0,0,0,0,0,0,0,0,0,0,0,0,0,0,0,0,0,0,0,0,0,0,0,0,0,0,0,0,0,0,0,0,0,0,0,0,0,0,0,0,0,0,0,0],"split_type":[0,0,0,0,0,0,0,0,0,0,0,0,0,0,0,0,0,0,0,0,0,0,0,0,0,0,0,0,0,0,0,0,0,0,0,0,0,0,0,0,0,0,0,0,0,0,0,0,0,0,0,0,0,0,0,0,0,0,0,0,0,0,0,0,0,0,0,0,0,0,0,0,0,0,0,0,0,0,0,0,0,0,0,0,0,0,0,0,0,0,0,0,0,0,0,0,0,0,0,0,0,0,0,0,0,0,0,0,0,0,0,0,0,0,0,0,0,0,0,0,0,0,0,0,0,0,0,0,0,0,0,0,0,0,0,0,0,0,0,0,0,0,0,0,0,0,0,0,0,0,0,0,0,0,0,0,0,0,0,0,0,0,0,0,0,0,0,0,0,0,0,0,0,0,0,0,0,0,0,0,0,0,0,0,0,0,0,0,0,0,0,0,0,0,0,0,0,0,0,0,0,0,0,0,0,0,0,0,0,0,0,0,0,0,0,0,0,0,0,0,0,0,0,0,0,0,0,0,0,0,0,0,0,0,0,0,0,0,0,0,0,0,0,0,0],"sum_hessian":[1.1303E4,6.41E2,1.0662E4,2.6E2,3.81E2,5.54E2,1.0108E4,2.49E2,1.1E1,3.3E2,5.1E1,4.64E2,9E1,9.929E3,1.79E2,1.7E2,7.9E1,3.18E2,1.2E1,2.3E1,2.8E1,4.15E2,4.9E1,4.5E1,4.5E1,9.907E3,2.2E1,1.23E2,5.6E1,1.44E2,2.6E1,4.4E1,3.5E1,3.08E2,1E1,1E1,1.3E1,1.6E1,1.2E1,3.97E2,1.8E1,2.4E1,2.5E1,2.8E1,1.7E1,2.6E1,1.9E1,5.3E2,9.377E3,1.2E1,1E1,9.9E1,2.4E1,1.5E1,4.1E1,1.1E1,1.33E2,1E1,1.6E1,3E1,1.4E1,1.5E1,2E1,2.94E2,1.4E1,3.6E2,3.7E1,1.4E1,1E1,1.1E1,1.4E1,1.4E1,1.4E1,1.3E1,1.3E1,5.17E2,1.3E1,9.135E3,2.42E2,7.5E1,2.4E1,1E1,1.4E1,1.6E1,2.5E1,1.07E2,2.6E1,1.5E1,1.5E1,2.8E2,1.4E1,3.4E2,2E1,1.2E1,2.5E1,2.3E1,4.94E2,8.693E3,4.42E2,2.6E1,2.16E2,1E1,6.5E1,1.2E1,1.3E1,3.8E1,6.9E1,1.6E1,1E1,2.55E2,2.5E1,1.06E2,2.34E2,1E1,1E1,1.2E1,1.3E1,1.3E1,1E1,4.83E2,1.1E1,8.236E3,4.57E2,3.58E2,8.4E1,1.4E1,1.2E1,9.1E1,1.25E2,2.5E1,4E1,1.2E1,2.6E1,5.4E1,1.5E1,2.44E2,1.1E1,1.2E1,1.3E1,6E1,4.6E1,1.2E1,2.22E2,3.17E2,1.66E2,7.45E3,7.86E2,1.08E2,3.49E2,3.48E2,1E1,3.8E1,4.6E1,3.8E1,5.3E1,3.8E1,8.7E1,1.3E1,1.2E1,1.2E1,2.8E1,1.2E1,1.4E1,3.6E1,1.8E1,1.31E2,1.13E2,2.9E1,3.1E1,1E1,3.6E1,1.71E2,5.1E1,2.69E2,4.8E1,6.5E1,1.01E2,6.384E3,1.066E3,6.06E2,1.8E2,8.2E1,2.6E1,1.93E2,1.56E2,1.09E2,2.39E2,1.8E1,2E1,1E1,3.6E1,1E1,2.8E1,3.9E1,1.4E1,1.8E1,2E1,1.8E1,6.9E1,1.8E1,1E1,1.05E2,2.6E1,1.8E1,9.5E1,2.4E1,1.2E1,2.59E2,1E1,2.2E1,2.6E1,4.6E1,1.9E1,6.2E1,3.9E1,1.204E3,5.18E3,5.33E2,5.33E2,1.63E2,4.43E2,1.27E2,5.3E1,6.6E1,1.6E1,1.2E1,1.4E1,1.37E2,5.6E1,8.2E1,7.4E1,5.8E1,5.1E1,2.5E1,2.14E2,1E1,1E1,2E1,1.6E1,1E1,1.8E1,1E1,2.9E1,2.4E1,4.5E1],"tree_param":{"num_deleted":"0","num_feature":"126","num_nodes":"245","size_leaf_vector":"1"}},{"base_weights":[7.551404E1,1.179055E4,-6.571043E2,1.7849258E4,7.615364E3,-4.30003E2,-1.3951734E4,1.8936133E4,-1.6167662E2,8.697426E3,2.8438135E2,-1.2561187E3,4.9421504E3,1.5214995E2,-1.6143122E4,1.2277894E4,2.1898746E4,7.753543E3,7.1072595E2,6.0783076E3,-4.219586E3,-2.227041E4,-3.032839E2,7.893325E4,6.6159717E2,-1.0803888E4,-2.389778E4,1.5178605E4,-1.914036E2,2.3908783E4,6.9319275E1,8.929427E3,3.4125042E3,6.180525E1,2.3180925E2,5.8150814E1,-2.8779294E2,-2.8065383E4,1.9439918E4,2.6338125E3,-6.867047E2,3.6074343E3,4.51225E4,1.0721193E3,-2.0623531E4,-1.3933287E4,7.3764175E1,-2.676239E4,-2.7429327E2,1.0844427E4,6.864445E2,1.057694E4,2.6122193E4,5.76986E3,1.3557817E4,-5.0612817E3,9.420144E3,-3.3053184E4,1.2764709E4,9.3580927E2,1.2801033E3,2.401358E3,4.6613965E2,-3.8854211E3,-4.153786E2,2.4707048E2,6.268103E4,3.9999712E3,-7.421695E2,-6.55018E2,-2.861119E2,-7.3918427E2,-9.783855E3,-1.6203625E4,-3.5668617E4,1.3314907E4,-2.1122435E1,4.3823907E2,5.2833168E1,3.603445E4,2.2071842E4,7.095451E3,-1.8499208E3,2.5682738E4,9.678382E3,-3.4291187E2,5.76133E1,2.8980522E3,5.410778E2,-3.6129008E4,3.7128946E2,-2.7383496E3,7.3429913E2,-8.204108E3,4.5745044E2,3.8731726E3,1.3019977E3,1.181049E2,-1.1794058E4,-3.1851065E2,-7.430661E3,1.0585107E3,1.9809229E3,1.845244E4,2.0723105E3,-1.0292319E4,8.80391E1,-1.3221905E4,2.610951E1,-5.545743E2,-1.870595E2,-1.1545258E3,-5.0151715E2,-8.261817E0,1.7881727E4,2.615388E4,1.2859152E3,1.7256877E2,2.3587066E4,4.7809756E3,8.874114E3,1.2193738E2,-2.2025566E2,3.3322403E2,8.953756E2,4.0309776E1,1.1291604E4,2.736969E2,-1.5042854E2,-3.9280203E4,3.237944E2,-1.3688972E2,1.1382026E1,-5.4899654E1,-3.1219745E2,2.9527963E2,3.5420803E3,1.5866565E3,-1.6640796E2,-1.14025505E2,1.7570337E2,-6.3988055E2,-1.9956346E4,-3.5024106E2,3.1709103E2,-9.853563E3,1.4788863E2,3.0993752E3,3.4680766E4,1.6247369E3,4.431921E2,-6.521461E2,-6.401451E3,-1.9746335E3,1.8891681E3,-1.7718314E4,-6.6869175E3,1.3670428E4,6.00648E2,8.3033966E2,3.09549E2,9.182887E2,1.8331389E4,6.0022354E3,-3.5243786E1,1.2414412E4,5.7443916E3,7.137416E3,1.5025943E4,-1.8775473E4,-4.2639168E4,3.3401587E2,3.9997861E3,1.731719E3,-9.5453384E1,-4.3833493E2,1.7537799E2,-7.884524E1,-1.9302747E2,-3.488813E4,-2.369135E2,-2.1773885E2,-3.4119226E3,-3.755147E2,-1.2898885E4,2.9170108E2,-1.856205E3,5.4311346E2,1.1572006E3,4.213573E1,4.311643E3,9.8496605E1,-9.872593E3,-9.203986E2,-1.298274E4,3.8422742E2,1.313165E3,-2.3370287E2,-5.4486896E2,9.3034874E1,-4.4288657E2,1.5892632E2,4.361664E2,8.903888E3,2.4721133E4,5.270419E1,6.8097783E3,1.1758467E2,3.9605862E2,9.408924E3,3.127384E0,1.3119191E4,-4.9492558E1,1.9245963E2,5.170988E2,-7.2352484E2,-1.0293538E4,-4.5430812E4,-3.1952363E4,3.6531975E3,-2.1404178E2,3.4221697E3,1.0784656E4,1.5339066E3,2.5325896E2,-3.276566E1,-3.7208584E3,1.7178545E2,-5.4183186E1,-1.0884922E3,-2.2974621E4,1.06551E3,-1.4293844E3,-2.4042786E2,2.6468527E2,-5.878773E3,4.564058E2,1.1009049E2,-1.2730159E2,-2.5481205E4,-5.211296E3,5.6102062E1,-1.4117813E2,-8.534542E2,4.8513687E3,7.158382E3,-1.37685E2,8.380905E0,-1.3187069E4,3.9982968E2,-7.2240254E3,1.3627919E1,-4.950295E2,2.78052E3,-1.1134337E3,3.8799045E2,-5.5543637E0,3.8047244E2,7.778039E2,2.044563E2,4.7787823E1,1.20423706E2,3.4908514E2,1.6065215E2,4.4064413E2,-3.60285E1,-4.148286E2,-5.7035205E2,-1.1623202E3,-3.9319443E2,-8.7147034E2,3.6847157E1,1.9881769E2,9.910994E1,-9.610482E1,4.2059274E2,9.275634E1,4.2855682E1,-1.1098409E2,1.2266155E1,-2.2894018E1,1.7947525E1,-1.9048991E2,-4.3675146E0,4.4002235E1,-7.3973987E2,-2.883094E2,6.9183975E1,-8.601634E0,-5.1433033E1,-1.2688614E1,-6.840595E0,9.7514885E1,-1.1225954E2,-4.064797E2,1.223105E2,-1.7058182E2,-9.079714E2,-2.3733875E2,3.1858442E1,-3.0371613E2,7.907079E0,-5.4787807E1,2.3523572E2,-3.3283596E1,1.2522064E2,3.1607574E2,-7.5822105E1,2.9217502E2,-4.9850925E2,-1.09082634E2,-8.8365654E1,3.267203E1,-5.757674E1,-4.488215E2,-8.690609E1,1.2204115E2,1.4927646E2,-9.352575E1],"categories":[],"categories_nodes":[],"categories_segments":[],"categories_sizes":[],"default_left":[0,0,0,0,0,0,0,0,0,0,0,0,0,0,0,0,0,0,0,0,0,0,0,0,0,0,0,0,0,0,0,0,0,0,0,0,0,0,0,0,0,0,0,0,0,0,0,0,0,0,0,0,0,0,0,0,0,0,0,0,0,0,0,0,0,0,0,0,0,0,0,0,0,0,0,0,0,0,0,0,0,0,0,0,0,0,0,0,0,0,0,0,0,0,0,0,0,0,0,0,0,0,0,0,0,0,0,0,0,0,0,0,0,0,0,0,0,0,0,0,0,0,0,0,0,0,0,0,0,0,0,0,0,0,0,0,0,0,0,0,0,0,0,0,0,0,0,0,0,0,0,0,0,0,0,0,0,0,0,0,0,0,0,0,0,0,0,0,0,0,0,0,0,0,0,0,0,0,0,0,0,0,0,0,0,0,0,0,0,0,0,0,0,0,0,0,0,0,0,0,0,0,0,0,0,0,0,0,0,0,0,0,0,0,0,0,0,0,0,0,0,0,0,0,0,0,0,0,0,0,0,0,0,0,0,0,0,0,0,0,0,0,0,0,0,0,0,0,0,0,0,0,0,0,0,0,0,0,0,0,0,0,0,0,0,0,0,0,0,0,0,0,0,0,0,0,0,0,0,0,0,0,0,0,0,0,0,0,0,0,0,0,0,0,0,0,0,0,0,0,0,0,0,0,0,0,0,0,0,0,0,0,0,0,0,0,0,0,0],"id":6,"left_children":[1,3,5,7,9,11,13,15,-1,17,19,21,23,-1,25,27,29,31,-1,33,35,37,39,41,43,45,47,49,-1,51,-1,53,55,-1,-1,-1,-1,57,59,61,63,-1,65,67,69,71,-1,73,-1,75,-1,77,79,81,83,85,87,89,91,93,-1,95,-1,97,99,-1,101,103,105,-1,-1,-1,107,109,111,113,-1,-1,-1,115,117,119,121,123,125,-1,-1,127,-1,129,-1,131,-1,133,-1,135,137,139,141,143,145,-1,-1,147,149,151,153,155,-1,-1,-1,-1,-1,-1,157,159,-1,-1,161,163,165,-1,-1,-1,-1,-1,167,-1,-1,169,-1,-1,-1,-1,-1,-1,171,173,-1,175,-1,177,179,181,-1,183,-1,185,187,189,-1,-1,191,193,195,197,199,201,-1,-1,-1,-1,203,205,-1,207,209,211,213,215,217,219,221,223,-1,225,-1,-1,227,229,231,233,235,237,239,-1,241,-1,-1,243,245,-1,247,249,251,-1,253,-1,-1,-1,-1,-1,-1,255,257,-1,259,-1,-1,261,-1,263,-1,-1,-1,-1,265,267,269,271,-1,273,275,277,-1,279,281,283,-1,-1,285,287,289,291,-1,293,295,-1,-1,297,299,-1,-1,301,303,305,307,-1,309,311,313,-1,-1,315,317,-1,-1,-1,-1,-1,-1,-1,-1,-1,-1,-1,-1,-1,-1,-1,-1,-1,-1,-1,-1,-1,-1,-1,-1,-1,-1,-1,-1,-1,-1,-1,-1,-1,-1,-1,-1,-1,-1,-1,-1,-1,-1,-1,-1,-1,-1,-1,-1,-1,-1,-1,-1,-1,-1,-1,-1,-1,-1,-1,-1,-1,-1,-1,-1],"loss_changes":[9.6681886E10,1.6499548E10,3.1997858E10,7.3542697E9,3.1363543E9,4.6283207E10,8.012554E9,4.5515E9,0E0,5.9845386E9,1.4343657E9,1.8095568E11,4.401403E11,0E0,6.1496566E9,5.089542E9,6.633554E9,1.6337695E9,0E0,2.3058803E8,1.53323E9,9.584157E10,9.74251E9,1.5493867E11,1.1543448E10,4.3434957E9,1.7825423E9,3.34276E9,0E0,4.1393193E9,0E0,3.6457124E9,3.8625075E9,0E0,0E0,0E0,0E0,7.110389E10,2.8704821E10,3.628735E9,6.63704E9,0E0,3.155519E10,6.8743127E9,6.8012646E8,4.6761124E9,0E0,3.6400538E9,0E0,1.6974377E9,0E0,1.4558605E9,3.8293012E9,1.6221645E9,4.394801E9,2.1033011E9,3.3822047E9,4.6455914E10,1.020193E10,5.53698E9,0E0,1.5869338E9,0E0,1.8936922E10,4.7895347E9,0E0,5.0766316E9,1.3713951E10,6.344706E9,0E0,0E0,0E0,2.521894E9,1.0760151E9,2.4131543E9,3.002986E9,0E0,0E0,0E0,2.7880202E9,1.9958088E9,4.7089715E8,1.2565655E9,2.0493711E9,1.030591E9,0E0,0E0,2.3564874E9,0E0,4.5869826E10,0E0,1.9730392E8,0E0,5.371167E8,0E0,1.0228055E9,1.3078724E9,6.4161E8,1.8274228E10,2.880742E9,3.2208876E9,0E0,0E0,1.4235984E10,3.0184374E9,3.5988598E9,2.749234E9,1.2616223E9,0E0,0E0,0E0,0E0,0E0,0E0,2.7461222E8,1.7053696E9,0E0,0E0,4.9398866E9,4.9323405E8,6.773043E8,0E0,0E0,0E0,0E0,0E0,8.404009E8,0E0,0E0,1.7201627E10,0E0,0E0,0E0,0E0,0E0,0E0,5.9494656E8,4.4444186E8,0E0,9.032249E8,0E0,9.65145E7,3.4139238E10,2.8163648E9,0E0,2.3571364E9,0E0,1.4021236E9,2.1996462E9,1.8238735E9,0E0,0E0,2.0161866E9,3.9798715E9,3.026606E9,5.820191E8,2.8867773E9,4.9622272E8,0E0,0E0,0E0,0E0,3.7162844E9,1.379529E8,0E0,7.232599E8,8.831058E8,2.0152602E9,1.0911539E9,3.0255667E9,4.0480276E9,1.6274541E9,1.3213691E9,8.610693E8,0E0,4.9632758E8,0E0,0E0,5.548364E7,4.8020275E9,8.380736E7,1.6378451E9,2.753631E9,5.4074944E8,5.731537E9,0E0,3.6731018E8,0E0,0E0,1.1798121E9,2.0158774E9,0E0,1.3960197E9,2.6439227E9,2.7887544E9,0E0,1.3628116E9,0E0,0E0,0E0,0E0,0E0,0E0,1.878539E9,1.4821724E9,0E0,2.5696973E8,0E0,0E0,4.0924365E8,0E0,4.37056E8,0E0,0E0,0E0,0E0,1.4021064E9,2.2020096E9,1.4970716E9,3.5135606E8,0E0,1.3346271E9,1.028672E9,5.8285414E8,0E0,1.5526344E8,7.2046816E8,3.693643E7,0E0,0E0,1.739608E9,6.4275296E7,1.411964E7,9.1600205E8,0E0,2.390506E9,3.748139E9,0E0,0E0,3.2955884E9,1.8756801E9,0E0,0E0,3.62942E8,1.236845E9,1.0169339E9,2.2619192E9,0E0,1.6732631E9,9.513898E8,2.8210926E9,0E0,0E0,3.162746E9,2.7438776E9,0E0,0E0,0E0,0E0,0E0,0E0,0E0,0E0,0E0,0E0,0E0,0E0,0E0,0E0,0E0,0E0,0E0,0E0,0E0,0E0,0E0,0E0,0E0,0E0,0E0,0E0,0E0,0E0,0E0,0E0,0E0,0E0,0E0,0E0,0E0,0E0,0E0,0E0,0E0,0E0,0E0,0E0,0E0,0E0,0E0,0E0,0E0,0E0,0E0,0E0,0E0,0E0,0E0,0E0,0E0,0E0,0E0,0E0,0E0,0E0,0E0,0E0,0E0,0E0],"parents":[2147483647,0,0,1,1,2,2,3,3,4,4,5,5,6,6,7,7,9,9,10,10,11,11,12,12,14,14,15,15,16,16,17,17,19,19,20,20,21,21,22,22,23,23,24,24,25,25,26,26,27,27,29,29,31,31,32,32,37,37,38,38,39,39,40,40,42,42,43,43,44,44,45,45,47,47,49,49,51,51,52,52,53,53,54,54,55,55,56,56,57,57,58,58,59,59,61,61,63,63,64,64,66,66,67,67,68,68,72,72,73,73,74,74,75,75,79,79,80,80,81,81,82,82,83,83,84,84,87,87,89,89,91,91,93,93,95,95,96,96,97,97,98,98,99,99,100,100,103,103,104,104,105,105,106,106,107,107,114,114,115,115,118,118,119,119,120,120,126,126,129,129,136,136,137,137,139,139,141,141,142,142,143,143,145,145,147,147,148,148,149,149,152,152,153,153,154,154,155,155,156,156,157,157,162,162,163,163,165,165,166,166,167,167,168,168,169,169,170,170,171,171,172,172,173,173,175,175,178,178,179,179,180,180,181,181,182,182,183,183,184,184,186,186,189,189,190,190,192,192,193,193,194,194,196,196,203,203,204,204,206,206,209,209,211,211,216,216,217,217,218,218,219,219,221,221,222,222,223,223,225,225,226,226,227,227,230,230,231,231,232,232,233,233,235,235,236,236,239,239,240,240,243,243,244,244,245,245,246,246,248,248,249,249,250,250,253,253,254,254],"right_children":[2,4,6,8,10,12,14,16,-1,18,20,22,24,-1,26,28,30,32,-1,34,36,38,40,42,44,46,48,50,-1,52,-1,54,56,-1,-1,-1,-1,58,60,62,64,-1,66,68,70,72,-1,74,-1,76,-1,78,80,82,84,86,88,90,92,94,-1,96,-1,98,100,-1,102,104,106,-1,-1,-1,108,110,112,114,-1,-1,-1,116,118,120,122,124,126,-1,-1,128,-1,130,-1,132,-1,134,-1,136,138,140,142,144,146,-1,-1,148,150,152,154,156,-1,-1,-1,-1,-1,-1,158,160,-1,-1,162,164,166,-1,-1,-1,-1,-1,168,-1,-1,170,-1,-1,-1,-1,-1,-1,172,174,-1,176,-1,178,180,182,-1,184,-1,186,188,190,-1,-1,192,194,196,198,200,202,-1,-1,-1,-1,204,206,-1,208,210,212,214,216,218,220,222,224,-1,226,-1,-1,228,230,232,234,236,238,240,-1,242,-1,-1,244,246,-1,248,250,252,-1,254,-1,-1,-1,-1,-1,-1,256,258,-1,260,-1,-1,262,-1,264,-1,-1,-1,-1,266,268,270,272,-1,274,276,278,-1,280,282,284,-1,-1,286,288,290,292,-1,294,296,-1,-1,298,300,-1,-1,302,304,306,308,-1,310,312,314,-1,-1,316,318,-1,-1,-1,-1,-1,-1,-1,-1,-1,-1,-1,-1,-1,-1,-1,-1,-1,-1,-1,-1,-1,-1,-1,-1,-1,-1,-1,-1,-1,-1,-1,-1,-1,-1,-1,-1,-1,-1,-1,-1,-1,-1,-1,-1,-1,-1,-1,-1,-1,-1,-1,-1,-1,-1,-1,-1,-1,-1,-1,-1,-1,-1,-1,-1],"split_conditions":[-1.118E4,-2.35E4,3.92E4,6.990905E4,1.976E3,1E0,5.806935E4,1.999E3,-1.6167662E2,1.732E3,1.0681175E5,1.991E3,1.991E3,1.5214995E2,3.4299484E4,2.9396848E4,4.6195E4,1.875E5,7.1072595E2,1.08335E4,1.17036E3,1E0,-3.243E3,1.583E1,4.2769266E5,1.141953E4,3.147725E5,2.3982451E4,-1.914036E2,9.1529E4,6.9319275E1,9.0667E4,2.307114E5,6.180525E1,2.3180925E2,5.8150814E1,-2.8779294E2,1E0,5.74044E3,3.5978875E4,2.6781523E1,3.6074343E3,4.5256E2,1.25299E5,4.298424E4,1.995E3,7.3764175E1,2.5471E5,-2.7429327E2,1.936597E4,6.864445E2,1.784E1,1.20253E5,2.009E3,1.11599E5,-1.7857E4,3.0626336E4,1E0,1.522E3,1.732E3,1.2801033E3,-5.998E3,4.6613965E2,1.992E3,1.99328E5,2.4707048E2,5.398E3,2.6781523E1,7.51E0,-6.55018E2,-2.861119E2,-7.3918427E2,1.63916E5,1.5063125E5,3.565E3,6.08E2,-2.1122435E1,4.3823907E2,5.2833168E1,2.007E3,2.16E2,4.1445855E4,5.8544E4,9.8884E4,2.071E2,-3.4291187E2,5.76133E1,3.13645E5,5.410778E2,1E0,3.7128946E2,1.323E2,7.3429913E2,1.02E3,4.5745044E2,2.287E1,1E0,1.65605E5,6.8514E4,5.1508484E4,1E0,1.0585107E3,1.9809229E3,1.992E3,1.4236733E5,1.0358193E4,1.71851E5,7.88E2,2.610951E1,-5.545743E2,-1.870595E2,-1.1545258E3,-5.0151715E2,-8.261817E0,8.52907E3,2.2580877E4,1.2859152E3,1.7256877E2,6.08E2,1.1054578E4,4.9667E4,1.2193738E2,-2.2025566E2,3.3322403E2,8.953756E2,4.0309776E1,1.711E1,2.736969E2,-1.5042854E2,1.226E1,3.237944E2,-1.3688972E2,1.1382026E1,-5.4899654E1,-3.1219745E2,2.9527963E2,2.646E2,1.7073E5,-1.6640796E2,1E0,1.7570337E2,6.085E0,7.1253E4,1.3033E4,3.1709103E2,2.524E3,1.4788863E2,1.0226E2,1.3883E3,4.359E3,4.431921E2,-6.521461E2,4.22E2,1.6120973E5,1.76E5,1.22997664E5,1.622E3,1.4068377E4,6.00648E2,8.3033966E2,3.09549E2,9.182887E2,1.9164508E5,1.7593E4,-3.5243786E1,5.2488E4,2.0086666E1,1.57177E5,5.58781E3,6.18E2,1E0,1.0358193E4,1.54867E5,1.64151E5,-9.5453384E1,1E0,1.7537799E2,-7.884524E1,3.2351E4,7E2,2.388889E1,1.95E5,2.21E1,2.04781E5,1.024994E4,2.9170108E2,9.1489E4,5.4311346E2,1.1572006E3,1.04158E5,1.5476E4,9.8496605E1,2E3,1.225E4,1.1677961E4,3.8422742E2,2.766912E4,-2.3370287E2,-5.4486896E2,9.3034874E1,-4.4288657E2,1.5892632E2,4.361664E2,2.846138E4,2.007E3,5.270419E1,2.61E4,1.1758467E2,3.9605862E2,7.88E2,3.127384E0,1.24833586E5,-4.9492558E1,1.9245963E2,5.170988E2,-7.2352484E2,9.83072E3,8.3E1,1.695E1,2.007E3,-2.1404178E2,1.131E5,1.71851E5,1.2381E5,2.5325896E2,1.414E3,1.292E3,2.32303E4,-5.4183186E1,-1.0884922E3,2.38847E3,3.1185E4,1.02158E5,1E0,2.6468527E2,1.8498334E4,2.007E3,1.1009049E2,-1.2730159E2,4.359E3,2.005E3,5.6102062E1,-1.4117813E2,6.1828668E4,6.06E2,2.004E3,3.0027E4,8.380905E0,1.67E3,3.1574E2,2.009E3,1.3627919E1,-4.950295E2,2.524E3,3.134E3,3.8799045E2,-5.5543637E0,3.8047244E2,7.778039E2,2.044563E2,4.7787823E1,1.20423706E2,3.4908514E2,1.6065215E2,4.4064413E2,-3.60285E1,-4.148286E2,-5.7035205E2,-1.1623202E3,-3.9319443E2,-8.7147034E2,3.6847157E1,1.9881769E2,9.910994E1,-9.610482E1,4.2059274E2,9.275634E1,4.2855682E1,-1.1098409E2,1.2266155E1,-2.2894018E1,1.7947525E1,-1.9048991E2,-4.3675146E0,4.4002235E1,-7.3973987E2,-2.883094E2,6.9183975E1,-8.601634E0,-5.1433033E1,-1.2688614E1,-6.840595E0,9.7514885E1,-1.1225954E2,-4.064797E2,1.223105E2,-1.7058182E2,-9.079714E2,-2.3733875E2,3.1858442E1,-3.0371613E2,7.907079E0,-5.4787807E1,2.3523572E2,-3.3283596E1,1.2522064E2,3.1607574E2,-7.5822105E1,2.9217502E2,-4.9850925E2,-1.09082634E2,-8.8365654E1,3.267203E1,-5.757674E1,-4.488215E2,-8.690609E1,1.2204115E2,1.4927646E2,-9.352575E1],"split_indices":[13,13,13,9,1,119,8,0,0,1,8,0,0,0,9,9,2,12,0,9,2,123,13,3,7,2,8,9,0,6,0,6,8,0,0,0,0,116,2,9,9,0,2,5,9,0,0,12,0,9,0,3,12,0,5,13,9,118,1,1,0,13,0,0,5,0,2,9,3,0,0,0,5,8,2,1,0,0,0,0,1,8,6,7,2,0,0,12,0,125,0,2,0,1,0,2,125,5,5,9,57,0,0,0,8,9,6,1,0,0,0,0,0,0,2,9,0,0,1,9,12,0,0,0,0,0,3,0,0,3,0,0,0,0,0,0,2,12,0,125,0,3,5,13,0,2,0,2,2,13,0,0,13,8,6,7,1,9,0,0,0,0,8,6,0,5,3,5,2,1,120,9,5,6,0,123,0,0,6,1,3,6,3,6,2,0,5,0,0,12,13,0,0,13,9,0,9,0,0,0,0,0,0,9,0,0,12,0,0,1,0,8,0,0,0,0,2,1,3,0,0,6,6,12,0,1,1,8,0,0,2,2,5,73,0,9,0,0,0,13,0,0,0,7,13,0,13,0,2,2,0,0,0,2,2,0,0,0,0,0,0,0,0,0,0,0,0,0,0,0,0,0,0,0,0,0,0,0,0,0,0,0,0,0,0,0,0,0,0,0,0,0,0,0,0,0,0,0,0,0,0,0,0,0,0,0,0,0,0,0,0,0,0,0,0,0,0,0,0],"split_type":[0,0,0,0,0,0,0,0,0,0,0,0,0,0,0,0,0,0,0,0,0,0,0,0,0,0,0,0,0,0,0,0,0,0,0,0,0,0,0,0,0,0,0,0,0,0,0,0,0,0,0,0,0,0,0,0,0,0,0,0,0,0,0,0,0,0,0,0,0,0,0,0,0,0,0,0,0,0,0,0,0,0,0,0,0,0,0,0,0,0,0,0,0,0,0,0,0,0,0,0,0,0,0,0,0,0,0,0,0,0,0,0,0,0,0,0,0,0,0,0,0,0,0,0,0,0,0,0,0,0,0,0,0,0,0,0,0,0,0,0,0,0,0,0,0,0,0,0,0,0,0,0,0,0,0,0,0,0,0,0,0,0,0,0,0,0,0,0,0,0,0,0,0,0,0,0,0,0,0,0,0,0,0,0,0,0,0,0,0,0,0,0,0,0,0,0,0,0,0,0,0,0,0,0,0,0,0,0,0,0,0,0,0,0,0,0,0,0,0,0,0,0,0,0,0,0,0,0,0,0,0,0,0,0,0,0,0,0,0,0,0,0,0,0,0,0,0,0,0,0,0,0,0,0,0,0,0,0,0,0,0,0,0,0,0,0,0,0,0,0,0,0,0,0,0,0,0,0,0,0,0,0,0,0,0,0,0,0,0,0,0,0,0,0,0,0,0,0,0,0,0,0,0,0,0,0,0,0,0,0,0,0,0,0,0,0,0,0,0],"sum_hessian":[1.1261E4,6.61E2,1.06E4,2.67E2,3.94E2,1.0424E4,1.76E2,2.56E2,1.1E1,3.43E2,5.1E1,9.036E3,1.388E3,1.7E1,1.59E2,8.2E1,1.74E2,3.3E2,1.3E1,2.2E1,2.9E1,3.9E2,8.646E3,7.4E1,1.314E3,9.7E1,6.2E1,7.2E1,1E1,1.57E2,1.7E1,2.58E2,7.2E1,1.2E1,1E1,1.6E1,1.3E1,3.43E2,4.7E1,9.97E2,7.649E3,2.3E1,5.1E1,1.291E3,2.3E1,7.9E1,1.8E1,4.9E1,1.3E1,5.6E1,1.6E1,2.4E1,1.33E2,1.56E2,1.02E2,3E1,4.2E1,3.06E2,3.7E1,3.1E1,1.6E1,9.85E2,1.2E1,5.96E2,7.053E3,1.8E1,3.3E1,4.93E2,7.98E2,1.2E1,1.1E1,1.4E1,6.5E1,2.5E1,2.4E1,4.6E1,1E1,1.2E1,1.2E1,3.4E1,9.9E1,1.33E2,2.3E1,2.2E1,8E1,1.3E1,1.7E1,2.9E1,1.3E1,2.88E2,1.8E1,2E1,1.7E1,2.1E1,1E1,4.19E2,5.66E2,3.97E2,1.99E2,