{"learner":{"attributes":{"scikit_learn":"{\"_estimator_type\": \"classifier\"}"},"feature_names":[],"feature_types":[],"gradient_booster":{"model":{"cats":{"enc":[],"feature_segments":[],"sorted_idx":[]},"gbtree_model_param":{"num_parallel_tree":"1","num_trees":"600"},"iteration_indptr":[0,1,2,3,4,5,6,7,8,9,10,11,12,13,14,15,16,17,18,19,20,21,22,23,24,25,26,27,28,29,30,31,32,33,34,35,36,37,38,39,40,41,42,43,44,45,46,47,48,49,50,51,52,53,54,55,56,57,58,59,60,61,62,63,64,65,66,67,68,69,70,71,72,73,74,75,76,77,78,79,80,81,82,83,84,85,86,87,88,89,90,91,92,93,94,95,96,97,98,99,100,101,102,103,104,105,106,107,108,109,110,111,112,113,114,115,116,117,118,119,120,121,122,123,124,125,126,127,128,129,130,131,132,133,134,135,136,137,138,139,140,141,142,143,144,145,146,147,148,149,150,151,152,153,154,155,156,157,158,159,160,161,162,163,164,165,166,167,168,169,170,171,172,173,174,175,176,177,178,179,180,181,182,183,184,185,186,187,188,189,190,191,192,193,194,195,196,197,198,199,200,201,202,203,204,205,206,207,208,209,210,211,212,213,214,215,216,217,218,219,220,221,222,223,224,225,226,227,228,229,230,231,232,233,234,235,236,237,238,239,240,241,242,243,244,245,246,247,248,249,250,251,252,253,254,255,256,257,258,259,260,261,262,263,264,265,266,267,268,269,270,271,272,273,274,275,276,277,278,279,280,281,282,283,284,285,286,287,288,289,290,291,292,293,294,295,296,297,298,299,300,301,302,303,304,305,306,307,308,309,310,311,312,313,314,315,316,317,318,319,320,321,322,323,324,325,326,327,328,329,330,331,332,333,334,335,336,337,338,339,340,341,342,343,344,345,346,347,348,349,350,351,352,353,354,355,356,357,358,359,360,361,362,363,364,365,366,367,368,369,370,371,372,373,374,375,376,377,378,379,380,381,382,383,384,385,386,387,388,389,390,391,392,393,394,395,396,397,398,399,400,401,402,403,404,405,406,407,408,409,410,411,412,413,414,415,416,417,418,419,420,421,422,423,424,425,426,427,428,429,430,431,432,433,434,435,436,437,438,439,440,441,442,443,444,445,446,447,448,449,450,451,452,453,454,455,456,457,458,459,460,461,462,463,464,465,466,467,468,469,470,471,472,473,474,475,476,477,478,479,480,481,482,483,484,485,486,487,488,489,490,491,492,493,494,495,496,497,498,499,500,501,502,503,504,505,506,507,508,509,510,511,512,513,514,515,516,517,518,519,520,521,522,523,524,525,526,527,528,529,530,531,532,533,534,535,536,537,538,539,540,541,542,543,544,545,546,547,548,549,550,551,552,553,554,555,556,557,558,559,560,561,562,563,564,565,566,567,568,569,570,571,572,573,574,575,576,577,578,579,580,581,582,583,584,585,586,587,588,589,590,591,592,593,594,595,596,597,598,599,600],"tree_info":[0,0,0,0,0,0,0,0,0,0,0,0,0,0,0,0,0,0,0,0,0,0,0,0,0,0,0,0,0,0,0,0,0,0,0,0,0,0,0,0,0,0,0,0,0,0,0,0,0,0,0,0,0,0,0,0,0,0,0,0,0,0,0,0,0,0,0,0,0,0,0,0,0,0,0,0,0,0,0,0,0,0,0,0,0,0,0,0,0,0,0,0,0,0,0,0,0,0,0,0,0,0,0,0,0,0,0,0,0,0,0,0,0,0,0,0,0,0,0,0,0,0,0,0,0,0,0,0,0,0,0,0,0,0,0,0,0,0,0,0,0,0,0,0,0,0,0,0,0,0,0,0,0,0,0,0,0,0,0,0,0,0,0,0,0,0,0,0,0,0,0,0,0,0,0,0,0,0,0,0,0,0,0,0,0,0,0,0,0,0,0,0,0,0,0,0,0,0,0,0,0,0,0,0,0,0,0,0,0,0,0,0,0,0,0,0,0,0,0,0,0,0,0,0,0,0,0,0,0,0,0,0,0,0,0,0,0,0,0,0,0,0,0,0,0,0,0,0,0,0,0,0,0,0,0,0,0,0,0,0,0,0,0,0,0,0,0,0,0,0,0,0,0,0,0,0,0,0,0,0,0,0,0,0,0,0,0,0,0,0,0,0,0,0,0,0,0,0,0,0,0,0,0,0,0,0,0,0,0,0,0,0,0,0,0,0,0,0,0,0,0,0,0,0,0,0,0,0,0,0,0,0,0,0,0,0,0,0,0,0,0,0,0,0,0,0,0,0,0,0,0,0,0,0,0,0,0,0,0,0,0,0,0,0,0,0,0,0,0,0,0,0,0,0,0,0,0,0,0,0,0,0,0,0,0,0,0,0,0,0,0,0,0,0,0,0,0,0,0,0,0,0,0,0,0,0,0,0,0,0,0,0,0,0,0,0,0,0,0,0,0,0,0,0,0,0,0,0,0,0,0,0,0,0,0,0,0,0,0,0,0,0,0,0,0,0,0,0,0,0,0,0,0,0,0,0,0,0,0,0,0,0,0,0,0,0,0,0,0,0,0,0,0,0,0,0,0,0,0,0,0,0,0,0,0,0,0,0,0,0,0,0,0,0,0,0,0,0,0,0,0,0,0,0,0,0,0,0,0,0,0,0,0,0,0,0,0,0,0,0,0,0,0,0,0,0,0,0,0,0,0,0,0,0,0,0,0,0,0,0,0,0,0,0,0,0,0,0,0,0,0,0,0,0,0,0,0,0,0,0,0,0,0,0,0,0,0,0,0,0,0,0,0,0,0,0,0,0,0,0,0,0,0,0,0,0,0,0,0,0,0,0,0,0,0,0,0,0,0,0],"trees":[{"base_weights":[-9.8186005E-3,-1.7867202E0,1.1494753E0,-1.9216042E0,-4.2881182E-1,-1.7069874E0,1.6884052E0,-1.6320177E0,-9.997745E-2,6.437343E-1,-9.956237E-2,-9.991504E-2,-6.6558665E-1,1.3221207E0,1.8765376E0,-9.98941E-2,-2.795108E-1,-9.874608E-2,1.4617277E0,1.3227177E0,-9.949749E-2,-2.8600448E-1,1.5880666E0,1.3197075E0,1.8942783E0,-9.930796E-2,1.9027702E0,-7.828781E-2,1.908767E0,1.7062132E0,-9.3220346E-2,9.479597E-1,-9.938462E-2,1.7348573E0,3.013711E-1,-9.375E-2,1.6492505E0,1.8969487E0,-7.777778E-2,-6.666667E-2,9.865028E-2,-9.6747965E-2,9.6487656E-2,9.6433975E-2,-5E-2,9.644078E-2,-8.709677E-2,-9.819005E-2,9.4414264E-2,8.845656E-2,-9.5E-2,9.784722E-2,-9.9012345E-2,9.165827E-2,-8.7878786E-2,9.6777014E-2,8.736043E-2],"categories":[],"categories_nodes":[],"categories_segments":[],"categories_sizes":[],"default_left":[0,0,0,0,0,0,0,0,0,0,0,0,0,0,0,0,0,0,0,0,0,0,0,0,0,0,0,0,0,0,0,0,0,0,0,0,0,0,0,0,0,0,0,0,0,0,0,0,0,0,0,0,0,0,0,0,0],"id":0,"left_children":[1,3,5,7,9,11,13,15,-1,17,-1,-1,19,21,23,-1,25,-1,27,29,-1,31,33,35,37,-1,39,41,43,45,-1,47,-1,49,51,-1,53,55,-1,-1,-1,-1,-1,-1,-1,-1,-1,-1,-1,-1,-1,-1,-1,-1,-1,-1,-1],"loss_changes":[3.230521E4,1.1332852E3,1.4613045E4,1.2386133E2,9.4100793E2,4.5581934E2,5.477461E2,5.931848E2,0E0,7.1676135E2,0E0,0E0,8.739281E2,1.1606802E3,4.958789E1,0E0,9.5958344E2,0E0,1.753717E2,1.6559828E2,0E0,8.120502E2,4.39187E2,1.7796664E2,5.0003906E1,0E0,2.8344818E1,2.2079774E2,1.3356262E1,9.480307E1,0E0,6.1791345E2,0E0,2.636665E2,9.089559E2,0E0,9.789917E1,2.6115234E1,0E0,0E0,0E0,0E0,0E0,0E0,0E0,0E0,0E0,0E0,0E0,0E0,0E0,0E0,0E0,0E0,0E0,0E0,0E0],"parents":[2147483647,0,0,1,1,2,2,3,3,4,4,5,5,6,6,7,7,9,9,12,12,13,13,14,14,16,16,18,18,19,19,21,21,22,22,23,23,24,24,26,26,27,27,28,28,29,29,31,31,33,33,34,34,36,36,37,37],"right_children":[2,4,6,8,10,12,14,16,-1,18,-1,-1,20,22,24,-1,26,-1,28,30,-1,32,34,36,38,-1,40,42,44,46,-1,48,-1,50,52,-1,54,56,-1,-1,-1,-1,-1,-1,-1,-1,-1,-1,-1,-1,-1,-1,-1,-1,-1,-1,-1],"split_conditions":[1.8830721E-1,1.6798599E-1,8.5501776E2,-3.5947207E-1,-8.729291E-1,5.5110315E2,1.001989E1,-4.6896538E-1,-9.997745E-2,1.6642334E3,-9.956237E-2,-9.991504E-2,2.831333E-1,2.4297322E-1,2.0057513E-1,-9.98941E-2,8.584049E0,-9.874608E-2,-9.449688E-1,8.334749E-2,-9.949749E-2,-4.6896538E-1,6.258885E-1,-4.9906868E-1,2.686188E3,-9.930796E-2,1.0689481E-1,1.163829E1,7.07107E-1,7.9710144E-1,-9.3220346E-2,-4.9906868E-1,-9.938462E-2,9.6825075E-1,1.9864802E-1,-9.375E-2,5.0835645E-1,8.5227484E-1,-7.777778E-2,-6.666667E-2,9.865028E-2,-9.6747965E-2,9.6487656E-2,9.6433975E-2,-5E-2,9.644078E-2,-8.709677E-2,-9.819005E-2,9.4414264E-2,8.845656E-2,-9.5E-2,9.784722E-2,-9.9012345E-2,9.165827E-2,-8.7878786E-2,9.6777014E-2,8.736043E-2],"split_indices":[6,6,3,11,12,3,0,11,0,3,0,0,4,6,6,0,0,0,12,2,0,11,12,11,4,0,6,0,8,11,0,11,0,11,11,0,11,12,0,0,0,0,0,0,0,0,0,0,0,0,0,0,0,0,0,0,0],"split_type":[0,0,0,0,0,0,0,0,0,0,0,0,0,0,0,0,0,0,0,0,0,0,0,0,0,0,0,0,0,0,0,0,0,0,0,0,0,0,0,0,0,0,0,0,0,0,0,0,0,0,0,0,0,0,0,0,0],"sum_hessian":[1.5680515E4,6.190902E3,9.489612E3,5.631134E3,5.59768E2,1.505884E3,7.9837285E3,1.198884E3,4.43225E3,3.32268E2,2.275E2,1.176E3,3.29884E2,2.7118723E3,5.2718564E3,9.4325E2,2.55634E2,7.875E1,2.5351802E2,1.31884E2,1.98E2,3.8482602E2,2.3270461E3,1.6510501E2,5.1067515E3,1.435E2,1.1213401E2,5.7221E1,1.9629701E2,1.1813401E2,1.375E1,2.2332602E2,1.615E2,2.0884412E3,2.3860501E2,1.5E1,1.5010501E2,5.1032515E3,3.5E0,2E0,1.1013401E2,2.975E1,2.7471003E1,1.9529701E2,1E0,1.1138401E2,6.75E0,5.425E1,1.6907602E2,2.0694412E3,1.9E1,1.3835501E2,1.0025E2,1.4285501E2,7.25E0,4.0480454E3,1.055206E3],"tree_param":{"num_deleted":"0","num_feature":"13","num_nodes":"57","size_leaf_vector":"1"}},{"base_weights":[4.415241E-3,-1.7576187E0,1.6948894E0,-9.52573E-2,-9.244103E-1,1.0408891E0,1.7247863E0,3.6256988E-2,-9.558803E-2,-9.303921E-2,1.4166718E0,1.7900642E0,1.4755384E0,-9.5311195E-2,1.8219409E0,1.6445755E0,-9.094156E-2,1.690404E0,1.8484257E0,1.8600564E0,1.1125461E0,1.6282234E0,9.459776E-2,1.7165198E0,-8.433276E-2,1.7208794E0,-9.1364615E-2,1.8506342E0,-6.660949E-2,-8.9163184E-2,9.4767176E-2,2.686735E-1,1.6783035E0,9.242981E-2,-7.997525E-2,-7.398549E-2,8.789772E-2,8.929688E-2,6.817381E-2,8.61352E-2,9.313739E-2,7.310043E-2,-9.7428374E-2,-8.701014E-2,8.653452E-2],"categories":[],"categories_nodes":[],"categories_segments":[],"categories_sizes":[],"default_left":[0,0,0,0,0,0,0,0,0,0,0,0,0,0,0,0,0,0,0,0,0,0,0,0,0,0,0,0,0,0,0,0,0,0,0,0,0,0,0,0,0,0,0,0,0],"id":1,"left_children":[1,3,5,-1,7,9,11,13,-1,-1,15,17,19,-1,21,23,-1,25,27,29,31,33,-1,35,-1,37,-1,39,-1,-1,-1,41,43,-1,-1,-1,-1,-1,-1,-1,-1,-1,-1,-1,-1],"loss_changes":[4.708101E4,9.495488E2,1.5593164E2,0E0,1.1061465E3,3.8990857E2,1.2284766E2,2.0570046E3,0E0,0E0,2.3527551E2,3.2396484E1,2.221477E2,0E0,1.1099854E0,7.354974E1,0E0,2.4620312E2,2.944629E1,1.0347705E2,3.952505E2,6.640416E1,0E0,4.0884216E1,0E0,4.9842285E1,0E0,2.7392578E0,0E0,0E0,0E0,8.861576E2,9.183472E1,0E0,0E0,0E0,0E0,0E0,0E0,0E0,0E0,0E0,0E0,0E0,0E0],"parents":[2147483647,0,0,1,1,2,2,4,4,5,5,6,6,7,7,10,10,11,11,12,12,14,14,15,15,17,17,18,18,19,19,20,20,21,21,23,23,25,25,27,27,31,31,32,32],"right_children":[2,4,6,-1,8,10,12,14,-1,-1,16,18,20,-1,22,24,-1,26,28,30,32,34,-1,36,-1,38,-1,40,-1,-1,-1,42,44,-1,-1,-1,-1,-1,-1,-1,-1,-1,-1,-1,-1],"split_conditions":[5.397384E2,2.8279077E2,2.0057513E-1,-9.52573E-2,-3.5947207E-1,-4.9906868E-1,5.9710824E-1,-4.8408842E-1,-9.558803E-2,-9.303921E-2,5.0835645E-1,3.0074258E3,2.3224269E-1,-9.5311195E-2,1.6798599E-1,5.7910657E-1,-9.094156E-2,9.6825075E-1,2.686188E3,1.1216178E3,5.027907E-1,6.515345E-1,9.459776E-2,-7.818316E-1,-8.433276E-2,7.9710144E-1,-9.1364615E-2,2.182886E-1,-6.660949E-2,-8.9163184E-2,9.4767176E-2,-4.3388376E-1,6.863194E2,9.242981E-2,-7.997525E-2,-7.398549E-2,8.789772E-2,8.929688E-2,6.817381E-2,8.61352E-2,9.313739E-2,7.310043E-2,-9.7428374E-2,-8.701014E-2,8.653452E-2],"split_indices":[5,5,6,0,11,11,2,11,0,0,11,3,11,0,6,2,0,11,4,5,11,1,0,9,0,11,0,6,0,0,0,9,5,0,0,0,0,0,0,0,0,0,0,0,0],"split_type":[0,0,0,0,0,0,0,0,0,0,0,0,0,0,0,0,0,0,0,0,0,0,0,0,0,0,0,0,0,0,0,0,0,0,0,0,0,0,0,0,0,0,0,0,0],"sum_hessian":[1.5804035E4,7.7382144E3,8.0658213E3,6.5731E3,1.1651144E3,3.5416605E2,7.7116553E3,5.91025E2,5.7408936E2,4.0154457E1,3.140116E2,6.1062495E3,1.6054055E3,2.8305167E2,3.0797333E2,2.9380792E2,2.020366E1,2.266264E3,3.8399856E3,7.77585E2,8.278205E2,8.819859E1,2.1977473E2,2.880712E2,5.736735E0,2.2473054E3,1.895865E1,3.837739E3,2.2466009E0,6.9838333E0,7.706012E2,3.3283914E2,4.9498138E2,8.296166E1,5.2369246E0,3.2424076E0,2.848288E2,1.8978439E3,3.4946143E2,3.4434512E2,3.4933938E3,2.1660265E2,1.1623649E2,6.984589E0,4.879968E2],"tree_param":{"num_deleted":"0","num_feature":"13","num_nodes":"45","size_leaf_vector":"1"}},{"base_weights":[9.096561E-3,-1.6567308E0,1.6212333E0,-9.115558E-2,-6.709224E-1,1.1326588E0,1.6633242E0,2.8362536E-1,-9.139351E-2,-9.269417E-2,1.381278E0,1.7298746E0,1.4158498E0,-9.1078095E-2,8.880156E-2,1.5345893E0,-9.26381E-2,-7.196581E-2,1.7314892E0,1.7921942E0,1.0736758E0,1.5853008E0,-8.424132E-2,1.7322513E0,-5.0549146E-2,9.0577796E-2,-8.0228455E-2,2.5191942E-1,1.6312063E0,8.031947E-2,-7.647229E-2,5.3184707E-2,8.6799115E-2,7.118167E-2,-9.312283E-2,8.3510004E-2,-9.0359844E-2],"categories":[],"categories_nodes":[],"categories_segments":[],"categories_sizes":[],"default_left":[0,0,0,0,0,0,0,0,0,0,0,0,0,0,0,0,0,0,0,0,0,0,0,0,0,0,0,0,0,0,0,0,0,0,0,0,0],"id":2,"left_children":[1,3,5,-1,7,9,11,13,-1,-1,15,17,19,-1,-1,21,-1,-1,23,25,27,29,-1,31,-1,-1,-1,33,35,-1,-1,-1,-1,-1,-1,-1,-1],"loss_changes":[4.2206137E4,1.2665391E3,1.6235742E2,0E0,1.2348948E3,4.7525745E2,1.1862109E2,1.9300981E3,0E0,0E0,2.9451514E2,3.211133E1,1.9940503E2,0E0,0E0,9.4454834E1,0E0,0E0,1.3845703E1,5.177368E1,3.759057E2,3.8845947E1,0E0,1.2583984E1,0E0,0E0,0E0,8.2812646E2,6.8605835E1,0E0,0E0,0E0,0E0,0E0,0E0,0E0,0E0],"parents":[2147483647,0,0,1,1,2,2,4,4,5,5,6,6,7,7,10,10,11,11,12,12,15,15,18,18,19,19,20,20,21,21,23,23,27,27,28,28],"right_children":[2,4,6,-1,8,10,12,14,-1,-1,16,18,20,-1,-1,22,-1,-1,24,26,28,30,-1,32,-1,-1,-1,34,36,-1,-1,-1,-1,-1,-1,-1,-1],"split_conditions":[5.397384E2,3.0243164E2,6.391121E2,-9.115558E-2,-3.5947207E-1,-4.8408842E-1,5.9710824E-1,-4.8408842E-1,-9.139351E-2,-9.269417E-2,7.9710144E-1,6.168508E0,2.3224269E-1,-9.1078095E-2,8.880156E-2,5.7910657E-1,-9.26381E-2,-7.196581E-2,2.786236E3,1.812095E3,5.027907E-1,1E0,-8.424132E-2,-9.721585E-1,-5.0549146E-2,9.0577796E-2,-8.0228455E-2,-4.3388376E-1,9.659258E-1,8.031947E-2,-7.647229E-2,5.3184707E-2,8.6799115E-2,7.118167E-2,-9.312283E-2,8.3510004E-2,-9.0359844E-2],"split_indices":[5,5,5,0,11,11,2,11,0,0,11,0,11,0,0,2,0,0,4,4,11,10,0,1,0,0,0,9,7,0,0,0,0,0,0,0,0],"split_type":[0,0,0,0,0,0,0,0,0,0,0,0,0,0,0,0,0,0,0,0,0,0,0,0,0,0,0,0,0,0,0,0,0,0,0,0,0],"sum_hessian":[1.5714062E4,7.728325E3,7.9857363E3,6.6115967E3,1.1167281E3,6.356185E2,7.350118E3,6.123003E2,5.0442783E2,4.8350513E1,5.87268E2,5.787706E3,1.562412E3,2.5391182E2,3.583885E2,5.6119E2,2.6077995E1,2.4936445E0,5.7852124E3,7.420363E2,8.203756E2,5.5298706E2,8.202942E0,5.7839736E3,1.238801E0,7.3829474E2,3.7416103E0,3.3219626E2,4.8817938E2,5.497492E2,3.2378666E0,3.368798E1,5.7502856E3,2.1395598E2,1.1824029E2,4.8321365E2,4.9657164E0],"tree_param":{"num_deleted":"0","num_feature":"13","num_nodes":"37","size_leaf_vector":"1"}},{"base_weights":[-7.686306E-2,-1.64995E0,8.949673E-1,-1.6824665E0,-4.191111E-1,-1.690333E0,1.4007742E0,-1.4275408E0,-8.753647E-2,1.1256201E0,-8.697796E-2,1.4635228E0,-8.766787E-2,3.2009402E-1,1.4912117E0,-8.749253E-2,-2.3722802E-1,-7.946433E-2,1.6067377E0,8.492314E-2,-6.1878957E-2,1.0818299E0,-8.738358E-2,1.2070906E0,1.64508E0,-8.695198E-2,1.6755071E0,1.7079604E0,-5.5305053E-2,-8.597718E-2,1.3992182E0,-2.549842E-1,1.3732917E0,1.6479284E0,-7.3487334E-2,-5.780774E-2,8.654665E-2,-5.5586994E-2,9.017754E-2,-9.745262E-3,8.416478E-2,4.734168E-2,-8.842207E-2,7.5406805E-2,1.1265459E-2,8.4426284E-2,7.43592E-2],"categories":[],"categories_nodes":[],"categories_segments":[],"categories_sizes":[],"default_left":[0,0,0,0,0,0,0,0,0,0,0,0,0,0,0,0,0,0,0,0,0,0,0,0,0,0,0,0,0,0,0,0,0,0,0,0,0,0,0,0,0,0,0,0,0,0,0],"id":3,"left_children":[1,3,5,7,9,11,13,15,-1,17,-1,19,-1,21,23,-1,25,-1,27,-1,-1,29,-1,31,33,-1,35,37,-1,-1,39,41,43,45,-1,-1,-1,-1,-1,-1,-1,-1,-1,-1,-1,-1,-1],"loss_changes":[2.2671615E4,2.2594824E2,1.1989533E4,9.350879E1,3.0198285E2,3.0081006E2,7.4888965E2,4.487246E2,0E0,9.1890465E1,0E0,2.1102783E1,0E0,9.36511E2,3.0731445E2,0E0,7.228093E2,0E0,1.7979813E1,0E0,0E0,3.88507E2,0E0,6.0523584E2,4.3118164E1,0E0,1.9380798E1,1.7336761E1,0E0,0E0,1.7721674E2,4.6536017E2,3.456875E2,2.7396484E1,0E0,0E0,0E0,0E0,0E0,0E0,0E0,0E0,0E0,0E0,0E0,0E0,0E0],"parents":[2147483647,0,0,1,1,2,2,3,3,4,4,5,5,6,6,7,7,9,9,11,11,13,13,14,14,16,16,18,18,21,21,23,23,24,24,26,26,27,27,30,30,31,31,32,32,33,33],"right_children":[2,4,6,8,10,12,14,16,-1,18,-1,20,-1,22,24,-1,26,-1,28,-1,-1,30,-1,32,34,-1,36,38,-1,-1,40,42,44,46,-1,-1,-1,-1,-1,-1,-1,-1,-1,-1,-1,-1,-1],"split_conditions":[1.733423E-1,1.6798599E-1,8.5501776E2,-3.5947207E-1,-4.8976287E-1,-9.999422E-1,2.0057513E-1,-4.6896538E-1,-8.753647E-2,7.707613E0,-8.697796E-2,-3.5057855E-1,-8.766787E-2,-8.578495E-1,1.001989E1,-8.749253E-2,8.584049E0,-7.946433E-2,8.590611E-2,8.492314E-2,-6.1878957E-2,1.475697E3,-8.738358E-2,2.4297322E-1,2.686188E3,-8.695198E-2,1.0689481E-1,-9.983151E-1,-5.5305053E-2,-8.597718E-2,-9.556633E-1,-4.6896538E-1,6.258885E-1,8.5227484E-1,-7.3487334E-2,-5.780774E-2,8.654665E-2,-5.5586994E-2,9.017754E-2,-9.745262E-3,8.416478E-2,4.734168E-2,-8.842207E-2,7.5406805E-2,1.1265459E-2,8.4426284E-2,7.43592E-2],"split_indices":[6,6,3,11,1,12,6,11,0,0,0,2,0,12,0,0,0,0,11,0,0,4,0,6,4,0,6,12,0,0,12,11,12,12,0,0,0,0,0,0,0,0,0,0,0,0,0],"split_type":[0,0,0,0,0,0,0,0,0,0,0,0,0,0,0,0,0,0,0,0,0,0,0,0,0,0,0,0,0,0,0,0,0,0,0,0,0,0,0,0,0,0,0,0,0,0,0],"sum_hessian":[1.4827971E4,5.6621074E3,9.165864E3,5.516017E3,1.4608989E2,1.4994537E3,7.66641E3,1.1697031E3,4.346314E3,6.7395065E1,7.8694824E1,2.894153E1,1.4705122E3,5.9237537E2,7.0740347E3,9.2009265E2,2.4961047E2,9.798669E0,5.7596397E1,2.6967142E1,1.9743876E0,4.332492E2,1.5912613E2,2.4882578E3,4.585777E3,1.398758E2,1.0973468E2,5.588173E1,1.7146698E0,4.3641056E1,3.8960815E2,2.5392648E2,2.2343313E3,4.5820576E3,3.7193031E0,1.7254171E0,1.0800926E2,1.4837667E0,5.4397964E1,5.897562E1,3.3063254E2,1.4174384E2,1.1218265E2,1.999189E3,2.3514241E2,3.6505728E3,9.314848E2],"tree_param":{"num_deleted":"0","num_feature":"13","num_nodes":"47","size_leaf_vector":"1"}},{"base_weights":[1.7101983E-2,-1.5582798E0,1.5023232E0,-8.4461264E-2,-7.429618E-1,1.0734496E0,1.5386937E0,3.7840858E-1,-8.494933E-2,-8.705389E-2,1.2928563E0,1.607035E0,1.2579503E0,8.204862E-2,-8.5491166E-2,1.4323512E0,-8.6931236E-2,1.6502897E0,1.507723E0,1.5707494E0,-8.479117E-1,-8.516517E-2,1.4708205E0,1.6516954E0,-5.4101583E-2,-1.0511773E-1,1.5407231E0,1.5916321E0,-1.0305955E-1,-9.314555E-2,8.146317E-2,-8.367801E-2,7.506145E-2,7.8109354E-2,8.375385E-2,5.6105692E-2,8.2647875E-2,9.443681E-3,8.2246296E-2],"categories":[],"categories_nodes":[],"categories_segments":[],"categories_sizes":[],"default_left":[0,0,0,0,0,0,0,0,0,0,0,0,0,0,0,0,0,0,0,0,0,0,0,0,0,0,0,0,0,0,0,0,0,0,0,0,0,0,0],"id":4,"left_children":[1,3,5,-1,7,9,11,13,-1,-1,15,17,19,-1,-1,21,-1,23,25,27,29,-1,31,33,-1,-1,35,37,-1,-1,-1,-1,-1,-1,-1,-1,-1,-1,-1],"loss_changes":[3.6047547E4,7.969258E2,1.2204492E2,0E0,1.1116803E3,3.8711908E2,1.3818945E2,1.262417E3,0E0,0E0,2.4722723E2,2.2743164E1,9.4676733E2,0E0,0E0,6.931201E1,0E0,1.7460938E1,2.1691675E2,9.80874E1,4.7138055E2,0E0,5.4876953E1,5.919922E0,0E0,0E0,8.167676E1,9.264575E1,0E0,0E0,0E0,0E0,0E0,0E0,0E0,0E0,0E0,0E0,0E0],"parents":[2147483647,0,0,1,1,2,2,4,4,5,5,6,6,7,7,10,10,11,11,12,12,15,15,17,17,18,18,19,19,20,20,22,22,23,23,26,26,27,27],"right_children":[2,4,6,-1,8,10,12,14,-1,-1,16,18,20,-1,-1,22,-1,24,26,28,30,-1,32,34,-1,-1,36,38,-1,-1,-1,-1,-1,-1,-1,-1,-1,-1,-1],"split_conditions":[5.397384E2,3.0243164E2,6.391121E2,-8.4461264E-2,-8.729291E-1,-5.4310536E-1,6.652865E-1,-3.5947207E-1,-8.494933E-2,-8.705389E-2,7.9710144E-1,8.211002E-1,2.8210753E-1,8.204862E-2,-8.5491166E-2,-7.071068E-1,-8.6931236E-2,2.786236E3,7.485112E2,1.523207E1,1.475876E1,-8.516517E-2,-9.9898064E-1,7.485112E2,-5.4101583E-2,-1.0511773E-1,2.8233767E3,8.299761E0,-1.0305955E-1,-9.314555E-2,8.146317E-2,-8.367801E-2,7.506145E-2,7.8109354E-2,8.375385E-2,5.6105692E-2,8.2647875E-2,9.443681E-3,8.2246296E-2],"split_indices":[5,5,5,0,12,11,12,11,0,0,11,11,11,0,0,8,0,4,5,0,0,0,12,5,0,0,3,0,0,0,0,0,0,0,0,0,0,0,0],"split_type":[0,0,0,0,0,0,0,0,0,0,0,0,0,0,0,0,0,0,0,0,0,0,0,0,0,0,0,0,0,0,0,0,0,0,0,0,0,0,0],"sum_hessian":[1.5404313E4,7.4752393E3,7.9290737E3,6.43988E3,1.0353595E3,6.222415E2,7.3068325E3,4.767542E2,5.586053E2,4.4497456E1,5.77744E2,5.8725527E3,1.4342797E3,2.97249E2,1.7950523E2,5.528327E2,2.491131E1,4.0799448E3,1.792608E3,1.2490093E3,1.8527037E2,6.175645E0,5.466571E2,4.0782422E3,1.7026188E0,1.5669945E1,1.776938E3,1.2424275E3,6.581877E0,1.315975E2,5.3672874E1,4.718372E0,5.419387E2,8.5872485E2,3.2195173E3,3.7801694E2,1.3989211E3,4.564105E1,1.1967864E3],"tree_param":{"num_deleted":"0","num_feature":"13","num_nodes":"39","size_leaf_vector":"1"}},{"base_weights":[3.7029985E-2,-1.4943745E0,1.4544533E0,-8.164977E-2,-7.359569E-1,1.0459919E0,1.4903057E0,3.4277338E-1,-8.215301E-2,-8.3752446E-2,1.2706809E0,1.5566684E0,1.1897463E0,1.5964468E0,-8.2647495E-2,1.3985463E0,-8.2761735E-2,-5.7425063E-2,1.5576311E0,1.506912E0,-8.1129545E-1,1.3938874E0,8.30891E-2,-8.136639E-2,1.4342525E0,1.5948461E0,1.4741495E0,-9.726572E-2,1.5618088E0,-8.9527056E-2,7.8733824E-2,7.9204775E-2,-7.642094E-2,-7.6777704E-2,7.282999E-2,7.979938E-2,-4.963736E-2,-1.01042174E-1,7.515841E-2,7.9340965E-2,-9.8615095E-2],"categories":[],"categories_nodes":[],"categories_segments":[],"categories_sizes":[],"default_left":[0,0,0,0,0,0,0,0,0,0,0,0,0,0,0,0,0,0,0,0,0,0,0,0,0,0,0,0,0,0,0,0,0,0,0,0,0,0,0,0,0],"id":5,"left_children":[1,3,5,-1,7,9,11,13,-1,-1,15,17,19,21,-1,23,-1,-1,25,27,29,31,-1,-1,33,35,37,-1,39,-1,-1,-1,-1,-1,-1,-1,-1,-1,-1,-1,-1],"loss_changes":[3.3427867E4,7.7702734E2,1.1556055E2,0E0,1.1216724E3,3.9873053E2,1.4474902E2,1.3141229E3,0E0,0E0,2.2670654E2,1.7460938E1,8.475867E2,1.9511108E0,0E0,6.448096E1,0E0,0E0,1.633789E1,2.2126001E2,4.3062903E2,4.9581024E1,0E0,0E0,4.000183E1,1.38359375E1,1.9249414E2,0E0,1.0336328E2,0E0,0E0,0E0,0E0,0E0,0E0,0E0,0E0,0E0,0E0,0E0,0E0],"parents":[2147483647,0,0,1,1,2,2,4,4,5,5,6,6,7,7,10,10,11,11,12,12,13,13,15,15,18,18,19,19,20,20,21,21,24,24,25,25,26,26,28,28],"right_children":[2,4,6,-1,8,10,12,14,-1,-1,16,18,20,22,-1,24,-1,-1,26,28,30,32,-1,-1,34,36,38,-1,40,-1,-1,-1,-1,-1,-1,-1,-1,-1,-1,-1,-1],"split_conditions":[5.397384E2,2.8279077E2,6.391121E2,-8.164977E-2,-8.729291E-1,-5.4310536E-1,6.652865E-1,-3.5947207E-1,-8.215301E-2,-8.3752446E-2,7.9710144E-1,6.168508E0,2.8210753E-1,1.6798599E-1,-8.2647495E-2,-9.9898064E-1,-8.2761735E-2,-5.7425063E-2,8.211002E-1,8.24663E0,1.475876E1,-7.407143E-1,8.30891E-2,-8.136639E-2,1.6642828E-1,2.786236E3,7.485112E2,-9.726572E-2,1.523207E1,-8.9527056E-2,7.8733824E-2,7.9204775E-2,-7.642094E-2,-7.6777704E-2,7.282999E-2,7.979938E-2,-4.963736E-2,-1.01042174E-1,7.515841E-2,7.9340965E-2,-9.8615095E-2],"split_indices":[5,5,5,0,12,11,12,11,0,0,11,0,11,6,0,12,0,0,11,0,0,1,0,0,6,4,5,0,0,0,0,0,0,0,0,0,0,0,0,0,0],"split_type":[0,0,0,0,0,0,0,0,0,0,0,0,0,0,0,0,0,0,0,0,0,0,0,0,0,0,0,0,0,0,0,0,0,0,0,0,0,0,0,0,0],"sum_hessian":[1.5397944E4,7.4013574E3,7.996587E3,6.2566377E3,1.1447197E3,6.4769104E2,7.3488955E3,5.231774E2,6.2154236E2,4.891106E1,5.9878E2,6.016328E3,1.3325676E3,3.2144943E2,2.0172801E2,5.7420856E2,2.4571451E1,1.7164359E0,6.014612E3,1.1504656E3,1.8210216E2,8.384336E1,2.3760606E2,6.176934E0,5.680316E2,4.147576E3,1.8670354E3,1.7469173E1,1.1329963E3,1.2928914E2,5.2813023E1,7.9149574E1,4.6937847E0,3.7367158E0,5.642949E2,4.146131E3,1.4453619E0,1.48090105E1,1.8522264E3,1.1255818E3,7.4145923E0],"tree_param":{"num_deleted":"0","num_feature":"13","num_nodes":"41","size_leaf_vector":"1"}},{"base_weights":[2.3268016E-2,-1.4474131E0,1.4029043E0,-7.91686E-2,-7.038091E-1,9.487698E-1,1.4401127E0,3.586393E-1,-7.9613425E-2,1.3538598E0,-6.933088E-2,1.5022002E0,1.1828403E0,-7.993149E-2,1.516648E0,-9.063307E-2,1.4269664E0,-8.446314E-2,1.4474261E0,-8.861383E-2,1.5047591E0,-7.734592E-1,1.4715769E0,-5.7308834E-2,1.5363845E0,-7.531973E-2,1.4608779E0,8.4531665E-2,-8.629611E-2,1.505807E0,-5.3905357E-2,7.456323E-2,-8.594215E-2,1.489614E0,-1.0454617E-1,-5.2382242E-2,7.7663116E-2,7.451814E-2,-7.596654E-2,6.931382E-2,7.6314256E-2,7.5309776E-2,-8.4140114E-2],"categories":[],"categories_nodes":[],"categories_segments":[],"categories_sizes":[],"default_left":[0,0,0,0,0,0,0,0,0,0,0,0,0,0,0,0,0,0,0,0,0,0,0,0,0,0,0,0,0,0,0,0,0,0,0,0,0,0,0,0,0,0,0],"id":6,"left_children":[1,3,5,-1,7,9,11,13,-1,15,17,19,21,-1,23,-1,25,-1,27,-1,29,31,33,-1,35,-1,37,-1,-1,39,-1,-1,-1,41,-1,-1,-1,-1,-1,-1,-1,-1,-1],"loss_changes":[3.030119E4,7.296836E2,1.2883789E2,0E0,1.0569835E3,2.4196088E2,1.1195508E2,1.1594591E3,0E0,9.971637E1,4.1492566E2,5.0695312E1,7.85683E2,0E0,1.8643616E1,0E0,4.3051697E1,0E0,7.024652E1,0E0,1.7128906E1,3.8642355E2,8.090747E1,0E0,1.5553223E1,0E0,3.7982605E1,0E0,0E0,1.1899414E1,0E0,0E0,0E0,6.592822E1,0E0,0E0,0E0,0E0,0E0,0E0,0E0,0E0,0E0],"parents":[2147483647,0,0,1,1,2,2,4,4,5,5,6,6,7,7,9,9,10,10,11,11,12,12,14,14,16,16,18,18,20,20,21,21,22,22,24,24,26,26,29,29,33,33],"right_children":[2,4,6,-1,8,10,12,14,-1,16,18,20,22,-1,24,-1,26,-1,28,-1,30,32,34,-1,36,-1,38,-1,-1,40,-1,-1,-1,42,-1,-1,-1,-1,-1,-1,-1,-1,-1],"split_conditions":[5.397384E2,2.8279077E2,6.391121E2,-7.91686E-2,-8.729291E-1,-8.578495E-1,6.652865E-1,-9.268344E-1,-7.9613425E-2,5.601383E2,5.8482397E-1,-9.721585E-1,9.623603E-1,-7.993149E-2,-8.660252E-1,-9.063307E-2,-9.9898064E-1,-8.446314E-2,-8.9636576E-1,-8.861383E-2,2.786236E3,-9.4966084E-1,9.659259E-1,-5.7308834E-2,-4.3388376E-1,-7.531973E-2,5.7910657E-1,8.4531665E-2,-8.629611E-2,7.485112E2,-5.3905357E-2,7.456323E-2,-8.594215E-2,1E0,-1.0454617E-1,-5.2382242E-2,7.7663116E-2,7.451814E-2,-7.596654E-2,6.931382E-2,7.6314256E-2,7.5309776E-2,-8.4140114E-2],"split_indices":[5,5,5,0,12,12,12,12,0,5,12,1,12,0,7,0,12,0,2,0,4,2,7,0,9,0,2,0,0,5,0,0,0,10,0,0,0,0,0,0,0,0,0],"split_type":[0,0,0,0,0,0,0,0,0,0,0,0,0,0,0,0,0,0,0,0,0,0,0,0,0,0,0,0,0,0,0,0,0,0,0,0,0,0,0,0,0,0,0],"sum_hessian":[1.4932014E4,7.2275034E3,7.70451E3,6.109354E3,1.1181497E3,5.8545465E2,7.119055E3,5.0948608E2,6.086636E2,4.1857785E2,1.6687683E2,5.731124E3,1.3879309E3,1.8924435E2,3.2024173E2,8.9088335E0,4.09669E2,8.0638885E1,8.6237946E1,3.9349966E0,5.7271895E3,1.7828741E2,1.2096436E3,1.9361908E0,3.1830554E2,4.1856537E0,4.0548337E2,8.053309E1,5.704864E0,5.725283E3,1.9059013E0,5.233599E1,1.2595142E2,1.2041288E3,5.5146966E0,1.6692507E0,3.166363E2,4.0200598E2,3.4773612E0,8.474439E2,4.8778394E3,1.1983904E3,5.73848E0],"tree_param":{"num_deleted":"0","num_feature":"13","num_nodes":"43","size_leaf_vector":"1"}},{"base_weights":[-7.128419E-3,-1.4085829E0,1.3533238E0,-7.696702E-2,-6.2045354E-1,1.4093336E0,1.0731062E0,4.2038396E-1,-7.727477E-2,8.02203E-1,1.4408518E0,1.4024239E0,-8.353045E-2,7.505291E-2,-7.760322E-2,1.3232586E0,-7.805406E-2,-8.6670995E-2,1.4437212E0,1.438545E0,-1.0587239E-1,2.0590393E-1,1.5380232E0,1.2920444E0,1.4791789E0,1.3170332E-1,1.4987377E0,-9.77588E-2,7.36887E-2,-5.36541E-2,7.7946566E-2,6.8922065E-2,-9.260445E-2,-9.14376E-2,7.4180655E-2,8.491721E-2,-9.46823E-2,-8.731508E-2,7.548436E-2],"categories":[],"categories_nodes":[],"categories_segments":[],"categories_sizes":[],"default_left":[0,0,0,0,0,0,0,0,0,0,0,0,0,0,0,0,0,0,0,0,0,0,0,0,0,0,0,0,0,0,0,0,0,0,0,0,0,0,0],"id":7,"left_children":[1,3,5,-1,7,9,11,13,-1,15,17,19,-1,-1,-1,21,-1,-1,23,25,-1,27,29,31,33,35,37,-1,-1,-1,-1,-1,-1,-1,-1,-1,-1,-1,-1],"loss_changes":[2.7448787E4,7.298467E2,1.1314258E2,0E0,9.738551E2,1.1528711E2,1.1056835E3,1.0178356E3,0E0,3.7464218E2,5.5177734E1,1.4173169E2,0E0,0E0,0E0,5.930249E1,0E0,0E0,2.9168945E1,8.478247E1,0E0,1.1579309E2,1.3041138E1,3.021372E2,7.131738E1,1.5762726E2,3.932788E1,0E0,0E0,0E0,0E0,0E0,0E0,0E0,0E0,0E0,0E0,0E0,0E0],"parents":[2147483647,0,0,1,1,2,2,4,4,5,5,6,6,7,7,9,9,10,10,11,11,15,15,18,18,19,19,21,21,22,22,23,23,24,24,25,25,26,26],"right_children":[2,4,6,-1,8,10,12,14,-1,16,18,20,-1,-1,-1,22,-1,-1,24,26,-1,28,30,32,34,36,38,-1,-1,-1,-1,-1,-1,-1,-1,-1,-1,-1,-1],"split_conditions":[5.397384E2,3.0243164E2,6.652865E-1,-7.696702E-2,-8.729291E-1,2.0057513E-1,2.8210753E-1,-3.5947207E-1,-7.727477E-2,-8.578495E-1,-9.721585E-1,1.475876E1,-8.353045E-2,7.505291E-2,-7.760322E-2,-9.556633E-1,-7.805406E-2,-8.6670995E-2,7.485112E2,8.299761E0,-1.0587239E-1,1.187561E1,7.955656E-1,7.9710144E-1,8.5501776E2,7.9477236E-2,-8.660255E-1,-9.77588E-2,7.36887E-2,-5.36541E-2,7.7946566E-2,6.8922065E-2,-9.260445E-2,-9.14376E-2,7.4180655E-2,8.491721E-2,-9.46823E-2,-8.731508E-2,7.548436E-2],"split_indices":[5,5,12,0,12,6,11,11,0,12,1,0,0,0,0,12,0,0,5,0,0,0,1,11,3,11,8,0,0,0,0,0,0,0,0,0,0,0,0],"split_type":[0,0,0,0,0,0,0,0,0,0,0,0,0,0,0,0,0,0,0,0,0,0,0,0,0,0,0,0,0,0,0,0,0,0,0,0,0,0,0],"sum_hessian":[1.4394633E4,7.09045E3,7.3041826E3,6.0806616E3,1.0097882E3,6.084071E3,1.2201117E3,4.754112E2,5.34377E2,3.0156265E2,5.782508E3,1.0897964E3,1.3031526E2,3.0729044E2,1.6812074E2,2.4744598E2,5.4116688E1,4.677681E0,5.7778306E3,1.0793118E3,1.0484655E1,4.0209087E1,2.072369E2,1.1018596E3,4.6759707E3,4.7664177E1,1.0316476E3,1.4667053E1,2.5542034E1,1.246477E0,2.0599042E2,1.0729382E3,2.8921442E1,5.7090116E0,4.6702617E3,2.6966557E1,2.0697618E1,2.9363387E0,1.0287113E3],"tree_param":{"num_deleted":"0","num_feature":"13","num_nodes":"39","size_leaf_vector":"1"}},{"base_weights":[1.3438855E-2,-1.3490053E0,1.319812E0,-7.4951634E-2,-5.615082E-1,4.7260916E-1,1.3373677E0,2.5590858E-1,-7.545712E-2,8.6857766E-1,-7.653028E-2,1.3925991E0,1.1322787E0,-7.524128E-2,1.4779584E0,-7.620005E-2,1.0920981E0,1.2469151E0,1.4308009E0,1.1696947E0,-9.0723895E-2,1.3367566E0,7.658579E-2,-7.404344E-2,1.2380664E0,1.3117027E0,-8.733726E-2,-7.451531E-2,1.4334258E0,1.199458E0,-8.722993E-2,7.478466E-2,-7.928718E-2,-6.10965E-2,6.768714E-2,-9.053595E-2,6.668431E-2,6.78762E-2,7.332404E-2,7.320275E-2,4.6245717E-2],"categories":[],"categories_nodes":[],"categories_segments":[],"categories_sizes":[],"default_left":[0,0,0,0,0,0,0,0,0,0,0,0,0,0,0,0,0,0,0,0,0,0,0,0,0,0,0,0,0,0,0,0,0,0,0,0,0,0,0,0,0],"id":8,"left_children":[1,3,5,-1,7,9,11,13,-1,15,-1,17,19,-1,21,-1,23,25,27,29,-1,31,-1,-1,33,35,-1,-1,37,39,-1,-1,-1,-1,-1,-1,-1,-1,-1,-1,-1],"loss_changes":[2.5321986E4,8.219297E2,1.0738965E2,0E0,8.6486646E2,1.19511246E2,7.90166E1,1.2933136E3,0E0,6.8534386E1,0E0,2.9387695E1,1.6914917E2,0E0,6.4489746E-1,0E0,4.5001205E1,2.2948254E2,3.61084E1,1.3189941E2,0E0,5.1450363E1,0E0,0E0,3.2760605E1,8.115662E1,0E0,0E0,9.1171875E0,1.06302246E2,0E0,0E0,0E0,0E0,0E0,0E0,0E0,0E0,0E0,0E0,0E0],"parents":[2147483647,0,0,1,1,2,2,4,4,5,5,6,6,7,7,9,9,11,11,12,12,14,14,16,16,17,17,18,18,19,19,21,21,24,24,25,25,28,28,29,29],"right_children":[2,4,6,-1,8,10,12,14,-1,16,-1,18,20,-1,22,-1,24,26,28,30,-1,32,-1,-1,34,36,-1,-1,38,40,-1,-1,-1,-1,-1,-1,-1,-1,-1,-1,-1],"split_conditions":[5.397384E2,2.8279077E2,1.8830721E-1,-7.4951634E-2,-3.5947207E-1,-2.5881907E-1,5.9710824E-1,-4.8408842E-1,-7.545712E-2,-8.6602545E-1,-7.653028E-2,7.485112E2,9.659258E-1,-7.524128E-2,1.6798599E-1,-7.620005E-2,2.686188E3,7.9710144E-1,6.470432E0,9.659259E-1,-9.0723895E-2,6.515345E-1,7.658579E-2,-7.404344E-2,-5.4310536E-1,-8.4372836E-1,-8.733726E-2,-7.451531E-2,1.001989E1,2.3224269E-1,-8.722993E-2,7.478466E-2,-7.928718E-2,-6.10965E-2,6.768714E-2,-9.053595E-2,6.668431E-2,6.78762E-2,7.332404E-2,7.320275E-2,4.6245717E-2],"split_indices":[5,5,6,0,11,7,2,11,0,7,0,5,8,0,6,0,4,11,0,7,0,1,0,0,11,11,0,0,0,11,0,0,0,0,0,0,0,0,0,0,0],"split_type":[0,0,0,0,0,0,0,0,0,0,0,0,0,0,0,0,0,0,0,0,0,0,0,0,0,0,0,0,0,0,0,0,0,0,0,0,0,0,0,0,0],"sum_hessian":[1.4224948E4,6.9630273E3,7.2619204E3,5.8480103E3,1.1150172E3,1.4799182E2,7.1139287E3,5.9903094E2,5.1598627E2,1.24039734E2,2.3952093E1,5.6000234E3,1.5139052E3,2.4532883E2,3.5370212E2,1.0100893E1,1.1393884E2,1.1703785E3,4.429645E3,1.4955192E3,1.8386034E1,1.0466076E2,2.4904135E2,5.625939E0,1.08312904E2,1.1461361E3,2.4242403E1,3.468114E0,4.426177E3,1.4809824E3,1.4536708E1,9.9725525E1,4.935233E0,4.4349475E0,1.0387795E2,7.444131E0,1.138692E3,1.3555579E3,3.070619E3,7.5194635E2,7.2903613E2],"tree_param":{"num_deleted":"0","num_feature":"13","num_nodes":"41","size_leaf_vector":"1"}},{"base_weights":[-2.16084E-2,-1.3266704E0,1.2753973E0,-7.314904E-2,-5.943868E-1,1.3296012E0,1.0274018E0,3.8330022E-1,-7.348935E-2,9.004824E-1,1.3761741E0,1.3345094E0,-7.4927527E-1,1.4374919E0,-7.3735714E-2,1.3038833E0,-8.335934E-1,1.418886E0,1.2880445E0,1.3596846E0,-9.0883695E-2,-8.170574E-2,7.441254E-2,1.3064828E0,7.4616075E-2,1.344736E0,-8.098366E-2,-8.0662936E-2,7.448054E-2,1.319577E0,7.236502E-2,-9.13832E-2,1.3196414E0,1.3815627E0,-8.268698E-2,7.2838366E-2,-7.633366E-2,-7.710477E-2,6.9180086E-2,-1.0025268E-1,6.6827565E-2,7.063808E-2,4.313026E-2,-8.740054E-2,6.99168E-2],"categories":[],"categories_nodes":[],"categories_segments":[],"categories_sizes":[],"default_left":[0,0,0,0,0,0,0,0,0,0,0,0,0,0,0,0,0,0,0,0,0,0,0,0,0,0,0,0,0,0,0,0,0,0,0,0,0,0,0,0,0,0,0,0,0],"id":9,"left_children":[1,3,5,-1,7,9,11,13,-1,15,17,19,21,23,-1,25,27,29,31,33,-1,-1,-1,35,-1,37,-1,-1,-1,39,-1,-1,41,43,-1,-1,-1,-1,-1,-1,-1,-1,-1,-1,-1],"loss_changes":[2.3002121E4,6.752549E2,9.025195E1,0E0,9.117843E2,1.1047363E2,6.70428E2,9.8881055E2,0E0,3.8594177E2,1.7146484E1,8.551306E1,3.6169345E2,3.6254883E-1,0E0,5.553235E1,1.9157959E2,7.642578E0,1.6546924E2,7.076465E1,0E0,0E0,0E0,4.608078E1,0E0,5.1625916E1,0E0,0E0,0E0,4.5820923E1,0E0,0E0,6.8589355E1,5.660486E1,0E0,0E0,0E0,0E0,0E0,0E0,0E0,0E0,0E0,0E0,0E0],"parents":[2147483647,0,0,1,1,2,2,4,4,5,5,6,6,7,7,9,9,10,10,11,11,12,12,13,13,15,15,16,16,17,17,18,18,19,19,23,23,25,25,29,29,32,32,33,33],"right_children":[2,4,6,-1,8,10,12,14,-1,16,18,20,22,24,-1,26,28,30,32,34,-1,-1,-1,36,-1,38,-1,-1,-1,40,-1,-1,42,44,-1,-1,-1,-1,-1,-1,-1,-1,-1,-1,-1],"split_conditions":[5.397384E2,2.8279077E2,6.652865E-1,-7.314904E-2,-8.729291E-1,6.391121E2,2.8210753E-1,-3.5947207E-1,-7.348935E-2,-8.644082E-1,8.211002E-1,1.523207E1,1.475876E1,1.6798599E-1,-7.3735714E-2,5.396154E-1,5.8482397E-1,7.485112E2,7.485112E2,9.2774636E-1,-9.0883695E-2,-8.170574E-2,7.441254E-2,6.515345E-1,7.4616075E-2,-9.9898064E-1,-8.098366E-2,-8.0662936E-2,7.448054E-2,-8.4372836E-1,7.236502E-2,-9.13832E-2,5.1297843E-1,-7.071067E-1,-8.268698E-2,7.2838366E-2,-7.633366E-2,-7.710477E-2,6.9180086E-2,-1.0025268E-1,6.6827565E-2,7.063808E-2,4.313026E-2,-8.740054E-2,6.99168E-2],"split_indices":[5,5,12,0,12,5,11,11,0,12,11,0,0,6,0,2,12,5,5,1,0,0,0,1,0,12,0,0,0,11,0,0,12,7,0,0,0,0,0,0,0,0,0,0,0],"split_type":[0,0,0,0,0,0,0,0,0,0,0,0,0,0,0,0,0,0,0,0,0,0,0,0,0,0,0,0,0,0,0,0,0,0,0,0,0,0,0,0,0,0,0,0,0],"sum_hessian":[1.358723E4,6.7725703E3,6.81466E3,5.7088945E3,1.0636754E3,5.588772E3,1.2258882E3,5.0274683E2,5.609286E2,5.491638E2,5.0396084E3,1.0454293E3,1.8045885E2,3.2090152E2,1.818453E2,4.4572272E2,1.0344111E2,3.3843127E3,1.6552955E3,1.0377102E3,7.7191358E0,1.2951231E2,5.094653E1,1.02003494E2,2.1889804E2,4.401128E2,5.6099296E0,7.7678024E1,2.5763088E1,7.634591E2,2.6208538E3,1.6047457E1,1.639248E3,1.0307682E3,6.9420595E0,9.732663E1,4.6768694E0,5.3327646E0,4.3478003E2,3.2831867E0,7.601759E2,1.3600493E3,2.7919876E2,4.9447856E0,1.0258234E3],"tree_param":{"num_deleted":"0","num_feature":"13","num_nodes":"45","size_leaf_vector":"1"}},{"base_weights":[1.6118698E-2,-1.2970508E0,1.251495E0,-7.151606E-2,-5.8827156E-1,8.670055E-1,1.2838457E0,3.543625E-1,-7.180028E-2,1.2647865E0,-1.0969683E-1,1.3440989E0,1.0222061E0,-7.197163E-2,1.355488E0,1.3036093E0,-7.5036444E-2,-7.8459896E-2,1.2841356E0,1.301806E0,7.1387894E-2,-7.8552194E-2,1.3043796E0,-5.175498E-2,1.3741627E0,-7.214824E-2,1.3421763E0,7.5355425E-2,-7.8620024E-2,1.3735327E0,1.0638496E0,-9.150342E-2,1.3582375E0,-4.5982044E-2,6.942191E-2,6.788474E-2,-8.880081E-2,6.3177854E-2,7.079514E-2,6.0631126E-2,-1.2615608E-1,6.879281E-2,-9.918922E-2],"categories":[],"categories_nodes":[],"categories_segments":[],"categories_sizes":[],"default_left":[0,0,0,0,0,0,0,0,0,0,0,0,0,0,0,0,0,0,0,0,0,0,0,0,0,0,0,0,0,0,0,0,0,0,0,0,0,0,0,0,0,0,0],"id":10,"left_children":[1,3,5,-1,7,9,11,13,-1,15,17,19,21,-1,23,25,-1,-1,27,29,-1,-1,31,-1,33,-1,35,-1,-1,37,39,-1,41,-1,-1,-1,-1,-1,-1,-1,-1,-1,-1],"loss_changes":[2.1965787E4,6.191377E2,8.5666016E1,0E0,8.319699E2,2.1170065E2,1.00043945E2,8.8813586E2,0E0,4.3509766E1,3.2447757E2,1.6631836E1,8.862732E2,0E0,1.5584656E1,4.242279E1,0E0,0E0,5.436264E1,5.7976074E1,0E0,0E0,1.8655103E2,0E0,1.1598022E1,0E0,2.067517E1,0E0,0E0,1.0663574E1,4.358504E2,0E0,6.588025E1,0E0,0E0,0E0,0E0,0E0,0E0,0E0,0E0,0E0,0E0],"parents":[2147483647,0,0,1,1,2,2,4,4,5,5,6,6,7,7,9,9,10,10,11,11,12,12,14,14,15,15,18,18,19,19,22,22,24,24,26,26,29,29,30,30,32,32],"right_children":[2,4,6,-1,8,10,12,14,-1,16,18,20,22,-1,24,26,-1,-1,28,30,-1,-1,32,-1,34,-1,36,-1,-1,38,40,-1,42,-1,-1,-1,-1,-1,-1,-1,-1,-1,-1],"split_conditions":[5.397384E2,2.8279077E2,6.391121E2,-7.151606E-2,-8.729291E-1,-8.644082E-1,8.5227484E-1,-9.268344E-1,-7.180028E-2,5.396154E-1,5.8482397E-1,2.8745918E3,9.623603E-1,-7.197163E-2,-8.660252E-1,-9.9898064E-1,-7.5036444E-2,-7.8459896E-2,-8.9636576E-1,-2.4998091E-1,7.1387894E-2,-7.8552194E-2,1.6642334E3,-5.175498E-2,-4.3388376E-1,-7.214824E-2,2.6553947E-1,7.5355425E-2,-7.8620024E-2,7.485112E2,2.5881898E-1,-9.150342E-2,9.659259E-1,-4.5982044E-2,6.942191E-2,6.788474E-2,-8.880081E-2,6.3177854E-2,7.079514E-2,6.0631126E-2,-1.2615608E-1,6.879281E-2,-9.918922E-2],"split_indices":[5,5,5,0,12,12,12,12,0,2,12,5,12,0,7,12,0,0,2,12,0,0,3,0,9,0,6,0,0,5,8,0,7,0,0,0,0,0,0,0,0,0,0],"split_type":[0,0,0,0,0,0,0,0,0,0,0,0,0,0,0,0,0,0,0,0,0,0,0,0,0,0,0,0,0,0,0,0,0,0,0,0,0,0,0,0,0,0,0],"sum_hessian":[1.353825E4,6.562476E3,6.9757734E3,5.5229834E3,1.0394932E3,5.435419E2,6.432232E3,4.9247247E2,5.470206E2,3.8602908E2,1.5751277E2,5.224857E3,1.2073748E3,1.7624416E2,3.1622833E2,3.8120627E2,4.822824E0,7.688237E1,8.0630394E1,3.48142E3,1.743437E3,1.180349E2,1.0893398E3,2.0292747E0,3.1419904E2,4.774481E0,3.764318E2,7.523052E1,5.3998756E0,2.6714102E3,8.100099E2,1.7844393E1,1.0714955E3,1.5510594E0,3.1264798E2,3.7512943E2,1.3023455E0,7.515411E2,1.919869E3,7.783875E2,3.162241E1,1.0664615E3,5.0339303E0],"tree_param":{"num_deleted":"0","num_feature":"13","num_nodes":"43","size_leaf_vector":"1"}},{"base_weights":[2.1473775E-2,-1.2687334E0,1.2225239E0,-7.0029415E-2,-5.658411E-1,4.4569203E-1,1.2382585E0,3.6094502E-1,-7.026939E-2,1.0525026E0,-7.017556E-2,1.2894202E0,1.0102513E0,1.3758903E0,-7.05051E-2,-7.920148E-2,1.1770078E0,1.1189237E0,1.3348156E0,1.2787951E0,-6.879822E-1,1.1952071E0,7.1427986E-2,-6.39403E-2,1.2599245E0,1.1977177E0,-8.274967E-2,-7.525152E-2,1.3371131E0,1.2994999E0,-8.681958E-2,-7.735575E-2,7.055547E-2,6.859344E-2,-7.340342E-2,-6.208503E-2,6.555798E-2,6.6541724E-2,3.4275934E-2,6.923858E-2,6.2497582E-2,6.5994486E-2,-7.6555856E-2],"categories":[],"categories_nodes":[],"categories_segments":[],"categories_sizes":[],"default_left":[0,0,0,0,0,0,0,0,0,0,0,0,0,0,0,0,0,0,0,0,0,0,0,0,0,0,0,0,0,0,0,0,0,0,0,0,0,0,0,0,0,0,0],"id":11,"left_children":[1,3,5,-1,7,9,11,13,-1,15,-1,17,19,21,-1,-1,23,25,27,29,31,33,-1,-1,35,37,-1,-1,39,41,-1,-1,-1,-1,-1,-1,-1,-1,-1,-1,-1,-1,-1],"loss_changes":[2.0478756E4,5.896953E2,8.310449E1,0E0,7.848672E2,1.5569844E2,7.694531E1,8.646337E2,0E0,3.6020844E1,0E0,4.088086E1,5.636062E2,1.2008057E0,0E0,0E0,2.1960602E1,2.54948E2,3.0187012E1,6.879236E1,3.0718976E2,3.7347633E1,0E0,0E0,1.40828705E1,7.586023E1,0E0,0E0,1.619629E1,6.314685E1,0E0,0E0,0E0,0E0,0E0,0E0,0E0,0E0,0E0,0E0,0E0,0E0,0E0],"parents":[2147483647,0,0,1,1,2,2,4,4,5,5,6,6,7,7,9,9,11,11,12,12,13,13,16,16,17,17,18,18,19,19,20,20,21,21,24,24,25,25,28,28,29,29],"right_children":[2,4,6,-1,8,10,12,14,-1,16,-1,18,20,22,-1,-1,24,26,28,30,32,34,-1,-1,36,38,-1,-1,40,42,-1,-1,-1,-1,-1,-1,-1,-1,-1,-1,-1,-1,-1],"split_conditions":[5.397384E2,2.8279077E2,1.8830721E-1,-7.0029415E-2,-8.729291E-1,-8.729291E-1,6.652865E-1,-3.5947207E-1,-7.026939E-2,3.2617144E3,-7.017556E-2,7.485112E2,2.8210753E-1,1.6798599E-1,-7.05051E-2,-7.920148E-2,-9.983151E-1,7.9710144E-1,6.470432E0,1.523207E1,1.475876E1,6.515345E-1,7.1427986E-2,-6.39403E-2,-8.6602545E-1,-8.488827E-1,-8.274967E-2,-7.525152E-2,8.211002E-1,9.2774636E-1,-8.681958E-2,-7.735575E-2,7.055547E-2,6.859344E-2,-7.340342E-2,-6.208503E-2,6.555798E-2,6.6541724E-2,3.4275934E-2,6.923858E-2,6.2497582E-2,6.5994486E-2,-7.6555856E-2],"split_indices":[5,5,6,0,12,12,12,11,0,3,0,5,11,6,0,0,12,11,0,0,0,1,0,0,7,12,0,0,11,1,0,0,0,0,0,0,0,0,0,0,0,0,0],"split_type":[0,0,0,0,0,0,0,0,0,0,0,0,0,0,0,0,0,0,0,0,0,0,0,0,0,0,0,0,0,0,0,0,0,0,0,0,0,0,0,0,0,0,0],"sum_hessian":[1.321348E4,6.3702715E3,6.8432085E3,5.3632007E3,1.0070707E3,1.3643788E2,6.706771E3,4.7893665E2,5.2813403E2,1.0305238E2,3.33855E1,5.473857E3,1.2329138E3,3.0460043E2,1.7433621E2,4.1183887E0,9.893399E1,1.1563768E3,4.31748E3,1.064785E3,1.681288E2,7.4098274E1,2.3050217E2,2.7602005E0,9.617379E1,1.1249893E3,3.138748E1,2.9612832E0,4.314519E3,1.0580883E3,6.696705E0,1.1948713E2,4.8641674E1,6.9943634E1,4.154642E0,1.4638443E0,9.4709946E1,8.916561E2,2.3333316E2,2.7797246E3,1.5347942E3,1.051051E3,7.037332E0],"tree_param":{"num_deleted":"0","num_feature":"13","num_nodes":"43","size_leaf_vector":"1"}},{"base_weights":[-6.8506356E-3,-1.3189954E0,7.290481E-1,-6.864386E-2,-1.0562159E0,-1.252582E0,1.0531454E0,-1.1997445E0,6.284028E-1,-6.868347E-2,2.8882417E-1,6.968275E-1,1.253695E0,4.0138316E-1,-1.2797731E0,1.2593781E0,-6.530358E-2,-6.656618E-2,1.3112077E0,-7.979506E-2,1.0574327E0,8.7781E-1,1.2823516E0,-6.2804006E-2,1.1879057E0,-6.8855725E-2,-7.8623194E-1,-3.9774448E-2,6.695778E-2,7.257747E-2,-4.94461E-2,-7.00606E-2,7.111634E-1,1.2955267E0,5.7931995E-1,-7.010302E-2,1.1157377E0,1.2846241E0,-7.144042E-2,6.6020474E-2,-3.725807E-2,-6.780358E-2,1.6706487E-2,5.382056E-2,-4.235676E-2,6.722432E-2,-1.0256387E-1,6.5328754E-2,-5.2924465E-2,6.269567E-2,-6.989648E-2,6.462162E-2,3.558688E-2],"categories":[],"categories_nodes":[],"categories_segments":[],"categories_sizes":[],"default_left":[0,0,0,0,0,0,0,0,0,0,0,0,0,0,0,0,0,0,0,0,0,0,0,0,0,0,0,0,0,0,0,0,0,0,0,0,0,0,0,0,0,0,0,0,0,0,0,0,0,0,0,0,0],"id":12,"left_children":[1,3,5,-1,7,9,11,13,15,-1,17,19,21,23,25,27,-1,-1,29,31,33,35,37,-1,39,-1,41,-1,-1,-1,-1,-1,43,45,47,-1,49,51,-1,-1,-1,-1,-1,-1,-1,-1,-1,-1,-1,-1,-1,-1,-1],"loss_changes":[1.2188106E4,6.276709E1,5.195027E3,0E0,1.8839801E2,2.1264197E2,4.9581836E2,9.219165E1,7.681578E1,0E0,1.4030638E2,7.0175E2,4.676709E1,4.688483E1,3.1665405E1,8.761436E0,0E0,0E0,1.815371E1,8.323283E2,1.9403088E2,1.7413092E2,2.7274414E1,0E0,7.164112E0,0E0,7.363297E1,0E0,0E0,0E0,0E0,0E0,2.8448596E2,1.8979211E2,6.8106836E2,0E0,1.0199936E2,1.7537598E1,0E0,0E0,0E0,0E0,0E0,0E0,0E0,0E0,0E0,0E0,0E0,0E0,0E0,0E0,0E0],"parents":[2147483647,0,0,1,1,2,2,4,4,5,5,6,6,7,7,8,8,10,10,11,11,12,12,13,13,14,14,15,15,18,18,19,19,20,20,21,21,22,22,24,24,26,26,32,32,33,33,34,34,36,36,37,37],"right_children":[2,4,6,-1,8,10,12,14,16,-1,18,20,22,24,26,28,-1,-1,30,32,34,36,38,-1,40,-1,42,-1,-1,-1,-1,-1,44,46,48,-1,50,52,-1,-1,-1,-1,-1,-1,-1,-1,-1,-1,-1,-1,-1,-1,-1],"split_conditions":[1.733423E-1,1.2991522E-1,6.168508E0,-6.864386E-2,1.179497E1,1E0,1.001989E1,-9.8992705E-1,-4.8976287E-1,-6.868347E-2,5.726651E0,3.246269E-1,2.0057513E-1,1.0650542E-1,1E0,7.818315E-1,-6.530358E-2,-6.656618E-2,-9.73618E-1,1.475697E3,2.5250813E-1,-4.9906868E-1,2.686188E3,-6.2804006E-2,1.4021133E-1,-6.8855725E-2,7.613416E-1,-3.9774448E-2,6.695778E-2,7.257747E-2,-4.94461E-2,-7.00606E-2,-8.644082E-1,9.6825075E-1,-2.9959467E-1,-7.010302E-2,5.0835645E-1,8.873661E-1,-7.144042E-2,6.6020474E-2,-3.725807E-2,-6.780358E-2,1.6706487E-2,5.382056E-2,-4.235676E-2,6.722432E-2,-1.0256387E-1,6.5328754E-2,-5.2924465E-2,6.269567E-2,-6.989648E-2,6.462162E-2,3.558688E-2],"split_indices":[6,6,0,0,0,7,0,1,1,0,0,6,6,2,10,9,0,0,2,4,1,11,4,0,6,0,2,0,0,0,0,0,12,11,12,0,11,2,0,0,0,0,0,0,0,0,0,0,0,0,0,0,0],"split_type":[0,0,0,0,0,0,0,0,0,0,0,0,0,0,0,0,0,0,0,0,0,0,0,0,0,0,0,0,0,0,0,0,0,0,0,0,0,0,0,0,0,0,0,0,0,0,0,0,0,0,0,0,0],"sum_hessian":[1.2620246E4,4.534396E3,8.0858506E3,3.759337E3,7.750589E2,1.1361595E3,6.949691E3,7.1447394E2,6.0584976E1,1.0535084E3,8.265113E1,2.504465E3,4.445226E3,3.3820187E1,6.8065375E2,4.594718E1,1.4637794E1,3.1860441E1,5.0790688E1,7.943913E2,1.7100739E3,3.171278E2,4.128098E3,1.0691871E1,2.3128317E1,5.670283E2,1.1362539E2,1.381889E0,4.4565292E1,4.8217632E1,2.573055E0,2.971632E2,4.9722812E2,1.1404396E3,5.696343E2,2.950568E1,2.8762213E2,4.1251665E3,2.9314704E0,2.1941269E1,1.1870474E0,7.517793E1,3.844746E1,4.030637E2,9.416441E1,1.1245865E3,1.5853031E1,3.946123E2,1.7502196E2,2.7311047E2,1.4511651E1,4.0684578E3,5.6708874E1],"tree_param":{"num_deleted":"0","num_feature":"13","num_nodes":"53","size_leaf_vector":"1"}},{"base_weights":[1.998538E-3,-1.2098452E0,1.1576642E0,-6.743824E-2,-4.9314356E-1,7.6727897E-1,1.1912305E0,4.046756E-1,-6.77221E-2,-7.2808765E-2,9.645305E-1,1.2510035E0,9.414689E-1,1.3338758E0,-6.833709E-2,1.0720122E0,-6.7723446E-2,-8.787466E-2,1.2538697E0,1.217697E0,-7.482697E-2,1.1967674E0,6.93211E-2,1.1226498E0,-7.814164E-2,1.0910501E0,1.2795099E0,1.2397527E0,-8.633631E-2,6.722753E-2,-7.060118E-2,-7.479363E-2,5.7825845E-2,5.860371E-2,-8.947597E-2,-6.8223804E-2,6.4071946E-2,6.271592E-2,-1.0449326E-1],"categories":[],"categories_nodes":[],"categories_segments":[],"categories_sizes":[],"default_left":[0,0,0,0,0,0,0,0,0,0,0,0,0,0,0,0,0,0,0,0,0,0,0,0,0,0,0,0,0,0,0,0,0,0,0,0,0,0,0],"id":13,"left_children":[1,3,5,-1,7,9,11,13,-1,-1,15,17,19,21,-1,23,-1,-1,25,27,-1,29,-1,31,-1,33,35,37,-1,-1,-1,-1,-1,-1,-1,-1,-1,-1,-1],"loss_changes":[1.7272771E4,5.987451E2,8.181152E1,0E0,7.576385E2,2.218541E2,8.558008E1,7.9212164E2,0E0,0E0,1.16677155E2,4.261133E1,7.602955E2,6.133423E-1,0E0,6.0776306E1,0E0,0E0,1.8150879E1,6.787317E1,0E0,3.841133E1,0E0,4.027185E1,0E0,1.5236182E2,2.2350098E1,5.13739E1,0E0,0E0,0E0,0E0,0E0,0E0,0E0,0E0,0E0,0E0,0E0],"parents":[2147483647,0,0,1,1,2,2,4,4,5,5,6,6,7,7,10,10,11,11,12,12,13,13,15,15,18,18,19,19,21,21,23,23,25,25,26,26,27,27],"right_children":[2,4,6,-1,8,10,12,14,-1,-1,16,18,20,22,-1,24,-1,-1,26,28,-1,30,-1,32,-1,34,36,38,-1,-1,-1,-1,-1,-1,-1,-1,-1,-1,-1],"split_conditions":[5.397384E2,2.8279077E2,6.391121E2,-6.743824E-2,-8.729291E-1,-4.8408842E-1,8.5227484E-1,-3.5947207E-1,-6.77221E-2,-7.2808765E-2,7.9710144E-1,-9.721585E-1,2.8210753E-1,1.6798599E-1,-6.833709E-2,5.396154E-1,-6.7723446E-2,-8.787466E-2,7.485112E2,1.523207E1,-7.482697E-2,6.515345E-1,6.93211E-2,-9.9898064E-1,-7.814164E-2,7.648913E-1,6.470432E0,9.659259E-1,-8.633631E-2,6.722753E-2,-7.060118E-2,-7.479363E-2,5.7825845E-2,5.860371E-2,-8.947597E-2,-6.8223804E-2,6.4071946E-2,6.271592E-2,-1.0449326E-1],"split_indices":[5,5,5,0,12,11,12,11,0,0,11,1,11,6,0,2,0,0,5,0,0,1,0,12,0,11,0,7,0,0,0,0,0,0,0,0,0,0,0],"split_type":[0,0,0,0,0,0,0,0,0,0,0,0,0,0,0,0,0,0,0,0,0,0,0,0,0,0,0,0,0,0,0,0,0,0,0,0,0,0,0],"sum_hessian":[1.233141E4,6.0193774E3,6.312033E3,5.0413267E3,9.780509E2,5.0164407E2,5.8103887E3,4.7913242E2,4.989185E2,4.035648E1,4.612876E2,4.685133E3,1.1252562E3,3.1443958E2,1.6469284E2,4.4136865E2,1.9918959E1,3.8764782E0,4.6812563E3,1.01118835E3,1.14067856E2,9.3706825E1,2.2073274E2,4.3360928E2,7.7593718E0,6.428197E2,4.0384365E3,1.0042449E3,6.9434676E0,8.914172E1,4.5651E0,4.985335E0,4.2862393E2,6.258102E2,1.7009531E1,2.429137E0,4.0360073E3,1.0004914E3,3.753449E0],"tree_param":{"num_deleted":"0","num_feature":"13","num_nodes":"39","size_leaf_vector":"1"}},{"base_weights":[5.78611E-4,-1.2073615E0,1.1365342E0,-6.630122E-2,-5.7787836E-1,7.4652046E-1,1.169172E0,2.8645915E-1,-6.6546254E-2,1.1161104E0,-3.7614048E-1,1.224126E0,9.5361906E-1,1.2968435E0,-6.704089E-2,-7.1812645E-2,1.1618739E0,-7.3820956E-2,1.0815296E0,1.271049E0,1.1204022E0,1.2049098E0,-7.2769225E-2,6.7405306E-2,1.0353795E0,1.2050043E0,-7.191105E-2,6.859194E-2,-7.315726E-2,1.2725875E0,-5.0544698E-2,-8.316135E-2,1.1521257E0,1.2270423E0,-8.372663E-2,-7.3591106E-2,6.4207114E-2,-6.642166E-2,6.1075367E-2,5.816965E-2,6.505823E-2,5.358649E-3,6.1114606E-2,6.220732E-2,-7.370414E-2],"categories":[],"categories_nodes":[],"categories_segments":[],"categories_sizes":[],"default_left":[0,0,0,0,0,0,0,0,0,0,0,0,0,0,0,0,0,0,0,0,0,0,0,0,0,0,0,0,0,0,0,0,0,0,0,0,0,0,0,0,0,0,0,0,0],"id":14,"left_children":[1,3,5,-1,7,9,11,13,-1,15,17,19,21,23,-1,-1,25,-1,27,29,31,33,-1,-1,35,37,-1,-1,-1,39,-1,-1,41,43,-1,-1,-1,-1,-1,-1,-1,-1,-1,-1,-1],"loss_changes":[1.6366315E4,4.3101758E2,7.737158E1,0E0,5.982971E2,1.9851941E2,6.600049E1,7.0631244E2,0E0,4.3653137E1,1.9244733E2,2.0550781E1,7.018373E2,2.1545105E0,0E0,0E0,4.1393738E1,0E0,4.0246082E1,1.2174316E1,1.2684619E2,6.882898E1,0E0,0E0,3.1659702E1,1.619049E1,0E0,0E0,0E0,8.158203E0,0E0,0E0,1.0247229E2,4.9899048E1,0E0,0E0,0E0,0E0,0E0,0E0,0E0,0E0,0E0,0E0,0E0],"parents":[2147483647,0,0,1,1,2,2,4,4,5,5,6,6,7,7,9,9,10,10,11,11,12,12,13,13,16,16,18,18,19,19,20,20,21,21,24,24,25,25,29,29,32,32,33,33],"right_children":[2,4,6,-1,8,10,12,14,-1,16,18,20,22,24,-1,-1,26,-1,28,30,32,34,-1,-1,36,38,-1,-1,-1,40,-1,-1,42,44,-1,-1,-1,-1,-1,-1,-1,-1,-1,-1,-1],"split_conditions":[5.397384E2,2.8279077E2,6.391121E2,-6.630122E-2,-8.729291E-1,-8.578495E-1,8.5227484E-1,-3.5947207E-1,-6.6546254E-2,-9.9898064E-1,5.8482397E-1,8.211002E-1,2.8210753E-1,8.660254E-1,-6.704089E-2,-7.1812645E-2,5.7910657E-1,-7.3820956E-2,-8.9636576E-1,2.786236E3,7.485112E2,1.523207E1,-7.2769225E-2,6.7405306E-2,1.001989E1,1.6479659E-1,-7.191105E-2,6.859194E-2,-7.315726E-2,7.485112E2,-5.0544698E-2,-8.316135E-2,8.2718927E-1,1E0,-8.372663E-2,-7.3591106E-2,6.4207114E-2,-6.642166E-2,6.1075367E-2,5.816965E-2,6.505823E-2,5.358649E-3,6.1114606E-2,6.220732E-2,-7.370414E-2],"split_indices":[5,5,5,0,12,12,12,11,0,12,12,11,11,7,0,0,2,0,2,4,5,0,0,0,0,6,0,0,0,5,0,0,11,10,0,0,0,0,0,0,0,0,0,0,0],"split_type":[0,0,0,0,0,0,0,0,0,0,0,0,0,0,0,0,0,0,0,0,0,0,0,0,0,0,0,0,0,0,0,0,0,0,0,0,0,0,0,0,0,0,0,0,0],"sum_hessian":[1.1925355E4,5.779525E3,6.145831E3,4.861907E3,9.176177E2,4.7643564E2,5.6693955E3,4.2752707E2,4.900906E2,3.5843988E2,1.17995766E2,4.513921E3,1.1554745E3,2.6388354E2,1.6364354E2,5.7783756E0,3.526615E2,6.723362E1,5.0762146E1,3.1001897E3,1.4137312E3,1.0467814E3,1.0869321E2,2.1715266E2,4.6730877E1,3.474348E2,5.2266984E0,4.5977684E1,4.784464E0,3.0985427E3,1.6468103E0,1.5350475E1,1.3983807E3,1.0393662E3,7.4151163E0,3.7743022E0,4.2956573E1,1.7340709E0,3.4570074E2,6.513626E2,2.4471802E3,8.8148926E1,1.3102318E3,1.0333622E3,6.004039E0],"tree_param":{"num_deleted":"0","num_feature":"13","num_nodes":"45","size_leaf_vector":"1"}},{"base_weights":[2.4768885E-3,-1.2512116E0,6.780058E-1,-1.0536584E0,-6.5245114E-2,-1.0639141E0,1.0095448E0,-1.5114228E-1,-6.521749E-2,-1.2093678E0,5.140581E-1,4.2200348E-1,1.1110884E0,-6.465589E-2,1.2542027E0,1.0385818E0,-1.2566291E0,1.2664387E0,-6.320365E-2,8.868288E-1,-9.3618864E-1,8.513066E-1,1.226377E0,-5.3266805E-2,6.576445E-2,6.357505E-2,-6.09315E-2,-6.523918E-2,-8.563343E-1,-4.982563E-2,6.930966E-2,-6.418591E-2,1.0611805E0,-1.4468637E0,7.093278E-1,1.1715486E0,3.4801415E-1,1.2379093E0,6.568626E-1,4.3149155E-2,-6.857704E-2,3.4710653E-2,6.368275E-2,-6.642791E-2,-8.680883E-2,-6.2321287E-2,5.8304068E-2,6.0791917E-2,-1.03069484E-1,4.238578E-2,-6.9106825E-2,6.231898E-2,3.278653E-2,5.963058E-2,-9.585336E-2],"categories":[],"categories_nodes":[],"categories_segments":[],"categories_sizes":[],"default_left":[0,0,0,0,0,0,0,0,0,0,0,0,0,0,0,0,0,0,0,0,0,0,0,0,0,0,0,0,0,0,0,0,0,0,0,0,0,0,0,0,0,0,0,0,0,0,0,0,0,0,0,0,0,0,0],"id":15,"left_children":[1,3,5,7,-1,9,11,13,-1,15,17,19,21,-1,23,25,27,29,-1,31,33,35,37,-1,-1,-1,-1,-1,39,-1,-1,-1,41,43,45,47,49,51,53,-1,-1,-1,-1,-1,-1,-1,-1,-1,-1,-1,-1,-1,-1,-1,-1],"loss_changes":[9.824727E3,4.1710938E1,4.3547705E3,1.9738025E2,0E0,2.7740125E2,3.7741162E2,3.080966E2,0E0,1.1863977E2,1.3869778E2,5.910901E2,1.6067969E2,0E0,1.36035E1,1.379357E1,1.9741821E1,2.103083E1,0E0,2.651643E2,2.0176143E2,2.6763647E2,2.3735352E1,0E0,0E0,0E0,0E0,0E0,1.06690796E2,0E0,0E0,0E0,4.94693E1,3.9443665E0,5.259224E1,1.47974E2,5.6151337E2,1.7243164E1,1.07524506E2,0E0,0E0,0E0,0E0,0E0,0E0,0E0,0E0,0E0,0E0,0E0,0E0,0E0,0E0,0E0,0E0],"parents":[2147483647,0,0,1,1,2,2,3,3,5,5,6,6,7,7,9,9,10,10,11,11,12,12,14,14,15,15,16,16,17,17,19,19,20,20,21,21,22,22,28,28,32,32,33,33,34,34,35,35,36,36,37,37,38,38],"right_children":[2,4,6,8,-1,10,12,14,-1,16,18,20,22,-1,24,26,28,30,-1,32,34,36,38,-1,-1,-1,-1,-1,40,-1,-1,-1,42,44,46,48,50,52,54,-1,-1,-1,-1,-1,-1,-1,-1,-1,-1,-1,-1,-1,-1,-1,-1],"split_conditions":[1.6798599E-1,-8.811917E-1,8.5501776E2,-3.5947207E-1,-6.5245114E-2,1E0,2.182886E-1,8.584049E0,-6.521749E-2,-9.999422E-1,-9.73618E-1,-8.578495E-1,2.7581538E3,-6.465589E-2,1.0689481E-1,-3.5057855E-1,6.168508E0,5.487414E0,-6.320365E-2,1.36619E3,6.258885E-1,2.8724098E-1,9.659258E-1,-5.3266805E-2,6.576445E-2,6.357505E-2,-6.09315E-2,-6.523918E-2,-8.709214E-1,-4.982563E-2,6.930966E-2,-6.418591E-2,-9.449688E-1,2.0057513E-1,2.957764E3,9.6825075E-1,-2.9959467E-1,8.873661E-1,6.123802E-1,4.3149155E-2,-6.857704E-2,3.4710653E-2,6.368275E-2,-6.642791E-2,-8.680883E-2,-6.2321287E-2,5.8304068E-2,6.0791917E-2,-1.03069484E-1,4.238578E-2,-6.9106825E-2,6.231898E-2,3.278653E-2,5.963058E-2,-9.585336E-2],"split_indices":[6,12,3,11,0,7,6,0,0,12,2,12,3,0,6,2,0,0,0,4,12,1,7,0,0,0,0,0,1,0,0,0,12,6,3,11,12,2,12,0,0,0,0,0,0,0,0,0,0,0,0,0,0,0,0],"split_type":[0,0,0,0,0,0,0,0,0,0,0,0,0,0,0,0,0,0,0,0,0,0,0,0,0,0,0,0,0,0,0,0,0,0,0,0,0,0,0,0,0,0,0,0,0,0,0,0,0,0,0,0,0,0,0],"sum_hessian":[1.15987705E4,4.0610918E3,7.537678E3,8.7225946E2,3.1888323E3,1.2048961E3,6.332782E3,1.8996555E2,6.8229395E2,1.1034192E3,1.0147698E2,9.339584E2,5.3988237E3,1.04847176E2,8.511837E1,2.2288881E1,1.0811302E3,7.15077E1,2.9969284E1,6.9608014E2,2.378782E2,1.6620594E3,3.7367644E3,1.7622726E0,8.3356094E1,2.0599895E1,1.6889862E0,9.6302124E2,1.18109024E2,3.2259989E0,6.82817E1,5.128298E1,6.447972E2,1.8163097E2,5.624724E1,1.0149349E3,6.4712463E2,3.6614485E3,7.5315956E1,2.707635E1,9.103268E1,2.3800415E2,4.0679303E2,1.3288422E2,4.8746758E1,1.0321815E1,4.5925423E1,1.0018341E3,1.310075E1,5.025022E2,1.4462245E2,3.6078164E3,5.3632072E1,6.2784397E1,1.253156E1],"tree_param":{"num_deleted":"0","num_feature":"13","num_nodes":"55","size_leaf_vector":"1"}},{"base_weights":[2.6983637E-2,-1.1626314E0,1.1022323E0,-6.430484E-2,-5.2242947E-1,9.720223E-1,1.1807362E0,1.6606614E-1,-6.50868E-2,9.980697E-1,-1.9666955E0,-6.3036464E-2,1.1866071E0,-6.4605705E-2,1.2567548E0,1.220629E0,7.054413E-1,-5.1360227E-2,-1.0444329E-1,9.236897E-1,1.2247382E0,1.115753E0,6.5839685E-2,-9.818627E-2,1.2447674E0,9.544516E-1,-1.3059287E-1,-1.7437376E0,1.089851E0,1.2284633E0,-7.985681E-2,6.35399E-2,-6.662988E-2,-6.931621E-2,6.263448E-2,5.312502E-2,1.5048369E-2,-1.0116022E-1,2.738919E-2,-6.287625E-2,-1.289775E-1,5.776725E-2,-6.730216E-2,6.255901E-2,5.3389758E-2],"categories":[],"categories_nodes":[],"categories_segments":[],"categories_sizes":[],"default_left":[0,0,0,0,0,0,0,0,0,0,0,0,0,0,0,0,0,0,0,0,0,0,0,0,0,0,0,0,0,0,0,0,0,0,0,0,0,0,0,0,0,0,0,0,0],"id":16,"left_children":[1,3,5,-1,7,9,11,13,-1,15,17,-1,19,-1,21,23,25,-1,-1,27,29,31,-1,-1,33,35,37,39,41,43,-1,-1,-1,-1,-1,-1,-1,-1,-1,-1,-1,-1,-1,-1,-1],"loss_changes":[1.4655232E4,4.292671E2,6.03667E1,0E0,4.7296057E2,1.7565771E2,5.5242676E1,7.4702893E2,0E0,1.4566748E2,1.8115997E-1,0E0,3.637549E1,0E0,8.0493164E-1,1.005686E2,2.0295773E2,0E0,0E0,2.1373218E2,3.6274414E1,3.4633835E1,0E0,0E0,2.8158447E1,5.269513E1,2.893154E2,8.30175E0,7.3430176E1,1.0564453E1,0E0,0E0,0E0,0E0,0E0,0E0,0E0,0E0,0E0,0E0,0E0,0E0,0E0,0E0,0E0],"parents":[2147483647,0,0,1,1,2,2,4,4,5,5,6,6,7,7,9,9,10,10,12,12,14,14,15,15,16,16,19,19,20,20,21,21,24,24,25,25,26,26,27,27,28,28,29,29],"right_children":[2,4,6,-1,8,10,12,14,-1,16,18,-1,20,-1,22,24,26,-1,-1,28,30,32,-1,-1,34,36,38,40,42,44,-1,-1,-1,-1,-1,-1,-1,-1,-1,-1,-1,-1,-1,-1,-1],"split_conditions":[5.397384E2,2.8279077E2,3.0074258E3,-6.430484E-2,-3.5947207E-1,9.6825075E-1,1.6798599E-1,-4.8408842E-1,-6.50868E-2,2.8724098E-1,7.485112E2,-6.3036464E-2,2.182886E-1,-6.4605705E-2,1.6798599E-1,2.4727891E-1,5.445465E-1,-5.1360227E-2,-1.0444329E-1,-4.9906868E-1,1E0,6.515345E-1,6.5839685E-2,-9.818627E-2,-9.2367905E-1,8.073707E-1,8.207164E-1,6.391121E2,7.648913E-1,7.494342E-1,-7.985681E-2,6.35399E-2,-6.662988E-2,-6.931621E-2,6.263448E-2,5.312502E-2,1.5048369E-2,-1.0116022E-1,2.738919E-2,-6.287625E-2,-1.289775E-1,5.776725E-2,-6.730216E-2,6.255901E-2,5.3389758E-2],"split_indices":[5,5,3,0,11,11,6,11,0,1,5,0,6,0,6,6,2,0,0,11,7,1,0,0,1,11,2,5,11,2,0,0,0,0,0,0,0,0,0,0,0,0,0,0,0],"split_type":[0,0,0,0,0,0,0,0,0,0,0,0,0,0,0,0,0,0,0,0,0,0,0,0,0,0,0,0,0,0,0,0,0,0,0,0,0,0,0,0,0,0,0,0,0],"sum_hessian":[1.1455168E4,5.4383257E3,6.016842E3,4.5582427E3,8.800833E2,2.2681555E3,3.7486865E3,4.676842E2,4.123991E2,2.2488828E3,1.9272694E1,8.479945E0,3.7402065E3,2.0004811E2,2.6763608E2,1.2755721E3,9.7331055E2,3.3004143E0,1.597228E1,4.7693466E2,3.263272E3,8.5775536E1,1.8186055E2,8.991993E0,1.2665802E3,7.498333E2,2.2347725E2,2.7410654E1,4.4952402E2,3.259534E3,3.7380917E0,8.11195E1,4.656039E0,3.2799354E0,1.2633002E3,6.429074E2,1.0692591E2,5.844326E1,1.65034E2,1.8913029E1,8.497625E0,4.3826602E2,1.1257974E1,2.8498115E3,4.0972232E2],"tree_param":{"num_deleted":"0","num_feature":"13","num_nodes":"45","size_leaf_vector":"1"}},{"base_weights":[1.6159825E-2,-1.1370834E0,1.074958E0,-6.341352E-2,-4.7108242E-1,-6.850716E-2,1.0826341E0,3.5311547E-1,-6.371534E-2,9.3474054E-1,1.1700648E0,-6.466311E-2,1.2064955E0,1.0375258E0,2.307309E-1,7.0765394E-1,1.1916661E0,-4.0168297E-2,1.2192473E0,-7.013338E-2,1.0511266E0,-1.5507959E0,6.6787906E-2,1.2529149E0,-1.6217028E0,1.2134358E0,9.8058677E-1,-3.924274E-2,6.158628E-2,5.3000063E-2,-9.9462025E-2,-1.01746894E-1,-7.0212774E-2,-6.49084E-2,6.666293E-2,-1.1752518E-1,-6.804677E-2,5.3822625E-2,6.1365407E-2,-9.364761E-2,5.594324E-2],"categories":[],"categories_nodes":[],"categories_segments":[],"categories_sizes":[],"default_left":[0,0,0,0,0,0,0,0,0,0,0,0,0,0,0,0,0,0,0,0,0,0,0,0,0,0,0,0,0,0,0,0,0,0,0,0,0,0,0,0,0],"id":17,"left_children":[1,3,5,-1,7,-1,9,11,-1,13,15,-1,17,19,21,23,25,-1,27,-1,29,31,-1,33,35,37,39,-1,-1,-1,-1,-1,-1,-1,-1,-1,-1,-1,-1,-1,-1],"loss_changes":[1.3363689E4,4.571001E2,1.0857617E2,0E0,5.722079E2,0E0,7.2461914E1,6.015577E2,0E0,1.5305579E2,3.482666E1,0E0,8.201263E0,6.2815918E1,5.359173E2,2.0758438E2,1.4480957E1,0E0,7.9788513E0,0E0,5.171814E1,4.5402985E0,0E0,2.8725464E1,2.7179718E0,4.54541E0,1.2995752E2,0E0,0E0,0E0,0E0,0E0,0E0,0E0,0E0,0E0,0E0,0E0,0E0,0E0,0E0],"parents":[2147483647,0,0,1,1,2,2,4,4,6,6,7,7,9,9,10,10,12,12,13,13,14,14,15,15,16,16,18,18,20,20,21,21,23,23,24,24,25,25,26,26],"right_children":[2,4,6,-1,8,-1,10,12,-1,14,16,-1,18,20,22,24,26,-1,28,-1,30,32,-1,34,36,38,40,-1,-1,-1,-1,-1,-1,-1,-1,-1,-1,-1,-1,-1,-1],"split_conditions":[5.397384E2,2.8279077E2,1.733423E-1,-6.341352E-2,-8.729291E-1,-6.850716E-2,3.0074258E3,-9.268344E-1,-6.371534E-2,6.258885E-1,2.0057513E-1,-6.466311E-2,-8.660252E-1,2.0057513E-1,9.750985E-1,-2.5881913E-1,7.660705E-1,-4.0168297E-2,-4.3388376E-1,-7.013338E-2,1E0,-4.3388376E-1,6.6787906E-2,7.596216E-1,-9.268344E-1,2.182886E-1,8.4243935E-1,-3.924274E-2,6.158628E-2,5.3000063E-2,-9.9462025E-2,-1.01746894E-1,-7.0212774E-2,-6.49084E-2,6.666293E-2,-1.1752518E-1,-6.804677E-2,5.3822625E-2,6.1365407E-2,-9.364761E-2,5.594324E-2],"split_indices":[5,5,6,0,12,0,3,12,0,12,6,0,7,6,12,8,2,0,9,0,8,9,0,1,12,6,6,0,0,0,0,0,0,0,0,0,0,0,0,0,0],"split_type":[0,0,0,0,0,0,0,0,0,0,0,0,0,0,0,0,0,0,0,0,0,0,0,0,0,0,0,0,0,0,0,0,0,0,0,0,0,0,0,0,0],"sum_hessian":[1.0942408E4,5.237571E3,5.7048374E3,4.3749087E3,8.626619E2,1.7298311E1,5.687539E3,4.260487E2,4.366132E2,2.1174512E3,3.570088E3,1.452707E2,2.8077798E2,1.8472755E3,2.7017557E2,1.608387E2,3.4092493E3,1.3793081E0,2.7939868E2,9.672919E0,1.8376027E3,1.03273865E2,1.669017E2,1.3070508E2,3.0133615E1,3.0862048E3,3.2304428E2,1.345865E0,2.7805283E2,1.8329039E3,4.698779E0,2.1001688E1,8.227217E1,3.5279293E0,1.2717715E2,5.8289332E0,2.4304682E1,2.9102716E2,2.7951777E3,1.4350894E1,3.086934E2],"tree_param":{"num_deleted":"0","num_feature":"13","num_nodes":"41","size_leaf_vector":"1"}},{"base_weights":[2.1109388E-3,-1.1872431E0,6.5460694E-1,-9.573102E-1,-6.257657E-2,-1.1364881E0,9.32265E-1,-6.2478133E-2,-1.8994704E-1,-6.2620126E-2,2.704887E-1,5.889008E-1,1.1111571E0,-9.0869194E-1,1.1622617E0,-6.032287E-2,1.1737262E0,-2.932132E-1,9.2799634E-1,8.02095E-1,1.1571988E0,-6.2427163E-2,6.288908E-1,-5.467043E-2,6.2414706E-2,6.481883E-2,-4.2654846E-2,-6.407221E-2,4.6405777E-1,1.1614534E0,4.2637318E-1,1.1472784E0,-5.1496637E-1,1.1611024E0,-7.549812E-2,-6.5430574E-2,6.302392E-2,4.3990254E-2,-7.411218E-2,-7.28876E-2,5.88618E-2,5.8251657E-2,-6.6987805E-2,5.986957E-2,-1.1254926E-1,-8.099492E-2,5.088022E-2,5.9642244E-2,4.41793E-2],"categories":[],"categories_nodes":[],"categories_segments":[],"categories_sizes":[],"default_left":[0,0,0,0,0,0,0,0,0,0,0,0,0,0,0,0,0,0,0,0,0,0,0,0,0,0,0,0,0,0,0,0,0,0,0,0,0,0,0,0,0,0,0,0,0,0,0,0,0],"id":18,"left_children":[1,3,5,7,-1,9,11,-1,13,-1,15,17,19,21,23,-1,25,27,29,31,33,-1,35,-1,-1,-1,-1,-1,37,39,41,43,45,47,-1,-1,-1,-1,-1,-1,-1,-1,-1,-1,-1,-1,-1,-1,-1],"loss_changes":[8.1435273E3,5.3753418E1,3.370899E3,1.8288116E2,0E0,1.4873425E2,3.5973926E2,0E0,2.2107993E2,0E0,9.490454E1,6.020619E2,5.3946777E1,7.832018E1,1.669735E1,0E0,1.2042065E1,4.192244E2,1.6971631E2,2.2938663E2,3.6674316E1,0E0,3.5331043E1,0E0,0E0,0E0,0E0,0E0,2.581682E2,4.2693115E1,6.0582605E2,7.06543E1,1.7978857E2,2.8454102E1,0E0,0E0,0E0,0E0,0E0,0E0,0E0,0E0,0E0,0E0,0E0,0E0,0E0,0E0,0E0],"parents":[2147483647,0,0,1,1,2,2,3,3,5,5,6,6,8,8,10,10,11,11,12,12,13,13,14,14,16,16,17,17,18,18,19,19,20,20,22,22,28,28,29,29,30,30,31,31,32,32,33,33],"right_children":[2,4,6,8,-1,10,12,-1,14,-1,16,18,20,22,24,-1,26,28,30,32,34,-1,36,-1,-1,-1,-1,-1,38,40,42,44,46,48,-1,-1,-1,-1,-1,-1,-1,-1,-1,-1,-1,-1,-1,-1,-1],"split_conditions":[1.733423E-1,-8.811917E-1,6.168508E0,2.021163E3,-6.257657E-2,1E0,2.7279128E3,-6.2478133E-2,-9.268344E-1,-6.2620126E-2,5.726651E0,3.0496082E-1,2.182886E-1,1.6798599E-1,1.0689481E-1,-6.032287E-2,-9.73618E-1,1.475697E3,2.5250813E-1,-8.578495E-1,1E0,-6.2427163E-2,1.163829E1,-5.467043E-2,6.2414706E-2,6.481883E-2,-4.2654846E-2,-6.407221E-2,-8.644082E-1,-9.2367905E-1,-2.9959467E-1,9.749279E-1,4.6801528E-1,7.494342E-1,-7.549812E-2,-6.5430574E-2,6.302392E-2,4.3990254E-2,-7.411218E-2,-7.28876E-2,5.88618E-2,5.8251657E-2,-6.6987805E-2,5.986957E-2,-1.1254926E-1,-8.099492E-2,5.088022E-2,5.9642244E-2,4.41793E-2],"split_indices":[6,12,0,3,0,7,3,0,12,0,0,6,6,6,6,0,2,4,1,12,7,0,0,0,0,0,0,0,12,1,12,9,12,2,0,0,0,0,0,0,0,0,0,0,0,0,0,0,0],"split_type":[0,0,0,0,0,0,0,0,0,0,0,0,0,0,0,0,0,0,0,0,0,0,0,0,0,0,0,0,0,0,0,0,0,0,0,0,0,0,0,0,0,0,0,0,0,0,0,0,0],"sum_hessian":[1.0491575E4,3.7164678E3,6.775108E3,8.1553204E2,2.9009355E3,9.08907E2,5.8662007E3,5.9014526E2,2.2538681E2,8.398274E2,6.907959E1,2.0108612E3,3.8553396E3,1.4737825E2,7.800855E1,2.6087086E1,4.29925E1,5.583972E2,1.452464E3,5.022596E2,3.3530798E3,1.20853935E2,2.6524319E1,2.4357872E0,7.557277E1,4.0879147E1,2.113355E0,2.4195554E2,3.164417E2,9.902725E2,4.6219144E2,3.98062E2,1.0419759E2,3.3487434E3,4.3365293E0,6.257237E0,2.0267082E1,2.611959E2,5.524581E1,5.384114E0,9.848884E2,3.261316E2,1.3605984E2,3.929155E2,5.146529E0,6.0512867E1,4.3684723E1,3.002067E3,3.4667657E2],"tree_param":{"num_deleted":"0","num_feature":"13","num_nodes":"49","size_leaf_vector":"1"}},{"base_weights":[8.827912E-3,-1.1292138E0,1.0384505E0,-6.1847325E-2,-4.9134693E-1,9.0369004E-1,1.1223545E0,3.1356367E-1,-6.203994E-2,9.328762E-1,-1.9333097E0,-6.156347E-2,1.1288544E0,1.1895298E0,-6.334448E-2,1.0357087E0,1.4554954E-1,-5.418519E-2,-1.034418E-1,1.1387838E0,1.0360011E-1,6.148508E-2,9.6966165E-1,3.1564185E-1,1.0833354E0,1.3040067E0,-1.4871036E0,8.268083E-1,1.1658555E0,-7.364739E-2,6.059683E-2,-6.997623E-2,6.0341936E-2,4.1643642E-2,-8.4735446E-2,5.9012957E-2,3.4209207E-2,6.1940867E-2,7.657218E-2,-9.4221056E-2,-6.8718575E-2,-6.435565E-2,5.0306957E-2,5.8403034E-2,-7.084973E-2],"categories":[],"categories_nodes":[],"categories_segments":[],"categories_sizes":[],"default_left":[0,0,0,0,0,0,0,0,0,0,0,0,0,0,0,0,0,0,0,0,0,0,0,0,0,0,0,0,0,0,0,0,0,0,0,0,0,0,0,0,0,0,0,0,0],"id":19,"left_children":[1,3,5,-1,7,9,11,13,-1,15,17,-1,19,21,-1,23,25,-1,-1,27,29,-1,31,33,35,37,39,41,43,-1,-1,-1,-1,-1,-1,-1,-1,-1,-1,-1,-1,-1,-1,-1,-1],"loss_changes":[1.191915E4,3.3141846E2,5.936963E1,0E0,4.2253177E2,1.7190308E2,5.1676758E1,4.6973193E2,0E0,1.6453284E2,2.0415497E-1,0E0,3.325879E1,7.3413086E-1,0E0,6.1351196E1,4.4856802E2,0E0,0E0,2.6458984E1,5.8658062E1,0E0,2.3280392E1,1.1892535E2,6.4454346E1,1.5870667E-1,1.8209991E0,1.0088289E2,1.8658203E1,0E0,0E0,0E0,0E0,0E0,0E0,0E0,0E0,0E0,0E0,0E0,0E0,0E0,0E0,0E0,0E0],"parents":[2147483647,0,0,1,1,2,2,4,4,5,5,6,6,7,7,9,9,10,10,12,12,13,13,15,15,16,16,19,19,20,20,22,22,23,23,24,24,25,25,26,26,27,27,28,28],"right_children":[2,4,6,-1,8,10,12,14,-1,16,18,-1,20,22,-1,24,26,-1,-1,28,30,-1,32,34,36,38,40,42,44,-1,-1,-1,-1,-1,-1,-1,-1,-1,-1,-1,-1,-1,-1,-1,-1],"split_conditions":[5.397384E2,3.0243164E2,3.0074258E3,-6.1847325E-2,-8.729291E-1,9.6825075E-1,1.6798599E-1,-3.5947207E-1,-6.203994E-2,6.258885E-1,7.485112E2,-6.156347E-2,8.873661E-1,8.660254E-1,-6.334448E-2,2.4297322E-1,1.9864802E-1,-5.418519E-2,-1.034418E-1,2.0286858E-1,9.5754296E-1,6.148508E-2,4.5150238E2,-8.644082E-1,8.211002E-1,4.400923E-1,2.4893953E-1,-5.1390105E-1,2.686188E3,-7.364739E-2,6.059683E-2,-6.997623E-2,6.0341936E-2,4.1643642E-2,-8.4735446E-2,5.9012957E-2,3.4209207E-2,6.1940867E-2,7.657218E-2,-9.4221056E-2,-6.8718575E-2,-6.435565E-2,5.0306957E-2,5.8403034E-2,-7.084973E-2],"split_indices":[5,5,3,0,12,11,6,11,0,12,5,0,2,7,0,6,11,0,0,6,12,0,5,12,11,1,11,11,4,0,0,0,0,0,0,0,0,0,0,0,0,0,0,0,0],"split_type":[0,0,0,0,0,0,0,0,0,0,0,0,0,0,0,0,0,0,0,0,0,0,0,0,0,0,0,0,0,0,0,0,0,0,0,0,0,0,0,0,0,0,0,0,0],"sum_hessian":[1.0170063E4,4.8306494E3,5.3394136E3,4.1318594E3,6.9879016E2,2.0533103E3,3.2861033E3,3.3720935E2,3.6158084E2,2.0330658E3,2.0244398E1,8.531116E0,3.277572E3,2.1711867E2,1.2009067E2,1.7979241E3,2.3514177E2,4.022686E0,1.6221712E1,3.246024E3,3.1548193E1,1.7969412E2,3.742455E1,1.1201413E2,1.6859099E3,1.3766335E2,9.747842E1,2.617015E2,2.9843225E3,1.2887484E1,1.866071E1,2.95964E0,3.4464912E1,8.9558E1,2.2456127E1,1.3549406E3,3.309693E2,1.120063E2,2.5657047E1,1.8071316E1,7.9407104E1,1.9981833E1,2.4171968E2,2.982324E3,1.9984157E0],"tree_param":{"num_deleted":"0","num_feature":"13","num_nodes":"45","size_leaf_vector":"1"}},{"base_weights":[1.9678967E-2,-1.0917683E0,1.020459E0,-6.1113615E-2,-4.3744963E-1,-6.544947E-2,1.0272294E0,3.5374942E-1,-6.1353028E-2,1.0806533E0,7.756608E-1,1.2092701E0,-6.255066E-2,8.918046E-1,1.137564E0,1.0568972E0,-7.461384E-1,6.348412E-2,1.0868028E0,9.7100365E-1,-7.475857E-2,1.2120827E0,1.0387416E0,1.0817031E0,-8.335603E-2,-1.4452416E0,6.0647946E-2,-7.449051E-2,5.9214246E-2,-8.567245E-2,4.98577E-2,-7.2827816E-2,6.0726043E-2,5.454871E-2,-1.3753447E-1,-6.8593234E-2,5.5242922E-2,-6.472952E-2,-8.0229126E-2],"categories":[],"categories_nodes":[],"categories_segments":[],"categories_sizes":[],"default_left":[0,0,0,0,0,0,0,0,0,0,0,0,0,0,0,0,0,0,0,0,0,0,0,0,0,0,0,0,0,0,0,0,0,0,0,0,0,0,0],"id":20,"left_children":[1,3,5,-1,7,-1,9,11,-1,13,15,17,-1,19,21,23,25,-1,27,29,-1,31,33,35,-1,37,-1,-1,-1,-1,-1,-1,-1,-1,-1,-1,-1,-1,-1],"loss_changes":[1.1006809E4,3.998208E2,8.346387E1,0E0,4.8846887E2,0E0,6.894629E1,5.3828455E2,0E0,4.498877E1,3.915678E2,5.1065063E-1,0E0,1.897091E2,2.2935547E1,5.3905273E1,1.9761536E2,0E0,2.470996E1,6.9412476E1,0E0,1.3917236E1,2.839491E2,4.496112E1,0E0,4.6368408E-1,0E0,0E0,0E0,0E0,0E0,0E0,0E0,0E0,0E0,0E0,0E0,0E0,0E0],"parents":[2147483647,0,0,1,1,2,2,4,4,6,6,7,7,9,9,10,10,11,11,13,13,14,14,15,15,16,16,18,18,19,19,21,21,22,22,23,23,25,25],"right_children":[2,4,6,-1,8,-1,10,12,-1,14,16,18,-1,20,22,24,26,-1,28,30,-1,32,34,36,-1,38,-1,-1,-1,-1,-1,-1,-1,-1,-1,-1,-1,-1,-1],"split_conditions":[5.397384E2,2.8279077E2,1.733423E-1,-6.1113615E-2,-8.729291E-1,-6.544947E-2,6.652865E-1,-3.5947207E-1,-6.1353028E-2,7.485112E2,2.8210753E-1,7.0710677E-1,-6.255066E-2,7.9710144E-1,-2.4998091E-1,1.523207E1,1.475876E1,6.348412E-2,2.5011875E3,-8.4372836E-1,-7.475857E-2,6.597011E0,5.1038986E-1,6.725106E0,-8.335603E-2,1.001989E1,6.0647946E-2,-7.449051E-2,5.9214246E-2,-8.567245E-2,4.98577E-2,-7.2827816E-2,6.0726043E-2,5.454871E-2,-1.3753447E-1,-6.8593234E-2,5.5242922E-2,-6.472952E-2,-8.0229126E-2],"split_indices":[5,5,6,0,12,0,12,11,0,5,11,7,0,11,12,0,0,0,3,11,0,0,2,0,0,0,0,0,0,0,0,0,0,0,0,0,0,0,0],"split_type":[0,0,0,0,0,0,0,0,0,0,0,0,0,0,0,0,0,0,0,0,0,0,0,0,0,0,0,0,0,0,0,0,0,0,0,0,0,0,0],"sum_hessian":[9.89341E3,4.687487E3,5.205924E3,3.9073057E3,7.801813E2,1.4529283E1,5.1913945E3,3.8997446E2,3.902068E2,4.2793276E3,9.1206696E2,2.5452838E2,1.3544609E2,9.948266E2,3.284501E3,7.700612E2,1.4200578E2,1.6417479E2,9.0353584E1,9.6345276E2,3.1373838E1,1.8660826E3,1.4184183E3,7.637095E2,6.351719E0,1.0485176E2,3.7154022E1,2.7730978E0,8.758049E1,8.672349E0,9.547804E2,1.1589524E0,1.8649237E3,1.3998354E3,1.8582905E1,6.595488E0,7.57114E2,5.8585682E1,4.6266083E1],"tree_param":{"num_deleted":"0","num_feature":"13","num_nodes":"39","size_leaf_vector":"1"}},{"base_weights":[-7.6370668E-3,-1.0974001E0,9.9193466E-1,-6.0453694E-2,-5.126532E-1,8.4763557E-1,1.0806084E0,2.6031375E-1,-6.0681224E-2,8.7620217E-1,-1.8661306E0,5.955443E-1,1.1146375E0,1.1801856E0,-6.1702687E-2,9.7976977E-1,1.3174473E-1,-5.0806772E-2,-9.9894024E-2,9.8644024E-1,-6.455181E-2,1.1176307E0,-6.841464E-2,7.223798E-2,1.1381755E0,6.0522273E-2,1.0341597E0,6.356327E-2,-1.4485095E0,-2.7803302E-2,6.135186E-2,1.1413717E0,8.9517653E-1,-4.9378835E-2,5.7879556E-2,3.148264E-2,-9.8139666E-2,5.703956E-2,2.9725317E-2,-9.196926E-2,-6.653889E-2,-1.0268458E-1,5.9413146E-2,5.745674E-2,4.0082786E-2,5.486237E-2,-7.675072E-2],"categories":[],"categories_nodes":[],"categories_segments":[],"categories_sizes":[],"default_left":[0,0,0,0,0,0,0,0,0,0,0,0,0,0,0,0,0,0,0,0,0,0,0,0,0,0,0,0,0,0,0,0,0,0,0,0,0,0,0,0,0,0,0,0,0,0,0],"id":21,"left_children":[1,3,5,-1,7,9,11,13,-1,15,17,19,21,23,-1,25,27,-1,-1,29,-1,31,-1,-1,33,35,37,-1,39,41,-1,43,45,-1,-1,-1,-1,-1,-1,-1,-1,-1,-1,-1,-1,-1,-1],"loss_changes":[1.020213E4,2.9197656E2,6.159082E1,0E0,3.9056293E2,1.4613635E2,4.9219727E1,4.7343994E2,0E0,1.4214209E2,1.8009186E-1,1.4895615E2,2.2508545E1,7.2351074E-1,0E0,8.092041E1,4.0972696E2,0E0,0E0,4.0653015E1,0E0,1.3871338E1,0E0,0E0,8.925629E0,1.06652084E2,7.101135E1,0E0,1.9409943E0,8.347609E1,0E0,5.7888184E0,1.3749992E2,0E0,0E0,0E0,0E0,0E0,0E0,0E0,0E0,0E0,0E0,0E0,0E0,0E0,0E0],"parents":[2147483647,0,0,1,1,2,2,4,4,5,5,6,6,7,7,9,9,10,10,11,11,12,12,13,13,15,15,16,16,19,19,21,21,24,24,25,25,26,26,28,28,29,29,31,31,32,32],"right_children":[2,4,6,-1,8,10,12,14,-1,16,18,20,22,24,-1,26,28,-1,-1,30,-1,32,-1,-1,34,36,38,-1,40,42,-1,44,46,-1,-1,-1,-1,-1,-1,-1,-1,-1,-1,-1,-1,-1,-1],"split_conditions":[5.397384E2,2.8279077E2,3.0074258E3,-6.0453694E-2,-8.729291E-1,9.6825075E-1,2.0057513E-1,-3.5947207E-1,-6.0681224E-2,6.258885E-1,7.485112E2,-8.578495E-1,2.686188E3,8.24663E0,-6.1702687E-2,2.4297322E-1,1.9864802E-1,-5.0806772E-2,-9.9894024E-2,-9.556633E-1,-6.455181E-2,7.660705E-1,-6.841464E-2,7.223798E-2,3.0243164E2,-5.000002E-1,8.211002E-1,6.356327E-2,2.4893953E-1,1.187561E1,6.135186E-2,9.659259E-1,2.7177674E-1,-4.9378835E-2,5.7879556E-2,3.148264E-2,-9.8139666E-2,5.703956E-2,2.9725317E-2,-9.196926E-2,-6.653889E-2,-1.0268458E-1,5.9413146E-2,5.745674E-2,4.0082786E-2,5.486237E-2,-7.675072E-2],"split_indices":[5,5,3,0,12,11,6,11,0,12,5,12,4,0,0,6,11,0,0,12,0,2,0,0,5,7,11,0,11,0,0,7,11,0,0,0,0,0,0,0,0,0,0,0,0,0,0],"split_type":[0,0,0,0,0,0,0,0,0,0,0,0,0,0,0,0,0,0,0,0,0,0,0,0,0,0,0,0,0,0,0,0,0,0,0,0,0,0,0,0,0,0,0,0,0,0,0],"sum_hessian":[9.3638E3,4.479747E3,4.8840522E3,3.7605054E3,7.19242E2,1.8629777E3,3.0210747E3,3.4235397E2,3.76888E2,1.8442413E3,1.8736382E1,1.9925938E2,2.8218152E3,2.1204063E2,1.3031334E2,1.6187303E3,2.2551093E2,3.6836479E0,1.5052734E1,1.6545462E2,3.380476E1,2.8189668E3,2.8484855E0,2.4479712E1,1.8756093E2,9.054442E1,1.5281859E3,1.3114084E2,9.437008E1,3.1893042E1,1.3356158E2,2.5433962E3,2.7557037E2,1.246267E0,1.8631467E2,7.120441E1,1.9340008E1,1.2286097E3,2.995762E2,1.8459625E1,7.591045E1,1.1704799E1,2.0188244E1,2.4842454E3,5.915092E1,2.5492206E2,2.0648329E1],"tree_param":{"num_deleted":"0","num_feature":"13","num_nodes":"47","size_leaf_vector":"1"}},{"base_weights":[1.4837658E-2,-1.0945251E0,9.848508E-1,-5.9838366E-2,-5.457628E-1,9.19655E-1,1.1568079E0,2.0819424E-1,-6.0020693E-2,9.9013126E-1,2.95086E-1,1.1680596E0,-8.716809E-2,1.1597892E0,-6.1019238E-2,1.0097334E0,-6.4491594E-1,1.226851E0,-1.567657E0,1.1706245E0,-5.2715696E-2,6.324018E-2,1.0555557E0,6.878165E-1,1.0592154E0,-1.9345428E0,5.6978382E-2,6.2302668E-2,4.7402732E-2,-2.0324502E0,-6.7977116E-2,6.0311276E-2,1.108895E0,-6.73632E-2,5.6482654E-2,-6.529843E-2,4.2691257E-2,5.5960294E-2,4.205661E-2,-6.015397E-2,-1.06052354E-1,-7.666175E-2,-1.227584E-1,5.856771E-2,-8.04674E-2],"categories":[],"categories_nodes":[],"categories_segments":[],"categories_sizes":[],"default_left":[0,0,0,0,0,0,0,0,0,0,0,0,0,0,0,0,0,0,0,0,0,0,0,0,0,0,0,0,0,0,0,0,0,0,0,0,0,0,0,0,0,0,0,0,0],"id":22,"left_children":[1,3,5,-1,7,9,11,13,-1,15,17,19,-1,21,-1,23,25,27,29,31,-1,-1,33,35,37,39,-1,-1,-1,41,-1,-1,43,-1,-1,-1,-1,-1,-1,-1,-1,-1,-1,-1,-1],"loss_changes":[9.923069E3,2.4070117E2,5.4089844E1,0E0,3.3461682E2,1.5694043E2,4.6043213E1,4.3057306E2,0E0,1.0351489E2,6.3304565E2,8.89502E0,0E0,7.445679E-1,0E0,4.9795654E1,9.110802E1,1.19262695E-1,9.007111E0,1.6136475E0,0E0,0E0,1.9574364E1,1.419287E2,3.5001953E1,5.580368E-1,0E0,0E0,0E0,3.7509308E0,0E0,0E0,8.73844E1,0E0,0E0,0E0,0E0,0E0,0E0,0E0,0E0,0E0,0E0,0E0,0E0],"parents":[2147483647,0,0,1,1,2,2,4,4,5,5,6,6,7,7,9,9,10,10,11,11,13,13,15,15,16,16,17,17,18,18,19,19,22,22,23,23,24,24,25,25,29,29,32,32],"right_children":[2,4,6,-1,8,10,12,14,-1,16,18,20,-1,22,-1,24,26,28,30,32,-1,-1,34,36,38,40,-1,-1,-1,42,-1,-1,44,-1,-1,-1,-1,-1,-1,-1,-1,-1,-1,-1,-1],"split_conditions":[5.397384E2,2.8279077E2,3.20018E3,-5.9838366E-2,-8.729291E-1,6.652865E-1,9.659259E-1,-3.5947207E-1,-6.0020693E-2,9.888537E-1,2.3224269E-1,1E0,-8.716809E-2,1.782635E3,-6.1019238E-2,6.391121E2,1.475876E1,1.812095E3,2.9856887E-1,8.5227484E-1,-5.2715696E-2,6.324018E-2,3.6581836E2,-5.4310536E-1,8.211002E-1,7.485112E2,5.6978382E-2,6.2302668E-2,4.7402732E-2,8.299761E0,-6.7977116E-2,6.0311276E-2,2.8210753E-1,-6.73632E-2,5.6482654E-2,-6.529843E-2,4.2691257E-2,5.5960294E-2,4.205661E-2,-6.015397E-2,-1.06052354E-1,-7.666175E-2,-1.227584E-1,5.856771E-2,-8.04674E-2],"split_indices":[5,5,5,0,12,12,7,11,0,11,11,8,0,4,0,5,0,4,11,12,0,0,5,11,11,5,0,0,0,0,0,0,11,0,0,0,0,0,0,0,0,0,0,0,0],"split_type":[0,0,0,0,0,0,0,0,0,0,0,0,0,0,0,0,0,0,0,0,0,0,0,0,0,0,0,0,0,0,0,0,0,0,0,0,0,0,0,0,0,0,0,0,0],"sum_hessian":[9.219355E3,4.3006997E3,4.918656E3,3.624266E3,6.764338E2,3.5710698E3,1.3475858E3,3.146898E2,3.6174402E2,3.2084446E3,3.626254E2,1.3429728E3,4.6130447E0,1.8898955E2,1.2570023E2,3.170813E3,3.763155E1,2.4194377E2,1.20681625E2,1.3418973E3,1.0754656E0,8.859575E1,1.0039379E2,4.2443735E2,2.7463755E3,2.1795841E1,1.5835709E1,2.231077E2,1.883608E1,3.461289E1,8.606873E1,8.3930756E2,5.0258975E2,2.489283E0,9.790451E1,3.2095802E1,3.9234155E2,2.1506436E3,5.957321E2,5.9420385E0,1.5853804E1,1.7992016E1,1.6620874E1,4.9185703E2,1.0732723E1],"tree_param":{"num_deleted":"0","num_feature":"13","num_nodes":"45","size_leaf_vector":"1"}},{"base_weights":[-1.5466868E-2,-1.0575083E0,9.5393443E-1,-5.9267607E-2,-4.1990858E-1,-6.467488E-2,9.614262E-1,3.400614E-1,-5.944423E-2,1.0188257E0,7.2180617E-1,1.1529881E0,-6.0320295E-2,8.6959666E-1,1.0699946E0,1.1027899E0,2.743449E-1,9.9968994E-1,6.0680877E-2,9.2957926E-1,-7.359248E-2,-6.2441505E-2,1.0732069E0,-2.0142763E0,1.1761285E0,1.1444254E0,-8.285325E-1,5.8275905E-2,-6.454884E-2,5.396841E-2,2.467251E-2,4.8186507E-2,5.6270868E-2,-6.485975E-2,-1.343725E-1,-7.377073E-2,5.9335142E-2,-6.475069E-2,5.9366293E-2,-8.271863E-2,4.041131E-2],"categories":[],"categories_nodes":[],"categories_segments":[],"categories_sizes":[],"default_left":[0,0,0,0,0,0,0,0,0,0,0,0,0,0,0,0,0,0,0,0,0,0,0,0,0,0,0,0,0,0,0,0,0,0,0,0,0,0,0,0,0],"id":23,"left_children":[1,3,5,-1,7,-1,9,11,-1,13,15,17,-1,19,21,23,25,27,-1,29,-1,-1,31,33,35,37,39,-1,-1,-1,-1,-1,-1,-1,-1,-1,-1,-1,-1,-1,-1],"loss_changes":[8.74751E3,3.3969043E2,7.6778564E1,0E0,4.0865845E2,0E0,6.077002E1,4.440754E2,0E0,2.6598389E1,1.476048E2,9.3670654E-1,0E0,1.3140424E2,2.130542E1,1.0942023E2,3.8510083E2,2.8561943E1,0E0,5.8481873E1,0E0,0E0,1.4217773E1,1.8881149E0,1.4596802E1,2.5001038E1,2.4075906E2,0E0,0E0,0E0,0E0,0E0,0E0,0E0,0E0,0E0,0E0,0E0,0E0,0E0,0E0],"parents":[2147483647,0,0,1,1,2,2,4,4,6,6,7,7,9,9,10,10,11,11,13,13,14,14,15,15,16,16,17,17,19,19,22,22,23,23,24,24,25,25,26,26],"right_children":[2,4,6,-1,8,-1,10,12,-1,14,16,18,-1,20,22,24,26,28,-1,30,-1,-1,32,34,36,38,40,-1,-1,-1,-1,-1,-1,-1,-1,-1,-1,-1,-1,-1,-1],"split_conditions":[5.397384E2,2.8279077E2,1.733423E-1,-5.9267607E-2,-8.729291E-1,-6.467488E-2,5.9710824E-1,-3.5947207E-1,-5.944423E-2,7.485112E2,2.3224269E-1,1.6798599E-1,-6.0320295E-2,7.9710144E-1,6.470432E0,4.7087958E-1,-2.4998091E-1,6.515345E-1,6.0680877E-2,-8.578495E-1,-7.359248E-2,-6.2441505E-2,2.8233767E3,2.0795658E-1,7.571588E0,6.863194E2,3.20018E3,5.8275905E-2,-6.454884E-2,5.396841E-2,2.467251E-2,4.8186507E-2,5.6270868E-2,-6.485975E-2,-1.343725E-1,-7.377073E-2,5.9335142E-2,-6.475069E-2,5.9366293E-2,-8.271863E-2,4.041131E-2],"split_indices":[5,5,6,0,12,0,2,11,0,5,11,6,0,11,0,6,12,1,0,12,0,0,3,6,0,5,5,0,0,0,0,0,0,0,0,0,0,0,0,0,0],"split_type":[0,0,0,0,0,0,0,0,0,0,0,0,0,0,0,0,0,0,0,0,0,0,0,0,0,0,0,0,0,0,0,0,0,0,0,0,0,0,0,0,0],"sum_hessian":[8.6575625E3,4.17241E3,4.4851523E3,3.4748215E3,6.9758844E2,1.4331243E1,4.470821E3,3.5112927E2,3.4645917E2,3.6042043E3,8.6661664E2,2.3031482E2,1.2081445E2,9.248784E2,2.679326E3,4.672876E2,3.9932904E2,7.023016E1,1.6008466E2,9.023648E2,2.251359E1,3.1701548E0,2.6761558E3,1.0133288E1,4.5715433E2,2.2320264E2,1.7612639E2,6.5947235E1,4.282929E0,6.70579E2,2.317858E2,8.7044275E2,1.805713E3,6.3238974E0,3.8093913E0,1.2656285E0,4.5588867E2,3.3530366E0,2.198496E2,1.170547E2,5.9071686E1],"tree_param":{"num_deleted":"0","num_feature":"13","num_nodes":"41","size_leaf_vector":"1"}},{"base_weights":[3.3332268E-4,-1.1228235E0,5.759493E-1,-9.3435866E-1,-5.871139E-2,-9.021204E-1,8.5299736E-1,-5.8767844E-2,-8.234685E-2,-5.863556E-2,-2.0611149E-1,2.0864183E-1,9.1673434E-1,-5.7946272E-2,1.1296592E0,7.7132106E-1,-5.8359314E-2,-5.961596E-2,4.5786032E-1,6.787019E-1,1.0423641E0,-4.178459E-2,5.890419E-2,1.0312248E0,-7.879604E-2,6.941785E-1,-6.06377E-2,9.8160064E-1,2.4586917E-1,1.0455096E0,-7.465116E-2,5.8497895E-2,-6.643383E-2,-5.638629E-2,4.2362567E-2,-6.919762E-2,5.2069914E-2,2.1277966E-2,-3.442674E-2,-9.444281E-2,5.2397806E-2],"categories":[],"categories_nodes":[],"categories_segments":[],"categories_sizes":[],"default_left":[0,0,0,0,0,0,0,0,0,0,0,0,0,0,0,0,0,0,0,0,0,0,0,0,0,0,0,0,0,0,0,0,0,0,0,0,0,0,0,0,0],"id":24,"left_children":[1,3,5,7,-1,9,11,-1,13,-1,15,17,19,-1,21,23,-1,-1,25,27,29,-1,-1,31,-1,33,-1,35,37,39,-1,-1,-1,-1,-1,-1,-1,-1,-1,-1,-1],"loss_changes":[5.468511E3,2.666919E1,2.2908508E3,1.2702673E2,0E0,1.6610583E2,1.932522E2,0E0,1.8082983E2,0E0,2.3431317E2,1.4902635E2,1.2745801E2,0E0,7.1922684E0,7.7144516E1,0E0,0E0,1.4366531E2,1.9424744E2,2.3918457E1,0E0,0E0,3.824077E1,0E0,8.952028E1,0E0,1.2484473E2,1.03061905E2,2.2084473E1,0E0,0E0,0E0,0E0,0E0,0E0,0E0,0E0,0E0,0E0,0E0],"parents":[2147483647,0,0,1,1,2,2,3,3,5,5,6,6,8,8,10,10,11,11,12,12,14,14,15,15,18,18,19,19,20,20,23,23,25,25,27,27,28,28,29,29],"right_children":[2,4,6,8,-1,10,12,-1,14,-1,16,18,20,-1,22,24,-1,-1,26,28,30,-1,-1,32,-1,34,-1,36,38,40,-1,-1,-1,-1,-1,-1,-1,-1,-1,-1,-1],"split_conditions":[1.6798599E-1,-3.5947207E-1,8.5501776E2,-4.6896538E-1,-5.871139E-2,5.5110315E2,2.0057513E-1,-5.8767844E-2,8.584049E0,-5.863556E-2,2.831333E-1,-4.8408842E-1,1.001989E1,-5.7946272E-2,1.0689481E-1,8.334749E-2,-5.8359314E-2,-5.961596E-2,5.0835645E-1,4.400923E-1,2.686188E3,-4.178459E-2,5.890419E-2,7.9710144E-1,-7.879604E-2,1.6642334E3,-6.06377E-2,2.4727891E-1,6.390337E-1,-9.721585E-1,-7.465116E-2,5.8497895E-2,-6.643383E-2,-5.638629E-2,4.2362567E-2,-6.919762E-2,5.2069914E-2,2.1277966E-2,-3.442674E-2,-9.444281E-2,5.2397806E-2],"split_indices":[6,11,3,11,0,3,6,0,0,0,4,11,0,0,6,2,0,0,11,1,4,0,0,11,0,3,0,6,2,1,0,0,0,0,0,0,0,0,0,0,0],"split_type":[0,0,0,0,0,0,0,0,0,0,0,0,0,0,0,0,0,0,0,0,0,0,0,0,0,0,0,0,0,0,0,0,0,0,0,0,0,0,0,0,0],"sum_hessian":[8.456549E3,2.865114E3,5.591435E3,6.181082E2,2.2470059E3,8.8226044E2,4.7091743E3,4.8152548E2,1.3658272E2,6.347865E2,2.4747395E2,4.2426825E2,4.2849062E3,7.235571E1,6.422701E1,1.2279073E2,1.2468322E2,6.3503635E1,3.6076462E2,1.4824634E3,2.8024429E3,1.1535044E0,6.3073505E1,1.1105462E2,1.1736113E1,3.165686E2,4.419601E1,8.7139105E2,6.1107227E2,2.7995574E3,2.8856087E0,1.0536471E2,5.6899095E0,2.4042501E1,2.925261E2,2.0938383E1,8.504527E2,5.129703E2,9.810197E1,1.689818E0,2.7978674E3],"tree_param":{"num_deleted":"0","num_feature":"13","num_nodes":"41","size_leaf_vector":"1"}},{"base_weights":[3.5354465E-2,-1.0374222E0,9.4348365E-1,-5.824226E-2,-4.1117907E-1,9.9382615E-1,7.142582E-1,3.303385E-1,-5.8469117E-2,7.55312E-1,1.0666242E0,9.885421E-1,-1.0364199E0,1.1281059E0,-5.955183E-2,1.0143497E0,2.595561E-2,1.1243447E0,9.133443E-1,1.023017E0,-1.0718035E-1,-1.3911542E0,5.3616285E-2,9.6683204E-1,5.9572395E-2,1.0239729E0,-1.0723648E-1,-2.172237E0,4.4278768E-1,-6.62882E-2,1.1284771E0,9.9753827E-1,-1.2557107E-1,1.0464817E0,-6.657291E-2,-8.7734066E-2,-6.506531E-2,-6.256729E-2,5.7550352E-2,5.1865608E-2,-6.323006E-2,-7.217621E-2,-1.691195E-1,-8.127441E-2,4.07416E-2,5.7612933E-2,4.5510914E-2,5.5959042E-2,2.775371E-2,-6.6972375E-2,5.3250547E-2],"categories":[],"categories_nodes":[],"categories_segments":[],"categories_sizes":[],"default_left":[0,0,0,0,0,0,0,0,0,0,0,0,0,0,0,0,0,0,0,0,0,0,0,0,0,0,0,0,0,0,0,0,0,0,0,0,0,0,0,0,0,0,0,0,0,0,0,0,0,0,0],"id":25,"left_children":[1,3,5,-1,7,9,11,13,-1,15,17,19,21,23,-1,25,27,29,31,33,-1,35,-1,37,-1,39,-1,41,43,-1,45,47,-1,49,-1,-1,-1,-1,-1,-1,-1,-1,-1,-1,-1,-1,-1,-1,-1,-1,-1],"loss_changes":[8.1635054E3,3.0606738E2,5.165796E1,0E0,3.6641376E2,6.3755615E1,3.951211E2,4.0176944E2,0E0,1.6489401E2,2.4155762E1,7.886621E1,8.501548E1,1.0642395E0,0E0,2.1777588E1,2.1152148E2,2.2387695E1,2.2855768E2,4.023285E1,0E0,8.526459E-1,0E0,2.8600735E1,0E0,2.093634E1,0E0,2.7568832E1,1.5060565E2,0E0,9.645752E0,4.0599854E1,0E0,3.2224243E1,0E0,0E0,0E0,0E0,0E0,0E0,0E0,0E0,0E0,0E0,0E0,0E0,0E0,0E0,0E0,0E0,0E0],"parents":[2147483647,0,0,1,1,2,2,4,4,5,5,6,6,7,7,9,9,10,10,11,11,12,12,13,13,15,15,16,16,17,17,18,18,19,19,21,21,23,23,25,25,27,27,28,28,30,30,31,31,33,33],"right_children":[2,4,6,-1,8,10,12,14,-1,16,18,20,22,24,-1,26,28,30,32,34,-1,36,-1,38,-1,40,-1,42,44,-1,46,48,-1,50,-1,-1,-1,-1,-1,-1,-1,-1,-1,-1,-1,-1,-1,-1,-1,-1,-1],"split_conditions":[5.397384E2,2.8279077E2,6.652865E-1,-5.824226E-2,-8.729291E-1,7.485112E2,2.8210753E-1,-3.5947207E-1,-5.8469117E-2,-8.488827E-1,5.1297843E-1,9.659258E-1,1.475876E1,1.6798599E-1,-5.955183E-2,9.659259E-1,-6.827582E-1,6.597011E0,5.1038986E-1,1E0,-1.0718035E-1,2.7728072E-1,5.3616285E-2,-4.6896538E-1,5.9572395E-2,7.660705E-1,-1.0723648E-1,6.391121E2,0E0,-6.62882E-2,9.724075E-1,8.073707E-1,-1.2557107E-1,-7.071067E-1,-6.657291E-2,-8.7734066E-2,-6.506531E-2,-6.256729E-2,5.7550352E-2,5.1865608E-2,-6.323006E-2,-7.217621E-2,-1.691195E-1,-8.127441E-2,4.07416E-2,5.7612933E-2,4.5510914E-2,5.5959042E-2,2.775371E-2,-6.6972375E-2,5.3250547E-2],"split_indices":[5,5,12,0,12,5,11,11,0,12,12,7,0,6,0,7,12,0,2,10,0,2,0,11,0,2,0,5,9,0,11,11,0,7,0,0,0,0,0,0,0,0,0,0,0,0,0,0,0,0,0],"split_type":[0,0,0,0,0,0,0,0,0,0,0,0,0,0,0,0,0,0,0,0,0,0,0,0,0,0,0,0,0,0,0,0,0,0,0,0,0,0,0,0,0,0,0,0,0,0,0,0,0,0,0],"sum_hessian":[8.377527E3,3.8405398E3,4.5369873E3,3.1905015E3,6.500384E2,3.7172654E3,8.1972186E2,3.2892062E2,3.211178E2,8.719144E2,2.845351E3,7.0906573E2,1.1065609E2,2.15944E2,1.1297662E2,6.4311536E2,2.287991E2,2.0623845E3,7.829665E2,7.0201227E2,7.0535254E0,9.501321E1,1.564288E1,6.5482864E1,1.5046114E2,6.4183606E2,1.2793018E0,3.5799053E1,1.9300005E2,2.9340801E0,2.0594504E3,7.6487177E2,1.8094769E1,6.956351E2,6.377181E0,1.515723E1,7.985597E1,4.575986E0,6.090688E1,6.386602E2,3.1757874E0,2.371284E1,1.2086212E1,2.8910603E1,1.6408945E2,1.8532415E3,2.0620906E2,5.9873706E2,1.6613467E2,4.811311E0,6.908237E2],"tree_param":{"num_deleted":"0","num_feature":"13","num_nodes":"51","size_leaf_vector":"1"}},{"base_weights":[7.97199E-3,-1.1041381E0,5.642762E-1,-9.155438E-1,-5.7768602E-2,-9.270509E-1,8.3182895E-1,-8.854297E-2,-5.772397E-2,-1.066965E0,4.891017E-1,5.8610445E-1,1.0125073E0,-5.6945365E-2,1.1033933E0,1.0301425E0,-5.8349837E-2,1.1227878E0,-5.512276E-2,-9.6819505E-2,7.7632505E-1,7.456996E-1,1.0588528E0,-4.0980842E-2,5.762442E-2,5.7199456E-2,-5.3809952E-2,-3.700353E-2,6.0126264E-2,4.9684265E-1,-8.973099E-1,8.0739313E-1,-9.37825E-2,1.041997E0,-8.9876163E-1,1.1077574E0,9.267009E-1,-6.3864805E-2,5.61983E-2,-6.625923E-2,4.366396E-2,5.379442E-2,2.4061626E-2,5.3072866E-2,-5.8384478E-2,-8.193563E-2,4.6188798E-2,3.3441212E-2,5.5571675E-2,5.2433353E-2,-7.5454354E-2],"categories":[],"categories_nodes":[],"categories_segments":[],"categories_sizes":[],"default_left":[0,0,0,0,0,0,0,0,0,0,0,0,0,0,0,0,0,0,0,0,0,0,0,0,0,0,0,0,0,0,0,0,0,0,0,0,0,0,0,0,0,0,0,0,0,0,0,0,0,0,0],"id":26,"left_children":[1,3,5,7,-1,9,11,13,-1,15,17,19,21,-1,23,25,-1,27,-1,29,31,33,35,-1,-1,-1,-1,-1,-1,37,39,41,-1,43,45,47,49,-1,-1,-1,-1,-1,-1,-1,-1,-1,-1,-1,-1,-1,-1],"loss_changes":[4.8746045E3,2.4326904E1,2.096353E3,1.1174982E2,0E0,1.5891046E2,1.9713306E2,1.6146715E2,0E0,1.5388153E2,7.442003E1,2.455304E2,3.092871E1,0E0,6.651863E0,9.304565E0,0E0,8.672501E0,0E0,1.9648662E2,1.2328589E2,1.8755699E2,1.3082764E1,0E0,0E0,0E0,0E0,0E0,0E0,2.6568613E2,1.3450768E2,1.2747308E2,0E0,1.5214691E1,8.109546E1,1.819458E0,1.7858188E2,0E0,0E0,0E0,0E0,0E0,0E0,0E0,0E0,0E0,0E0,0E0,0E0,0E0,0E0],"parents":[2147483647,0,0,1,1,2,2,3,3,5,5,6,6,7,7,9,9,10,10,11,11,12,12,14,14,15,15,17,17,19,19,20,20,21,21,22,22,29,29,30,30,31,31,33,33,34,34,35,35,36,36],"right_children":[2,4,6,8,-1,10,12,14,-1,16,18,20,22,-1,24,26,-1,28,-1,30,32,34,36,-1,-1,-1,-1,-1,-1,38,40,42,-1,44,46,48,50,-1,-1,-1,-1,-1,-1,-1,-1,-1,-1,-1,-1,-1,-1],"split_conditions":[1.6798599E-1,-8.811917E-1,8.5501776E2,-3.5947207E-1,-5.7768602E-2,1E0,3.0074258E3,8.584049E0,-5.772397E-2,-9.999422E-1,-9.73618E-1,2.4297322E-1,2.182886E-1,-5.6945365E-2,1.0689481E-1,8.334749E-2,-5.8349837E-2,5.487414E0,-5.512276E-2,-4.0712962E-1,9.6825075E-1,-8.665624E-1,8.5227484E-1,-4.0980842E-2,5.762442E-2,5.7199456E-2,-5.3809952E-2,-3.700353E-2,6.0126264E-2,-4.9906868E-1,2.957764E3,2.8724098E-1,-9.37825E-2,7.660705E-1,1E0,-9.6645194E-1,2.8210753E-1,-6.3864805E-2,5.61983E-2,-6.625923E-2,4.366396E-2,5.379442E-2,2.4061626E-2,5.3072866E-2,-5.8384478E-2,-8.193563E-2,4.6188798E-2,3.3441212E-2,5.5571675E-2,5.2433353E-2,-7.5454354E-2],"split_indices":[6,12,3,11,0,7,3,0,0,12,2,6,6,0,6,2,0,0,0,11,11,12,12,0,0,0,0,0,0,11,3,1,0,2,7,1,11,0,0,0,0,0,0,0,0,0,0,0,0,0,0],"split_type":[0,0,0,0,0,0,0,0,0,0,0,0,0,0,0,0,0,0,0,0,0,0,0,0,0,0,0,0,0,0,0,0,0,0,0,0,0,0,0,0,0,0,0,0,0,0,0,0,0,0,0],"sum_hessian":[7.8771396E3,2.6261692E3,5.2509707E3,5.650529E2,2.0611162E3,7.9837854E2,4.452592E3,1.2696698E2,4.3808594E2,7.268166E2,7.156198E1,1.8884811E3,2.5641108E3,6.751529E1,5.9451694E1,3.266729E1,6.941493E2,5.1393818E1,2.0168163E1,4.1152563E2,1.4769554E3,3.8200797E2,2.182103E3,1.0893248E0,5.836237E1,3.1425636E1,1.2416539E0,1.769632E0,4.9624187E1,2.3650638E2,1.7501926E2,1.4605406E3,1.6414797E1,3.239969E2,5.8011086E1,1.5873135E3,5.9478937E2,6.149621E1,1.7501018E2,1.4115884E2,3.3860413E1,7.9982574E2,6.607149E2,3.2168353E2,2.313373E0,4.133139E1,1.6679697E1,1.4702803E1,1.5726107E3,5.6696924E2,2.7820143E1],"tree_param":{"num_deleted":"0","num_feature":"13","num_nodes":"51","size_leaf_vector":"1"}},{"base_weights":[-1.0173745E-3,-1.0208998E0,8.984935E-1,-5.7340395E-2,-4.0002936E-1,-6.382096E-2,9.061287E-1,3.2294896E-1,-5.7588346E-2,7.508549E-1,1.0093902E0,1.1031164E0,-5.8471944E-2,7.8204495E-1,-8.58106E-2,3.1609246E-1,1.024032E0,5.777783E-2,8.964492E-1,9.7737676E-1,4.3628174E-1,1.0966486E0,-1.5336976E0,1.062805E0,8.859679E-1,-6.581136E-2,5.5002123E-2,1.2439605E-2,5.3342756E-2,4.7159392E-2,-7.892235E-2,-5.456668E-2,6.117787E-2,-1.04275204E-1,-5.5028535E-2,4.4443857E-2,5.565202E-2,5.081866E-2,-7.3649295E-2],"categories":[],"categories_nodes":[],"categories_segments":[],"categories_sizes":[],"default_left":[0,0,0,0,0,0,0,0,0,0,0,0,0,0,0,0,0,0,0,0,0,0,0,0,0,0,0,0,0,0,0,0,0,0,0,0,0,0,0],"id":27,"left_children":[1,3,5,-1,7,-1,9,11,-1,13,15,17,-1,19,-1,21,23,-1,25,27,29,31,33,35,37,-1,-1,-1,-1,-1,-1,-1,-1,-1,-1,-1,-1,-1,-1],"loss_changes":[6.9276245E3,2.7618726E2,6.778735E1,0E0,3.2548907E2,0E0,6.336206E1,3.5723804E2,0E0,1.2454785E2,2.4027832E1,1.1454926E0,0E0,1.0640979E2,0E0,7.540675E1,1.163208E1,0E0,2.1808052E1,6.557965E1,5.865243E2,1.1468071E1,1.4258347E0,1.4989502E1,1.6176935E2,0E0,0E0,0E0,0E0,0E0,0E0,0E0,0E0,0E0,0E0,0E0,0E0,0E0,0E0],"parents":[2147483647,0,0,1,1,2,2,4,4,6,6,7,7,9,9,10,10,11,11,13,13,15,15,16,16,18,18,19,19,20,20,21,21,22,22,23,23,24,24],"right_children":[2,4,6,-1,8,-1,10,12,-1,14,16,18,-1,20,-1,22,24,-1,26,28,30,32,34,36,38,-1,-1,-1,-1,-1,-1,-1,-1,-1,-1,-1,-1,-1,-1],"split_conditions":[5.397384E2,2.8279077E2,1.733423E-1,-5.7340395E-2,-8.729291E-1,-6.382096E-2,1.039964E1,-3.5947207E-1,-5.7588346E-2,9.6825075E-1,1.8830721E-1,8.660254E-1,-5.8471944E-2,3.4235686E-1,-8.58106E-2,-7.0710677E-1,8.5227484E-1,5.777783E-2,1.001989E1,2.4297322E-1,-2.2252095E-1,8.2587093E-1,-8.578495E-1,7.485112E2,2.8210753E-1,-6.581136E-2,5.5002123E-2,1.2439605E-2,5.3342756E-2,4.7159392E-2,-7.892235E-2,-5.456668E-2,6.117787E-2,-1.04275204E-1,-5.5028535E-2,4.4443857E-2,5.565202E-2,5.081866E-2,-7.3649295E-2],"split_indices":[5,5,6,0,12,0,0,11,0,11,6,7,0,12,0,8,12,0,0,6,10,1,12,5,11,0,0,0,0,0,0,0,0,0,0,0,0,0,0],"split_type":[0,0,0,0,0,0,0,0,0,0,0,0,0,0,0,0,0,0,0,0,0,0,0,0,0,0,0,0,0,0,0,0,0,0,0,0,0,0,0],"sum_hessian":[7.5494053E3,3.5379153E3,4.01149E3,2.940713E3,5.972025E2,1.3451959E1,3.998038E3,3.047152E2,2.924873E2,1.6001594E3,2.3978787E3,2.0027788E2,1.0443733E2,1.5808563E3,1.9303034E1,5.0060753E1,2.3478179E3,1.5608192E2,4.4195946E1,1.00901E3,5.718464E2,3.5491535E1,1.4569217E1,1.8278104E3,5.2000745E2,3.263446E0,4.09325E1,1.10777275E2,8.982327E2,4.5731717E2,1.1452921E2,1.5291281E0,3.3962406E1,4.729196E0,9.840021E0,4.1380453E2,1.4140059E3,4.9330618E2,2.6701296E1],"tree_param":{"num_deleted":"0","num_feature":"13","num_nodes":"39","size_leaf_vector":"1"}},{"base_weights":[2.2846961E-2,-1.0126531E0,8.947201E-1,-5.693012E-2,-3.979468E-1,8.233483E-1,1.0862811E0,3.2071987E-1,-5.715037E-2,8.9722335E-1,2.0332608E-1,5.7531845E-2,9.337973E-1,1.094785E0,-5.8065247E-2,9.182998E-1,-7.164597E-1,5.691419E-2,-1.5215696E0,2.3862386E-2,1.1159824E0,9.3461955E-1,5.7846673E-2,7.366682E-1,1.0030632E0,-1.8133684E0,5.344085E-2,-1.377061E0,-2.3210888E0,9.9256676E-1,-2.463845E0,-5.1019765E-2,5.6652065E-2,5.5710103E-2,-5.886215E-2,4.8914533E-2,-3.0611274E-3,5.541293E-2,3.326265E-2,-6.345256E-2,-1.0315829E-1,-8.173401E-2,-6.448508E-2,-1.3188468E-1,-6.738056E-2,5.4710098E-2,-4.4161603E-2,-1.7737643E-1,-8.916321E-2],"categories":[],"categories_nodes":[],"categories_segments":[],"categories_sizes":[],"default_left":[0,0,0,0,0,0,0,0,0,0,0,0,0,0,0,0,0,0,0,0,0,0,0,0,0,0,0,0,0,0,0,0,0,0,0,0,0,0,0,0,0,0,0,0,0,0,0,0,0],"id":28,"left_children":[1,3,5,-1,7,9,11,13,-1,15,17,-1,19,21,-1,23,25,-1,27,29,31,33,-1,35,37,39,-1,41,43,45,47,-1,-1,-1,-1,-1,-1,-1,-1,-1,-1,-1,-1,-1,-1,-1,-1,-1,-1],"loss_changes":[6.6645864E3,2.6079443E2,5.389746E1,0E0,3.0843616E2,1.3374365E2,9.569946E0,3.3813226E2,0E0,8.950391E1,5.0583258E2,0E0,5.422162E1,8.439026E-1,0E0,3.8967285E1,6.8992294E1,0E0,9.54776E0,1.364593E2,1.1091675E1,2.3790695E1,0E0,1.5899207E2,6.16521E1,3.1601715E-1,0E0,4.949951E-2,1.1998291E0,8.733009E0,5.380562E0,0E0,0E0,0E0,0E0,0E0,0E0,0E0,0E0,0E0,0E0,0E0,0E0,0E0,0E0,0E0,0E0,0E0,0E0],"parents":[2147483647,0,0,1,1,2,2,4,4,5,5,6,6,7,7,9,9,10,10,12,12,13,13,15,15,16,16,18,18,19,19,20,20,21,21,23,23,24,24,25,25,27,27,28,28,29,29,30,30],"right_children":[2,4,6,-1,8,10,12,14,-1,16,18,-1,20,22,-1,24,26,-1,28,30,32,34,-1,36,38,40,-1,42,44,46,48,-1,-1,-1,-1,-1,-1,-1,-1,-1,-1,-1,-1,-1,-1,-1,-1,-1,-1],"split_conditions":[5.397384E2,2.8279077E2,3.20018E3,-5.693012E-2,-8.729291E-1,6.652865E-1,4.3388382E-1,-3.5947207E-1,-5.715037E-2,9.888537E-1,2.3224269E-1,5.7531845E-2,4.9999997E-1,1.6798599E-1,-5.8065247E-2,7.485112E2,1.475876E1,5.691419E-2,1.212178E1,7.818315E-1,1.163829E1,6.515345E-1,5.7846673E-2,-8.488827E-1,3.4235686E-1,8.7762195E2,5.344085E-2,-4.3388376E-1,2.8210753E-1,5.524259E-1,-4.999999E-1,-5.1019765E-2,5.6652065E-2,5.5710103E-2,-5.886215E-2,4.8914533E-2,-3.0611274E-3,5.541293E-2,3.326265E-2,-6.345256E-2,-1.0315829E-1,-8.173401E-2,-6.448508E-2,-1.3188468E-1,-6.738056E-2,5.4710098E-2,-4.4161603E-2,-1.7737643E-1,-8.916321E-2],"split_indices":[5,5,5,0,12,12,9,11,0,11,11,0,8,6,0,5,0,0,0,9,0,1,0,12,12,5,0,9,11,1,8,0,0,0,0,0,0,0,0,0,0,0,0,0,0,0,0,0,0],"split_type":[0,0,0,0,0,0,0,0,0,0,0,0,0,0,0,0,0,0,0,0,0,0,0,0,0,0,0,0,0,0,0,0,0,0,0,0,0,0,0,0,0,0,0,0,0,0,0,0,0],"sum_hessian":[7.379924E3,3.3733389E3,4.0065847E3,2.798992E3,5.743468E2,2.9228772E3,1.0837075E3,2.926416E2,2.8170517E2,2.6112964E3,3.115808E2,7.574709E2,3.2623666E2,1.9240784E2,1.0023378E2,2.5780552E3,3.3241238E1,2.0227844E2,1.09302376E2,5.461077E1,2.716259E2,5.8271732E1,1.3413611E2,8.233871E2,1.7546681E3,2.0580465E1,1.2660773E1,9.4876366E1,1.4426012E1,3.973796E1,1.4872809E1,1.6858007E0,2.699401E2,5.4140312E1,4.1314197E0,6.31827E2,1.9156003E2,1.3362684E3,4.1839972E2,8.386437E0,1.2194029E1,1.9540411E1,7.533595E1,9.595653E0,4.83036E0,3.8090786E1,1.6471744E0,4.1123095E0,1.07605E1],"tree_param":{"num_deleted":"0","num_feature":"13","num_nodes":"49","size_leaf_vector":"1"}},{"base_weights":[2.6790012E-2,-1.0144283E0,8.835007E-1,-5.6544818E-2,-4.3217754E-1,7.944104E-1,1.0469704E0,2.7522996E-1,-5.6757778E-2,8.197611E-1,-1.8757461E0,1.0641444E0,-8.73044E-2,1.0714216E0,-5.752918E-2,9.4062614E-1,4.6665788E-1,-8.0463976E-2,-2.7367473E0,1.1017616E0,9.3512505E-1,5.6328285E-2,8.707013E-1,7.1625537E-1,1.0973122E0,8.641947E-1,-1.5738025E0,-1.7743896E-1,-3.927635E-2,1.1129335E0,7.8733456E-1,-1.7202584E0,1.0489048E0,-6.383946E-2,5.3812493E-2,4.75534E-2,-6.2850188E-3,5.546076E-2,4.46206E-2,5.301396E-2,2.2803766E-3,5.4087795E-2,-1.0268562E-1,4.8608523E-2,5.629049E-2,5.564014E-2,-1.3977472E-1,-6.7239195E-2,-1.4202343E-1,-1.1516676E-1,5.405272E-2],"categories":[],"categories_nodes":[],"categories_segments":[],"categories_sizes":[],"default_left":[0,0,0,0,0,0,0,0,0,0,0,0,0,0,0,0,0,0,0,0,0,0,0,0,0,0,0,0,0,0,0,0,0,0,0,0,0,0,0,0,0,0,0,0,0,0,0,0,0,0,0],"id":29,"left_children":[1,3,5,-1,7,9,11,13,-1,15,17,19,-1,21,-1,23,25,-1,27,29,31,-1,33,35,37,39,41,-1,-1,43,45,47,49,-1,-1,-1,-1,-1,-1,-1,-1,-1,-1,-1,-1,-1,-1,-1,-1,-1,-1],"loss_changes":[6.3925693E3,2.188794E2,5.6425293E1,0E0,2.692633E2,1.7406812E2,6.823096E1,3.0816367E2,0E0,1.0734558E2,1.1652374E0,5.6470947E0,0E0,9.4511414E-1,0E0,6.532556E1,5.253804E2,0E0,4.0411606E0,2.8463135E0,9.7640625E1,0E0,1.9871841E1,1.5356201E2,1.7062988E0,8.6840454E1,1.3691962E2,0E0,0E0,7.558594E-1,4.9494797E1,1.8214378E0,3.533844E1,0E0,0E0,0E0,0E0,0E0,0E0,0E0,0E0,0E0,0E0,0E0,0E0,0E0,0E0,0E0,0E0,0E0,0E0],"parents":[2147483647,0,0,1,1,2,2,4,4,5,5,6,6,7,7,9,9,10,10,11,11,13,13,15,15,16,16,18,18,19,19,20,20,22,22,23,23,24,24,25,25,26,26,29,29,30,30,31,31,32,32],"right_children":[2,4,6,-1,8,10,12,14,-1,16,18,20,-1,22,-1,24,26,-1,28,30,32,-1,34,36,38,40,42,-1,-1,44,46,48,50,-1,-1,-1,-1,-1,-1,-1,-1,-1,-1,-1,-1,-1,-1,-1,-1,-1,-1],"split_conditions":[5.397384E2,2.8279077E2,2.8745918E3,-5.6544818E-2,-8.729291E-1,9.6825075E-1,9.659259E-1,-3.5947207E-1,-5.6757778E-2,3.4235686E-1,3.0944656E3,7.818315E-1,-8.73044E-2,8.660254E-1,-5.752918E-2,7.485112E2,6.234896E-1,-8.0463976E-2,2.455342E3,3.813452E2,1.171185E1,5.6328285E-2,1.001989E1,-8.488827E-1,1.9085477E3,3.75443E-1,4.514081E-2,-1.7743896E-1,-3.927635E-2,1.045881E1,2.7694613E-1,5.027907E-1,-9.3421316E-1,-6.383946E-2,5.3812493E-2,4.75534E-2,-6.2850188E-3,5.546076E-2,4.46206E-2,5.301396E-2,2.2803766E-3,5.4087795E-2,-1.0268562E-1,4.8608523E-2,5.629049E-2,5.564014E-2,-1.3977472E-1,-6.7239195E-2,-1.4202343E-1,-1.1516676E-1,5.405272E-2],"split_indices":[5,5,5,0,12,11,7,11,0,12,3,9,0,7,0,5,10,0,4,4,0,0,0,12,5,2,11,0,0,0,12,11,2,0,0,0,0,0,0,0,0,0,0,0,0,0,0,0,0,0,0],"split_type":[0,0,0,0,0,0,0,0,0,0,0,0,0,0,0,0,0,0,0,0,0,0,0,0,0,0,0,0,0,0,0,0,0,0,0,0,0,0,0,0,0,0,0,0,0,0,0,0,0,0,0],"sum_hessian":[7.164369E3,3.2338586E3,3.9305105E3,2.6940276E3,5.39831E2,2.5478188E3,1.3826917E3,2.693711E2,2.7045993E2,2.5245437E3,2.3275253E1,1.3748569E3,7.8347435E0,1.730092E2,9.6361885E1,1.8795288E3,6.450149E2,1.996536E1,3.3098931E0,1.0586536E3,3.162034E2,1.3210362E2,4.0905594E1,7.7513074E2,1.1043981E3,5.40322E2,1.0469287E2,1.7590765E0,1.5508167E0,1.0198764E3,3.877711E1,1.241207E1,3.0379135E2,3.1180296E0,3.7787563E1,6.0599536E2,1.6913538E2,1.0395929E3,6.480511E1,4.3566702E2,1.0465502E2,1.5832178E1,8.886069E1,9.188523E1,9.2799115E2,3.6179897E1,2.5972157E0,1.0944233E1,1.4678373E0,2.2147596E0,3.0157657E2],"tree_param":{"num_deleted":"0","num_feature":"13","num_nodes":"51","size_leaf_vector":"1"}},{"base_weights":[1.5076673E-2,-1.0166483E0,8.646007E-1,-5.6183845E-2,-4.732719E-1,-6.372328E-2,8.7194806E-1,2.218011E-1,-5.6374855E-2,7.160505E-1,9.759336E-1,1.0597967E0,-5.7086732E-2,9.346643E-1,3.776145E-1,5.52159E-1,1.0044838E0,5.6811463E-2,8.009414E-1,7.7814154E-2,1.0292554E0,8.787637E-1,-1.2526162E0,8.671982E-1,-7.5693764E-2,1.0073855E0,-6.1323214E-2,-7.5284E-2,5.4889567E-2,-1.1049005E-1,3.167209E-2,-5.966553E-2,5.181122E-2,4.7902044E-2,-6.434938E-2,-9.3321465E-2,3.244088E-2,5.013242E-2,-6.0266823E-2,5.264165E-2,4.3606397E-2],"categories":[],"categories_nodes":[],"categories_segments":[],"categories_sizes":[],"default_left":[0,0,0,0,0,0,0,0,0,0,0,0,0,0,0,0,0,0,0,0,0,0,0,0,0,0,0,0,0,0,0,0,0,0,0,0,0,0,0,0,0],"id":30,"left_children":[1,3,5,-1,7,-1,9,11,-1,13,15,17,-1,19,21,23,25,-1,27,29,31,33,35,37,-1,39,-1,-1,-1,-1,-1,-1,-1,-1,-1,-1,-1,-1,-1,-1,-1],"loss_changes":[5.9795415E3,1.7863574E2,5.991455E1,0E0,2.3156818E2,0E0,5.9756836E1,2.839898E2,0E0,1.1032605E2,2.6478516E1,2.132843E0,0E0,7.3527954E1,4.821065E2,9.4551636E1,1.4778809E1,0E0,2.7979452E1,1.17538635E2,1.3903381E1,7.865167E1,1.6326105E2,3.6280174E1,0E0,1.1928955E1,0E0,0E0,0E0,0E0,0E0,0E0,0E0,0E0,0E0,0E0,0E0,0E0,0E0,0E0,0E0],"parents":[2147483647,0,0,1,1,2,2,4,4,6,6,7,7,9,9,10,10,11,11,13,13,14,14,15,15,16,16,18,18,19,19,20,20,21,21,22,22,23,23,25,25],"right_children":[2,4,6,-1,8,-1,10,12,-1,14,16,18,-1,20,22,24,26,-1,28,30,32,34,36,38,-1,40,-1,-1,-1,-1,-1,-1,-1,-1,-1,-1,-1,-1,-1,-1,-1],"split_conditions":[5.397384E2,2.8279077E2,1.733423E-1,-5.6183845E-2,-8.729291E-1,-6.372328E-2,3.0074258E3,-3.5947207E-1,-5.6374855E-2,-2.4998091E-1,2.0286858E-1,7.0710677E-1,-5.7086732E-2,2.4297322E-1,-2.2252095E-1,-4.9999976E-1,2.686188E3,5.6811463E-2,4.5150238E2,7.818315E-1,6.777325E2,2.5881898E-1,1.175998E3,-8.578495E-1,-7.5693764E-2,6.258885E-1,-6.1323214E-2,-7.5284E-2,5.4889567E-2,-1.1049005E-1,3.167209E-2,-5.966553E-2,5.181122E-2,4.7902044E-2,-6.434938E-2,-9.3321465E-2,3.244088E-2,5.013242E-2,-6.0266823E-2,5.264165E-2,4.3606397E-2],"split_indices":[5,5,6,0,12,0,3,11,0,12,6,7,0,6,10,7,4,0,5,9,3,8,4,12,0,12,0,0,0,0,0,0,0,0,0,0,0,0,0,0,0],"split_type":[0,0,0,0,0,0,0,0,0,0,0,0,0,0,0,0,0,0,0,0,0,0,0,0,0,0,0,0,0,0,0,0,0,0,0,0,0,0,0,0,0],"sum_hessian":[6.820257E3,3.0797651E3,3.7404917E3,2.5720764E3,5.076885E2,1.2213721E1,3.728278E3,2.4648001E2,2.612085E2,1.4949298E3,2.2333481E3,1.527973E2,9.368272E1,9.071755E2,5.877544E2,1.4224998E2,2.0910981E3,1.15348694E2,3.74486E1,9.03715E1,8.1680396E2,4.4990887E2,1.3784552E2,1.2393241E2,1.8317574E1,2.0889297E3,2.168584E0,3.805605E0,3.3642998E1,1.7078644E1,7.3292854E1,2.0209954E0,8.1478296E2,4.3455948E2,1.5349388E1,1.0422004E2,3.3625484E1,1.16814255E2,7.11815E0,1.558485E3,5.3044464E2],"tree_param":{"num_deleted":"0","num_feature":"13","num_nodes":"41","size_leaf_vector":"1"}},{"base_weights":[1.656409E-2,-1.0665298E0,5.3893167E-1,-8.8162583E-1,-5.5840638E-2,-9.985177E-1,7.536459E-1,-6.5545246E-2,-5.590854E-2,-5.5905994E-2,3.190096E-1,4.9686497E-1,9.5614564E-1,-5.48481E-2,1.0466554E0,-5.2542415E-2,1.0532904E0,-3.1202364E-1,6.959368E-1,-5.515951E-2,9.6156484E-1,-4.714183E-2,5.540842E-2,5.6972373E-2,-3.0166507E-2,2.814774E-1,-9.240546E-1,7.296919E-1,-7.49019E-2,7.415185E-1,1.002217E0,-6.1571844E-2,5.154556E-2,-6.462308E-2,3.8872972E-2,5.052153E-2,2.0745337E-2,5.054331E-2,-3.8968295E-2,5.31837E-2,4.2209275E-2],"categories":[],"categories_nodes":[],"categories_segments":[],"categories_sizes":[],"default_left":[0,0,0,0,0,0,0,0,0,0,0,0,0,0,0,0,0,0,0,0,0,0,0,0,0,0,0,0,0,0,0,0,0,0,0,0,0,0,0,0,0],"id":31,"left_children":[1,3,5,7,-1,9,11,13,-1,-1,15,17,19,-1,21,-1,23,25,27,-1,29,-1,-1,-1,-1,31,33,35,-1,37,39,-1,-1,-1,-1,-1,-1,-1,-1,-1,-1],"loss_changes":[3.7264485E3,1.8940186E1,1.4675787E3,8.929065E1,0E0,8.6227295E1,2.0229028E2,1.2170299E2,0E0,0E0,4.7506424E1,2.7740686E2,2.537915E1,0E0,7.2956276E0,0E0,5.045128E0,1.2400313E2,1.03420715E2,0E0,1.8703247E1,0E0,0E0,0E0,0E0,1.9823433E2,1.062825E2,1.1989612E2,0E0,1.4122867E2,1.6895386E1,0E0,0E0,0E0,0E0,0E0,0E0,0E0,0E0,0E0,0E0],"parents":[2147483647,0,0,1,1,2,2,3,3,5,5,6,6,7,7,10,10,11,11,12,12,14,14,16,16,17,17,18,18,20,20,25,25,26,26,27,27,29,29,30,30],"right_children":[2,4,6,8,-1,10,12,14,-1,-1,16,18,20,-1,22,-1,24,26,28,-1,30,-1,-1,-1,-1,32,34,36,-1,38,40,-1,-1,-1,-1,-1,-1,-1,-1,-1,-1],"split_conditions":[1.6984446E-1,-8.811917E-1,6.168508E0,-3.5947207E-1,-5.5840638E-2,1E0,3.0074258E3,8.584049E0,-5.590854E-2,-5.5905994E-2,5.726651E0,2.4297322E-1,1.733423E-1,-5.48481E-2,1.0689481E-1,-5.2542415E-2,-9.73618E-1,-4.0712962E-1,9.6825075E-1,-5.515951E-2,2.182886E-1,-4.714183E-2,5.540842E-2,5.6972373E-2,-3.0166507E-2,-4.9906868E-1,1.02777E1,2.8724098E-1,-7.49019E-2,-8.578495E-1,6.258885E-1,-6.1571844E-2,5.154556E-2,-6.462308E-2,3.8872972E-2,5.052153E-2,2.0745337E-2,5.054331E-2,-3.8968295E-2,5.31837E-2,4.2209275E-2],"split_indices":[6,12,0,11,0,7,3,0,0,0,0,6,6,0,6,0,2,11,11,0,6,0,0,0,0,11,0,1,0,12,12,0,0,0,0,0,0,0,0,0,0],"split_type":[0,0,0,0,0,0,0,0,0,0,0,0,0,0,0,0,0,0,0,0,0,0,0,0,0,0,0,0,0,0,0,0,0,0,0,0,0,0,0,0,0],"sum_hessian":[6.5844556E3,2.1420396E3,4.442416E3,4.6193008E2,1.6801094E3,5.439367E2,3.8984792E3,1.04091446E2,3.5783862E2,4.988075E2,4.5129246E1,1.720387E3,2.1780923E3,5.4014217E1,5.007723E1,1.5598293E1,2.9530952E1,3.3966373E2,1.3807233E3,5.1849427E0,2.1729072E3,1.0721939E0,4.9005035E1,2.8367794E1,1.1631587E0,1.727165E2,1.6694724E2,1.3604595E3,2.0263786E1,3.4183408E2,1.8310732E3,5.7001656E1,1.1571485E2,1.3743138E2,2.9515842E1,7.179509E2,6.4250854E2,2.9068863E2,5.1145428E1,1.3142451E3,5.1682806E2],"tree_param":{"num_deleted":"0",